{"learner":{"attributes":{"scikit_learn":"{\"_estimator_type\": \"regressor\"}"},"feature_names":["experience_level","job_title","employee_residence","company_location"],"feature_types":["int","int","int","int"],"gradient_booster":{"model":{"gbtree_model_param":{"num_parallel_tree":"1","num_trees":"300"},"iteration_indptr":[0,1,2,3,4,5,6,7,8,9,10,11,12,13,14,15,16,17,18,19,20,21,22,23,24,25,26,27,28,29,30,31,32,33,34,35,36,37,38,39,40,41,42,43,44,45,46,47,48,49,50,51,52,53,54,55,56,57,58,59,60,61,62,63,64,65,66,67,68,69,70,71,72,73,74,75,76,77,78,79,80,81,82,83,84,85,86,87,88,89,90,91,92,93,94,95,96,97,98,99,100,101,102,103,104,105,106,107,108,109,110,111,112,113,114,115,116,117,118,119,120,121,122,123,124,125,126,127,128,129,130,131,132,133,134,135,136,137,138,139,140,141,142,143,144,145,146,147,148,149,150,151,152,153,154,155,156,157,158,159,160,161,162,163,164,165,166,167,168,169,170,171,172,173,174,175,176,177,178,179,180,181,182,183,184,185,186,187,188,189,190,191,192,193,194,195,196,197,198,199,200,201,202,203,204,205,206,207,208,209,210,211,212,213,214,215,216,217,218,219,220,221,222,223,224,225,226,227,228,229,230,231,232,233,234,235,236,237,238,239,240,241,242,243,244,245,246,247,248,249,250,251,252,253,254,255,256,257,258,259,260,261,262,263,264,265,266,267,268,269,270,271,272,273,274,275,276,277,278,279,280,281,282,283,284,285,286,287,288,289,290,291,292,293,294,295,296,297,298,299,300],"tree_info":[0,0,0,0,0,0,0,0,0,0,0,0,0,0,0,0,0,0,0,0,0,0,0,0,0,0,0,0,0,0,0,0,0,0,0,0,0,0,0,0,0,0,0,0,0,0,0,0,0,0,0,0,0,0,0,0,0,0,0,0,0,0,0,0,0,0,0,0,0,0,0,0,0,0,0,0,0,0,0,0,0,0,0,0,0,0,0,0,0,0,0,0,0,0,0,0,0,0,0,0,0,0,0,0,0,0,0,0,0,0,0,0,0,0,0,0,0,0,0,0,0,0,0,0,0,0,0,0,0,0,0,0,0,0,0,0,0,0,0,0,0,0,0,0,0,0,0,0,0,0,0,0,0,0,0,0,0,0,0,0,0,0,0,0,0,0,0,0,0,0,0,0,0,0,0,0,0,0,0,0,0,0,0,0,0,0,0,0,0,0,0,0,0,0,0,0,0,0,0,0,0,0,0,0,0,0,0,0,0,0,0,0,0,0,0,0,0,0,0,0,0,0,0,0,0,0,0,0,0,0,0,0,0,0,0,0,0,0,0,0,0,0,0,0,0,0,0,0,0,0,0,0,0,0,0,0,0,0,0,0,0,0,0,0,0,0,0,0,0,0,0,0,0,0,0,0,0,0,0,0,0,0,0,0,0,0,0,0,0,0,0,0,0,0,0,0,0,0,0,0],"trees":[{"base_weights":[-5.827218E-3,-4.48028E4,9.585225E3,-6.425539E4,-2.1101094E4,-9.601317E3,2.1644578E4,-3.6320469E3,-7.2392744E3,2.5269807E2,-3.5381619E3,-3.6381438E3,-1.348677E2,1.1146692E3,3.4532004E3],"categories":[],"categories_nodes":[],"categories_segments":[],"categories_sizes":[],"default_left":[0,0,0,0,0,0,0,0,0,0,0,0,0,0,0],"id":0,"left_children":[1,3,5,7,9,11,13,-1,-1,-1,-1,-1,-1,-1,-1],"loss_changes":[3.3651318E12,6.353676E11,1.4937482E12,1.6967637E11,2.1064027E11,5.506996E11,5.3590766E11,0E0,0E0,0E0,0E0,0E0,0E0,0E0,0E0],"parents":[2147483647,0,0,1,1,2,2,3,3,4,4,5,5,6,6],"right_children":[2,4,6,8,10,12,14,-1,-1,-1,-1,-1,-1,-1,-1],"split_conditions":[8.3E1,3E0,3E0,1.7E1,1.2E1,1E0,8.5E1,-3.6320469E3,-7.2392744E3,2.5269807E2,-3.5381619E3,-3.6381438E3,-1.348677E2,1.1146692E3,3.4532004E3],"split_indices":[2,0,0,2,3,0,1,0,0,0,0,0,0,0,0],"split_type":[0,0,0,0,0,0,0,0,0,0,0,0,0,0,0],"sum_hessian":[7.834E3,1.38E3,6.454E3,7.57E2,6.23E2,2.491E3,3.963E3,1.72E2,5.85E2,2.35E2,3.88E2,5.86E2,1.905E3,2.185E3,1.778E3],"tree_param":{"num_deleted":"0","num_feature":"4","num_nodes":"15","size_leaf_vector":"1"}},{"base_weights":[-1.7103502E0,-4.033277E4,8.626825E3,-5.7844188E4,-1.8996254E4,-8.642695E3,1.948127E4,-4.9393374E3,-8.133471E3,2.2753484E2,-3.1852559E3,-3.2749497E3,-1.2138728E2,1.382888E3,3.9449297E3],"categories":[],"categories_nodes":[],"categories_segments":[],"categories_sizes":[],"default_left":[0,0,0,0,0,0,0,0,0,0,0,0,0,0,0],"id":1,"left_children":[1,3,5,7,9,11,13,-1,-1,-1,-1,-1,-1,-1,-1],"loss_changes":[2.726912E12,5.1488778E11,1.2101648E12,1.4645644E11,1.7072038E11,4.462404E11,4.4685958E11,0E0,0E0,0E0,0E0,0E0,0E0,0E0,0E0],"parents":[2147483647,0,0,1,1,2,2,3,3,4,4,5,5,6,6],"right_children":[2,4,6,8,10,12,14,-1,-1,-1,-1,-1,-1,-1,-1],"split_conditions":[8.3E1,3E0,3E0,3.2E1,1.2E1,1E0,1.1E2,-4.9393374E3,-8.133471E3,2.2753484E2,-3.1852559E3,-3.2749497E3,-1.2138728E2,1.382888E3,3.9449297E3],"split_indices":[2,0,0,2,3,0,1,0,0,0,0,0,0,0,0],"split_type":[0,0,0,0,0,0,0,0,0,0,0,0,0,0,0],"sum_hessian":[7.834E3,1.38E3,6.454E3,7.57E2,6.23E2,2.491E3,3.963E3,5.59E2,1.98E2,2.35E2,3.88E2,5.86E2,1.905E3,3.09E3,8.73E2],"tree_param":{"num_deleted":"0","num_feature":"4","num_nodes":"15","size_leaf_vector":"1"}},{"base_weights":[-3.3397944E0,-3.63111E4,7.764441E3,-5.2077016E4,-1.7101371E4,-7.7797847E3,1.7534482E4,-2.7798625E3,-5.915566E3,2.0487813E2,-2.8675496E3,-2.581067E3,1.07854935E2,5.6891975E1,2.3334973E3],"categories":[],"categories_nodes":[],"categories_segments":[],"categories_sizes":[],"default_left":[0,0,0,0,0,0,0,0,0,0,0,0,0,0,0],"id":2,"left_children":[1,3,5,7,9,11,13,-1,-1,-1,-1,-1,-1,-1,-1],"loss_changes":[2.209993E12,4.1735776E11,9.804427E11,1.2862397E11,1.3836601E11,3.9805904E11,3.9007853E11,0E0,0E0,0E0,0E0,0E0,0E0,0E0,0E0],"parents":[2147483647,0,0,1,1,2,2,3,3,4,4,5,5,6,6],"right_children":[2,4,6,8,10,12,14,-1,-1,-1,-1,-1,-1,-1,-1],"split_conditions":[8.3E1,3E0,3E0,1.7E1,1.2E1,4.9E1,5.3E1,-2.7798625E3,-5.915566E3,2.0487813E2,-2.8675496E3,-2.581067E3,1.07854935E2,5.6891975E1,2.3334973E3],"split_indices":[2,0,0,2,3,1,1,0,0,0,0,0,0,0,0],"split_type":[0,0,0,0,0,0,0,0,0,0,0,0,0,0,0],"sum_hessian":[7.834E3,1.38E3,6.454E3,7.57E2,6.23E2,2.491E3,3.963E3,1.72E2,5.85E2,2.35E2,3.88E2,8.2E2,1.671E3,1.01E3,2.953E3],"tree_param":{"num_deleted":"0","num_feature":"4","num_nodes":"15","size_leaf_vector":"1"}},{"base_weights":[-4.468313E0,-3.2688219E4,6.9879814E3,-4.688079E4,-1.5395502E4,-2.8181492E4,1.0504338E4,-6.644669E3,-3.885891E3,-2.8042754E3,-6.3815834E1,-3.0986904E3,1.561766E3,5.0656665E2,3.1289573E3],"categories":[],"categories_nodes":[],"categories_segments":[],"categories_sizes":[],"default_left":[0,0,0,0,0,0,0,0,0,0,0,0,0,0,0],"id":3,"left_children":[1,3,5,7,9,11,13,-1,-1,-1,-1,-1,-1,-1,-1],"loss_changes":[1.7908353E12,3.3821452E11,7.985754E11,1.1638984E11,1.1644535E11,7.26114E10,6.632971E11,0E0,0E0,0E0,0E0,0E0,0E0,0E0,0E0],"parents":[2147483647,0,0,1,1,2,2,3,3,4,4,5,5,6,6],"right_children":[2,4,6,8,10,12,14,-1,-1,-1,-1,-1,-1,-1,-1],"split_conditions":[8.3E1,3E0,1E0,1E0,8.7E1,1.44E2,1.06E2,-6.644669E3,-3.885891E3,-2.8042754E3,-6.3815834E1,-3.0986904E3,1.561766E3,5.0656665E2,3.1289573E3],"split_indices":[2,0,0,0,1,1,1,0,0,0,0,0,0,0,0],"split_type":[0,0,0,0,0,0,0,0,0,0,0,0,0,0,0],"sum_hessian":[7.834E3,1.38E3,6.454E3,7.57E2,6.23E2,5.86E2,5.868E3,2.18E2,5.39E2,3.35E2,2.88E2,5.51E2,3.5E1,4.652E3,1.216E3],"tree_param":{"num_deleted":"0","num_feature":"4","num_nodes":"15","size_leaf_vector":"1"}},{"base_weights":[-5.460878E0,-2.94291E4,6.289512E3,-6.3889277E3,-3.862002E4,-7.0856763E3,1.4696344E4,-3.8217258E3,3.2643466E2,-4.7937266E3,-2.4173618E3,-1.251255E3,1.5000217E3,6.8633734E2,2.4313083E3],"categories":[],"categories_nodes":[],"categories_segments":[],"categories_sizes":[],"default_left":[0,0,0,0,0,0,0,0,0,0,0,0,0,0,0],"id":4,"left_children":[1,3,5,7,9,11,13,-1,-1,-1,-1,-1,-1,-1,-1],"loss_changes":[1.4513916E12,2.9219435E11,7.259234E11,1.2148756E11,1.3169223E11,2.9887214E11,2.984318E11,0E0,0E0,0E0,0E0,0E0,0E0,0E0,0E0],"parents":[2147483647,0,0,1,1,2,2,3,3,4,4,5,5,6,6],"right_children":[2,4,6,8,10,12,14,-1,-1,-1,-1,-1,-1,-1,-1],"split_conditions":[8.3E1,1.2E1,3E0,1.1E1,3E0,9.6E1,8.5E1,-3.8217258E3,3.2643466E2,-4.7937266E3,-2.4173618E3,-1.251255E3,1.5000217E3,6.8633734E2,2.4313083E3],"split_indices":[2,3,0,3,0,1,1,0,0,0,0,0,0,0,0],"split_type":[0,0,0,0,0,0,0,0,0,0,0,0,0,0,0],"sum_hessian":[7.834E3,1.38E3,6.454E3,3.94E2,9.86E2,2.491E3,3.963E3,9.1E1,3.03E2,5.98E2,3.88E2,2E3,4.91E2,2.185E3,1.778E3],"tree_param":{"num_deleted":"0","num_feature":"4","num_nodes":"15","size_leaf_vector":"1"}},{"base_weights":[-5.8550825E0,-2.6493943E4,5.6610786E3,-6.1163813E3,-3.494353E4,-9.811604E3,1.1893302E4,-3.4013376E3,3.1114377E2,-5.8273096E3,-2.9738186E3,2.150245E3,-1.9512916E3,9.7761505E1,1.7982698E3],"categories":[],"categories_nodes":[],"categories_segments":[],"categories_sizes":[],"default_left":[0,0,0,0,0,0,0,0,0,0,0,0,0,0,0],"id":5,"left_children":[1,3,5,7,9,11,13,-1,-1,-1,-1,-1,-1,-1,-1],"loss_changes":[1.1762324E12,2.3756944E11,6.225672E11,1.0462176E11,1.1679105E11,5.636415E11,3.0587702E11,0E0,0E0,0E0,0E0,0E0,0E0,0E0,0E0],"parents":[2147483647,0,0,1,1,2,2,3,3,4,4,5,5,6,6],"right_children":[2,4,6,8,10,12,14,-1,-1,-1,-1,-1,-1,-1,-1],"split_conditions":[8.3E1,1.3E1,5.3E1,1.2E1,1E0,1.7E1,3E0,-3.4013376E3,3.1114377E2,-5.8273096E3,-2.9738186E3,2.150245E3,-1.9512916E3,9.7761505E1,1.7982698E3],"split_indices":[2,2,1,2,0,1,0,0,0,0,0,0,0,0,0],"split_type":[0,0,0,0,0,0,0,0,0,0,0,0,0,0,0],"sum_hessian":[7.834E3,1.38E3,6.454E3,4.05E2,9.75E2,1.853E3,4.601E3,1E2,3.05E2,1.76E2,7.99E2,4.38E2,1.415E3,1.648E3,2.953E3],"tree_param":{"num_deleted":"0","num_feature":"4","num_nodes":"15","size_leaf_vector":"1"}},{"base_weights":[-6.518289E0,-2.3853158E4,5.095297E3,-3.4913285E4,-1.0379711E4,-2.385443E4,7.9898945E3,-2.8208896E3,-5.360447E3,-2.145926E3,2.5376184E2,-2.618515E3,1.2545879E3,3.624288E2,2.467451E3],"categories":[],"categories_nodes":[],"categories_segments":[],"categories_sizes":[],"default_left":[0,0,0,0,0,0,0,0,0,0,0,0,0,0,0],"id":6,"left_children":[1,3,5,7,9,11,13,-1,-1,-1,-1,-1,-1,-1,-1],"loss_changes":[9.5333666E11,2.0543144E11,5.4110542E11,9.347518E10,8.936022E10,5.0128945E10,4.2739954E11,0E0,0E0,0E0,0E0,0E0,0E0,0E0,0E0],"parents":[2147483647,0,0,1,1,2,2,3,3,4,4,5,5,6,6],"right_children":[2,4,6,8,10,12,14,-1,-1,-1,-1,-1,-1,-1,-1],"split_conditions":[8.3E1,3E0,1E0,3.2E1,8.7E1,1.44E2,1.06E2,-2.8208896E3,-5.360447E3,-2.145926E3,2.5376184E2,-2.618515E3,1.2545879E3,3.624288E2,2.467451E3],"split_indices":[2,0,0,2,1,1,1,0,0,0,0,0,0,0,0],"split_type":[0,0,0,0,0,0,0,0,0,0,0,0,0,0,0],"sum_hessian":[7.834E3,1.38E3,6.454E3,7.57E2,6.23E2,5.86E2,5.868E3,5.59E2,1.98E2,3.35E2,2.88E2,5.51E2,3.5E1,4.652E3,1.216E3],"tree_param":{"num_deleted":"0","num_feature":"4","num_nodes":"15","size_leaf_vector":"1"}},{"base_weights":[-6.9613047E0,-1.1934826E4,8.441619E3,-3.1432752E4,-5.999287E3,1.9783307E3,1.6278922E4,-2.5393044E3,-4.827096E3,-1.8565791E3,7.644331E1,-1.9184393E3,5.172165E2,1.5681572E2,1.8689912E3],"categories":[],"categories_nodes":[],"categories_segments":[],"categories_sizes":[],"default_left":[0,0,0,0,0,0,0,0,0,0,0,0,0,0,0],"id":7,"left_children":[1,3,5,7,9,11,13,-1,-1,-1,-1,-1,-1,-1,-1],"loss_changes":[7.896612E11,3.7582045E11,2.3232116E11,7.586126E10,2.1182503E11,1.7008863E11,7.349482E10,0E0,0E0,0E0,0E0,0E0,0E0,0E0,0E0],"parents":[2147483647,0,0,1,1,2,2,3,3,4,4,5,5,6,6],"right_children":[2,4,6,8,10,12,14,-1,-1,-1,-1,-1,-1,-1,-1],"split_conditions":[3E0,8.3E1,8.5E1,3.2E1,5.6E1,8.2E1,8.1E1,-2.5393044E3,-4.827096E3,-1.8565791E3,7.644331E1,-1.9184393E3,5.172165E2,1.5681572E2,1.8689912E3],"split_indices":[0,2,1,2,1,2,2,0,0,0,0,0,0,0,0],"split_type":[0,0,0,0,0,0,0,0,0,0,0,0,0,0,0],"sum_hessian":[7.834E3,3.248E3,4.586E3,7.57E2,2.491E3,2.514E3,2.072E3,5.59E2,1.98E2,8.71E2,1.62E3,3.29E2,2.185E3,2.92E2,1.78E3],"tree_param":{"num_deleted":"0","num_feature":"4","num_nodes":"15","size_leaf_vector":"1"}},{"base_weights":[-7.351066E0,-2.686925E4,3.0681484E3,-4.3729055E4,-2.0533363E4,4.3461445E4,1.386385E3,1.655827E3,-4.4927695E3,-2.2569111E3,1.125182E3,3.672243E3,5.9095215E3,-1.1773988E3,7.597595E2],"categories":[],"categories_nodes":[],"categories_segments":[],"categories_sizes":[],"default_left":[0,0,0,0,0,0,0,0,0,0,0,0,0,0,0],"id":8,"left_children":[1,3,5,7,9,11,13,-1,-1,-1,-1,-1,-1,-1,-1],"loss_changes":[6.4736127E11,8.509365E10,4.7756942E11,1.65695E10,3.823675E10,2.7435008E10,5.519286E11,0E0,0E0,0E0,0E0,0E0,0E0,0E0,0E0],"parents":[2147483647,0,0,1,1,2,2,3,3,4,4,5,5,6,6],"right_children":[2,4,6,8,10,12,14,-1,-1,-1,-1,-1,-1,-1,-1],"split_conditions":[1E0,8.3E1,2E0,2E0,1.44E2,1E2,3E0,1.655827E3,-4.4927695E3,-2.2569111E3,1.125182E3,3.672243E3,5.9095215E3,-1.1773988E3,7.597595E2],"split_indices":[0,2,0,1,1,1,0,0,0,0,0,0,0,0,0],"split_type":[0,0,0,0,0,0,0,0,0,0,0,0,0,0,0],"sum_hessian":[7.834E3,8.04E2,7.03E3,2.18E2,5.86E2,2.8E2,6.75E3,4E0,2.14E2,5.51E2,3.5E1,1.98E2,8.2E1,2.164E3,4.586E3],"tree_param":{"num_deleted":"0","num_feature":"4","num_nodes":"15","size_leaf_vector":"1"}},{"base_weights":[-5.9543624E0,-1.8698428E4,3.9931646E3,-4.399589E3,-2.6936457E4,-8.223354E3,8.737044E3,-5.3073325E3,-1.4373755E2,-2.1347544E3,-3.6822283E3,1.9020901E3,-1.6960199E3,-1.6255809E3,1.0336051E3],"categories":[],"categories_nodes":[],"categories_segments":[],"categories_sizes":[],"default_left":[0,0,0,0,0,0,0,0,0,0,0,0,0,0,0],"id":9,"left_children":[1,3,5,7,9,11,13,-1,-1,-1,-1,-1,-1,-1,-1],"loss_changes":[5.857678E11,1.625554E11,3.741629E11,7.287979E10,4.7613805E10,4.3020265E11,1.8599949E11,0E0,0E0,0E0,0E0,0E0,0E0,0E0,0E0],"parents":[2147483647,0,0,1,1,2,2,3,3,4,4,5,5,6,6],"right_children":[2,4,6,8,10,12,14,-1,-1,-1,-1,-1,-1,-1,-1],"split_conditions":[8.3E1,2.2E1,5E1,6E0,3.2E1,1.7E1,1E0,-5.3073325E3,-1.4373755E2,-2.1347544E3,-3.6822283E3,1.9020901E3,-1.6960199E3,-1.6255809E3,1.0336051E3],"split_indices":[2,2,1,2,2,1,0,0,0,0,0,0,0,0,0],"split_type":[0,0,0,0,0,0,0,0,0,0,0,0,0,0,0],"sum_hessian":[7.834E3,1.38E3,6.454E3,5.05E2,8.75E2,1.805E3,4.649E3,2.8E1,4.77E2,5.61E2,3.14E2,4.38E2,1.367E3,2.79E2,4.37E3],"tree_param":{"num_deleted":"0","num_feature":"4","num_nodes":"15","size_leaf_vector":"1"}},{"base_weights":[-6.849107E0,-1.6836744E4,3.593785E3,-1.8149222E3,-2.3266133E4,-7.400906E3,7.863208E3,-4.7949E3,1.6468431E2,-3.8667083E3,-1.9861813E3,1.7123141E3,-1.526542E3,4.220233E2,1.686819E3],"categories":[],"categories_nodes":[],"categories_segments":[],"categories_sizes":[],"default_left":[0,0,0,0,0,0,0,0,0,0,0,0,0,0,0],"id":10,"left_children":[1,3,5,7,9,11,13,-1,-1,-1,-1,-1,-1,-1,-1],"loss_changes":[4.7484813E11,1.33336334E11,3.0306225E11,6.6356683E10,4.9931616E10,3.4858408E11,1.5247173E11,0E0,0E0,0E0,0E0,0E0,0E0,0E0,0E0],"parents":[2147483647,0,0,1,1,2,2,3,3,4,4,5,5,6,6],"right_children":[2,4,6,8,10,12,14,-1,-1,-1,-1,-1,-1,-1,-1],"split_conditions":[8.3E1,1.7E1,5E1,6E0,1E0,1.7E1,1.06E2,-4.7949E3,1.6468431E2,-3.8667083E3,-1.9861813E3,1.7123141E3,-1.526542E3,4.220233E2,1.686819E3],"split_indices":[2,2,1,2,0,1,1,0,0,0,0,0,0,0,0],"split_type":[0,0,0,0,0,0,0,0,0,0,0,0,0,0,0],"sum_hessian":[7.834E3,1.38E3,6.454E3,4.14E2,9.66E2,1.805E3,4.649E3,2.8E1,3.86E2,1.73E2,7.93E2,4.38E2,1.367E3,3.311E3,1.338E3],"tree_param":{"num_deleted":"0","num_feature":"4","num_nodes":"15","size_leaf_vector":"1"}},{"base_weights":[-7.205187E0,-8.871938E3,6.2717407E3,-2.242008E4,-4.747394E3,3.2332312E3,1.6948201E4,-1.7943815E3,-3.490395E3,-8.4566254E2,1.0347968E3,-1.1603937E3,5.5236786E2,2.2815732E3,7.109099E2],"categories":[],"categories_nodes":[],"categories_segments":[],"categories_sizes":[],"default_left":[0,0,0,0,0,0,0,0,0,0,0,0,0,0,0],"id":11,"left_children":[1,3,5,7,9,11,13,-1,-1,-1,-1,-1,-1,-1,-1],"loss_changes":[4.3616102E11,1.814474E11,1.487499E11,4.173159E10,1.3962E11,1.2145403E11,5.8492748E10,0E0,0E0,0E0,0E0,0E0,0E0,0E0,0E0],"parents":[2147483647,0,0,1,1,2,2,3,3,4,4,5,5,6,6],"right_children":[2,4,6,8,10,12,14,-1,-1,-1,-1,-1,-1,-1,-1],"split_conditions":[3E0,8.3E1,1.14E2,3.2E1,9.6E1,8.2E1,1.21E2,-1.7943815E3,-3.490395E3,-8.4566254E2,1.0347968E3,-1.1603937E3,5.5236786E2,2.2815732E3,7.109099E2],"split_indices":[0,2,1,2,1,2,1,0,0,0,0,0,0,0,0],"split_type":[0,0,0,0,0,0,0,0,0,0,0,0,0,0,0],"sum_hessian":[7.834E3,3.248E3,4.586E3,7.57E2,2.491E3,3.571E3,1.015E3,5.59E2,1.98E2,2E3,4.91E2,4.77E2,3.094E3,6.35E2,3.8E2],"tree_param":{"num_deleted":"0","num_feature":"4","num_nodes":"15","size_leaf_vector":"1"}},{"base_weights":[-6.8344617E0,-2.0466607E4,2.3356663E3,-3.2528785E4,-1.6345093E4,3.9144652E4,8.0320294E2,2.5534258E3,-3.3522434E3,-1.7469701E3,2.338228E3,3.3498418E3,5.2210386E3,-9.455688E2,5.645081E2],"categories":[],"categories_nodes":[],"categories_segments":[],"categories_sizes":[],"default_left":[0,0,0,0,0,0,0,0,0,0,0,0,0,0,0],"id":12,"left_children":[1,3,5,7,9,11,13,-1,-1,-1,-1,-1,-1,-1,-1],"loss_changes":[3.755561E11,3.948842E10,3.9657616E11,1.2625609E10,2.730446E10,1.8980995E10,3.3539106E11,0E0,0E0,0E0,0E0,0E0,0E0,0E0,0E0],"parents":[2147483647,0,0,1,1,2,2,3,3,4,4,5,5,6,6],"right_children":[2,4,6,8,10,12,14,-1,-1,-1,-1,-1,-1,-1,-1],"split_conditions":[1E0,6.6E1,2E0,2E0,1.45E2,1E2,3E0,2.5534258E3,-3.3522434E3,-1.7469701E3,2.338228E3,3.3498418E3,5.2210386E3,-9.455688E2,5.645081E2],"split_indices":[0,3,0,1,1,1,0,0,0,0,0,0,0,0,0],"split_type":[0,0,0,0,0,0,0,0,0,0,0,0,0,0,0],"sum_hessian":[7.834E3,8.04E2,7.03E3,2.03E2,6.01E2,2.8E2,6.75E3,3E0,2E2,5.85E2,1.6E1,1.98E2,8.2E1,2.164E3,4.586E3],"tree_param":{"num_deleted":"0","num_feature":"4","num_nodes":"15","size_leaf_vector":"1"}},{"base_weights":[-5.1372147E0,-1.8420205E4,2.103259E3,-2.9279824E4,-1.4709604E4,3.5260688E4,7.228206E2,2.3619187E3,-3.018687E3,-1.5725714E3,2.118159E3,3.0165408E3,4.705226E3,-8.5105585E2,5.080689E2],"categories":[],"categories_nodes":[],"categories_segments":[],"categories_sizes":[],"default_left":[0,0,0,0,0,0,0,0,0,0,0,0,0,0,0],"id":13,"left_children":[1,3,5,7,9,11,13,-1,-1,-1,-1,-1,-1,-1,-1],"loss_changes":[3.0424252E11,3.2007373E10,3.2179598E11,1.0501292E10,2.2287671E10,1.5463514E10,2.7168897E11,0E0,0E0,0E0,0E0,0E0,0E0,0E0,0E0],"parents":[2147483647,0,0,1,1,2,2,3,3,4,4,5,5,6,6],"right_children":[2,4,6,8,10,12,14,-1,-1,-1,-1,-1,-1,-1,-1],"split_conditions":[1E0,6.6E1,2E0,2E0,1.45E2,1E2,3E0,2.3619187E3,-3.018687E3,-1.5725714E3,2.118159E3,3.0165408E3,4.705226E3,-8.5105585E2,5.080689E2],"split_indices":[0,3,0,1,1,1,0,0,0,0,0,0,0,0,0],"split_type":[0,0,0,0,0,0,0,0,0,0,0,0,0,0,0],"sum_hessian":[7.834E3,8.04E2,7.03E3,2.03E2,6.01E2,2.8E2,6.75E3,3E0,2E2,5.85E2,1.6E1,1.98E2,8.2E1,2.164E3,4.586E3],"tree_param":{"num_deleted":"0","num_feature":"4","num_nodes":"15","size_leaf_vector":"1"}},{"base_weights":[-3.6917279E0,-1.2844849E4,2.7435803E3,-2.184066E3,-1.9104018E4,-6.2894136E3,6.2512886E3,-1.8145514E3,4.66899E2,-3.7252349E3,-1.6671985E3,6.698825E2,-1.8209303E3,6.581966E2,-8.425519E3],"categories":[],"categories_nodes":[],"categories_segments":[],"categories_sizes":[],"default_left":[0,0,0,0,0,0,0,0,0,0,0,0,0,0,0],"id":14,"left_children":[1,3,5,7,9,11,13,-1,-1,-1,-1,-1,-1,-1,-1],"loss_changes":[2.764396E11,9.210913E10,2.045667E11,5.608968E10,3.7778424E10,2.7972393E11,1.397218E11,0E0,0E0,0E0,0E0,0E0,0E0,0E0,0E0],"parents":[2147483647,0,0,1,1,2,2,3,3,4,4,5,5,6,6],"right_children":[2,4,6,8,10,12,14,-1,-1,-1,-1,-1,-1,-1,-1],"split_conditions":[8.3E1,2.5E1,5E1,5.6E1,2.6E1,4.3E1,8.4E1,-1.8145514E3,4.66899E2,-3.7252349E3,-1.6671985E3,6.698825E2,-1.8209303E3,6.581966E2,-8.425519E3],"split_indices":[2,2,1,1,3,1,2,0,0,0,0,0,0,0,0],"split_type":[0,0,0,0,0,0,0,0,0,0,0,0,0,0,0],"sum_hessian":[7.834E3,1.38E3,6.454E3,5.11E2,8.69E2,1.805E3,4.649E3,1.53E2,3.58E2,1.01E2,7.68E2,8.64E2,9.41E2,4.633E3,1.6E1],"tree_param":{"num_deleted":"0","num_feature":"4","num_nodes":"15","size_leaf_vector":"1"}},{"base_weights":[-5.3241224E0,-1.5882241E4,1.8124719E3,-2.475914E4,-1.284774E4,3.1556979E4,5.7413403E2,2.3208662E3,-2.5590544E3,-1.4194994E3,8.7283984E2,2.6952866E3,4.221555E3,-2.3618834E2,1.1899567E3],"categories":[],"categories_nodes":[],"categories_segments":[],"categories_sizes":[],"default_left":[0,0,0,0,0,0,0,0,0,0,0,0,0,0,0],"id":15,"left_children":[1,3,5,7,9,11,13,-1,-1,-1,-1,-1,-1,-1,-1],"loss_changes":[2.2615468E11,2.1366161E10,2.5895997E11,8.729567E9,1.7623171E10,1.265179E10,2.2451008E11,0E0,0E0,0E0,0E0,0E0,0E0,0E0,0E0],"parents":[2147483647,0,0,1,1,2,2,3,3,4,4,5,5,6,6],"right_children":[2,4,6,8,10,12,14,-1,-1,-1,-1,-1,-1,-1,-1],"split_conditions":[1E0,6.6E1,2E0,2E0,1.44E2,1E2,1.14E2,2.3208662E3,-2.5590544E3,-1.4194994E3,8.7283984E2,2.6952866E3,4.221555E3,-2.3618834E2,1.1899567E3],"split_indices":[0,3,0,1,1,1,1,0,0,0,0,0,0,0,0],"split_type":[0,0,0,0,0,0,0,0,0,0,0,0,0,0,0],"sum_hessian":[7.834E3,8.04E2,7.03E3,2.03E2,6.01E2,2.8E2,6.75E3,3E0,2E2,5.66E2,3.5E1,1.98E2,8.2E1,5.361E3,1.389E3],"tree_param":{"num_deleted":"0","num_feature":"4","num_nodes":"15","size_leaf_vector":"1"}},{"base_weights":[-3.8872058E0,-1.133283E4,2.419858E3,3.580106E2,-1.6000054E4,-5.2969414E3,5.416443E3,-1.9610127E3,6.399822E2,5.9236847E2,-1.770585E3,1.4406846E3,-1.1616141E3,5.716418E2,-7.667186E3],"categories":[],"categories_nodes":[],"categories_segments":[],"categories_sizes":[],"default_left":[0,0,0,0,0,0,0,0,0,0,0,0,0,0,0],"id":16,"left_children":[1,3,5,7,9,11,13,-1,-1,-1,-1,-1,-1,-1,-1],"loss_changes":[2.1516453E11,7.535829E10,1.4929438E11,4.777977E10,3.701614E10,2.2503634E11,1.1494198E11,0E0,0E0,0E0,0E0,0E0,0E0,0E0,0E0],"parents":[2147483647,0,0,1,1,2,2,3,3,4,4,5,5,6,6],"right_children":[2,4,6,8,10,12,14,-1,-1,-1,-1,-1,-1,-1,-1],"split_conditions":[8.3E1,1.2E1,5E1,1.1E1,1.2E1,1.7E1,8.4E1,-1.9610127E3,6.399822E2,5.9236847E2,-1.770585E3,1.4406846E3,-1.1616141E3,5.716418E2,-7.667186E3],"split_indices":[2,3,1,3,1,1,2,0,0,0,0,0,0,0,0],"split_type":[0,0,0,0,0,0,0,0,0,0,0,0,0,0,0],"sum_hessian":[7.834E3,1.38E3,6.454E3,3.94E2,9.86E2,1.805E3,4.649E3,9.1E1,3.03E2,7.1E1,9.15E2,4.38E2,1.367E3,4.633E3,1.6E1],"tree_param":{"num_deleted":"0","num_feature":"4","num_nodes":"15","size_leaf_vector":"1"}},{"base_weights":[-4.687041E0,-5.878547E3,4.1558047E3,-8.501754E3,4.663836E3,3.676507E1,9.151091E3,-7.719984E2,-3.9383208E3,2.8234282E3,1.6223112E2,1.3529104E3,-2.2307666E2,6.2124414E2,1.2202213E3],"categories":[],"categories_nodes":[],"categories_segments":[],"categories_sizes":[],"default_left":[0,0,0,0,0,0,0,0,0,0,0,0,0,0,0],"id":17,"left_children":[1,3,5,7,9,11,13,-1,-1,-1,-1,-1,-1,-1,-1],"loss_changes":[1.9149727E11,8.989029E10,9.438077E10,6.251397E10,4.6409376E10,7.697486E10,1.8511086E10,0E0,0E0,0E0,0E0,0E0,0E0,0E0,0E0],"parents":[2147483647,0,0,1,1,2,2,3,3,4,4,5,5,6,6],"right_children":[2,4,6,8,10,12,14,-1,-1,-1,-1,-1,-1,-1,-1],"split_conditions":[3E0,9.6E1,8.5E1,8.9E1,1.07E2,1.7E1,1.14E2,-7.719984E2,-3.9383208E3,2.8234282E3,1.6223112E2,1.3529104E3,-2.2307666E2,6.2124414E2,1.2202213E3],"split_indices":[0,1,1,1,1,1,1,0,0,0,0,0,0,0,0],"split_type":[0,0,0,0,0,0,0,0,0,0,0,0,0,0,0],"sum_hessian":[7.834E3,3.248E3,4.586E3,2.601E3,6.47E2,2.514E3,2.072E3,2.538E3,6.3E1,7.3E1,5.74E2,3.61E2,2.153E3,1.057E3,1.015E3],"tree_param":{"num_deleted":"0","num_feature":"4","num_nodes":"15","size_leaf_vector":"1"}},{"base_weights":[-4.0586805E0,-1.010188E4,2.1562969E3,-6.313038E3,-2.290376E4,-4.5633745E3,4.765667E3,-1.02110156E3,7.9957654E2,-2.9974773E3,-1.5411268E3,5.99342E2,-1.4252402E3,5.0360416E2,-6.9215586E3],"categories":[],"categories_nodes":[],"categories_segments":[],"categories_sizes":[],"default_left":[0,0,0,0,0,0,0,0,0,0,0,0,0,0,0],"id":18,"left_children":[1,3,5,7,9,11,13,-1,-1,-1,-1,-1,-1,-1,-1],"loss_changes":[1.709414E11,6.6839855E10,1.1320441E11,5.9593994E10,1.6226599E10,1.8481226E11,9.336087E10,0E0,0E0,0E0,0E0,0E0,0E0,0E0,0E0],"parents":[2147483647,0,0,1,1,2,2,3,3,4,4,5,5,6,6],"right_children":[2,4,6,8,10,12,14,-1,-1,-1,-1,-1,-1,-1,-1],"split_conditions":[8.3E1,3.2E1,5E1,9.2E1,5.1E1,4.3E1,8.4E1,-1.02110156E3,7.9957654E2,-2.9974773E3,-1.5411268E3,5.99342E2,-1.4252402E3,5.0360416E2,-6.9215586E3],"split_indices":[2,2,1,1,3,1,2,0,0,0,0,0,0,0,0],"split_type":[0,0,0,0,0,0,0,0,0,0,0,0,0,0,0],"sum_hessian":[7.834E3,1.38E3,6.454E3,1.066E3,3.14E2,1.805E3,4.649E3,8.38E2,2.28E2,1.6E2,1.54E2,8.64E2,9.41E2,4.633E3,1.6E1],"tree_param":{"num_deleted":"0","num_feature":"4","num_nodes":"15","size_leaf_vector":"1"}},{"base_weights":[-5.1882243E0,-5.110611E3,3.611015E3,-7.346518E3,4.0156838E3,8.810988E1,7.883323E3,-1.5318411E3,-5.0612888E2,4.8883965E3,2.3393309E2,1.1847365E3,-1.8881847E2,9.1596924E2,4.5453136E1],"categories":[],"categories_nodes":[],"categories_segments":[],"categories_sizes":[],"default_left":[0,0,0,0,0,0,0,0,0,0,0,0,0,0,0],"id":19,"left_children":[1,3,5,7,9,11,13,-1,-1,-1,-1,-1,-1,-1,-1],"loss_changes":[1.4467015E11,6.6327142E10,6.903794E10,4.747041E10,4.80233E10,5.8470343E10,1.9651789E10,0E0,0E0,0E0,0E0,0E0,0E0,0E0,0E0],"parents":[2147483647,0,0,1,1,2,2,3,3,4,4,5,5,6,6],"right_children":[2,4,6,8,10,12,14,-1,-1,-1,-1,-1,-1,-1,-1],"split_conditions":[3E0,9.8E1,8.5E1,7.2E1,1.01E2,1.7E1,1.27E2,-1.5318411E3,-5.0612888E2,4.8883965E3,2.3393309E2,1.1847365E3,-1.8881847E2,9.1596924E2,4.5453136E1],"split_indices":[0,1,1,3,1,1,1,0,0,0,0,0,0,0,0],"split_type":[0,0,0,0,0,0,0,0,0,0,0,0,0,0,0],"sum_hessian":[7.834E3,3.248E3,4.586E3,2.609E3,6.39E2,2.514E3,2.072E3,5.8E2,2.029E3,2.2E1,6.17E2,3.61E2,2.153E3,1.768E3,3.04E2],"tree_param":{"num_deleted":"0","num_feature":"4","num_nodes":"15","size_leaf_vector":"1"}},{"base_weights":[-4.028085E0,-1.1955998E4,1.3643889E3,-2.9637798E3,-1.3651773E4,2.8053549E4,2.5329149E2,-5.0305197E2,1.5864862E3,-1.484533E3,3.4409482E2,2.328516E3,3.3037993E3,-6.096688E2,3.2503378E2],"categories":[],"categories_nodes":[],"categories_segments":[],"categories_sizes":[],"default_left":[0,0,0,0,0,0,0,0,0,0,0,0,0,0,0],"id":20,"left_children":[1,3,5,7,9,11,13,-1,-1,-1,-1,-1,-1,-1,-1],"loss_changes":[1.2815991E11,1.2234818E10,2.0849197E11,5.099702E9,1.3862633E10,5.909463E9,1.2849934E11,0E0,0E0,0E0,0E0,0E0,0E0,0E0,0E0],"parents":[2147483647,0,0,1,1,2,2,3,3,4,4,5,5,6,6],"right_children":[2,4,6,8,10,12,14,-1,-1,-1,-1,-1,-1,-1,-1],"split_conditions":[1E0,4.4E1,2E0,3.3E1,1.44E2,6.6E1,3E0,-5.0305197E2,1.5864862E3,-1.484533E3,3.4409482E2,2.328516E3,3.3037993E3,-6.096688E2,3.2503378E2],"split_indices":[0,1,0,1,1,1,0,0,0,0,0,0,0,0,0],"split_type":[0,0,0,0,0,0,0,0,0,0,0,0,0,0,0],"sum_hessian":[7.834E3,8.04E2,7.03E3,1.28E2,6.76E2,2.8E2,6.75E3,1.16E2,1.2E1,6.32E2,4.4E1,1.46E2,1.34E2,2.164E3,4.586E3],"tree_param":{"num_deleted":"0","num_feature":"4","num_nodes":"15","size_leaf_vector":"1"}},{"base_weights":[-2.947716E0,-8.512131E3,1.8175302E3,-5.146772E3,-1.9884592E4,2.019226E3,-7.0423315E3,-8.2907745E2,6.394558E2,-4.2318295E2,-2.2410386E3,9.684211E0,9.3813214E2],"categories":[],"categories_nodes":[],"categories_segments":[],"categories_sizes":[],"default_left":[0,0,0,0,0,0,0,0,0,0,0,0,0],"id":21,"left_children":[1,3,5,7,9,11,-1,-1,-1,-1,-1,-1,-1],"loss_changes":[1.2138572E11,5.275185E10,9.419592E10,3.8770143E10,1.2358902E10,9.1114635E10,0E0,0E0,0E0,0E0,0E0,0E0,0E0],"parents":[2147483647,0,0,1,1,2,2,3,3,4,4,5,5],"right_children":[2,4,6,8,10,12,-1,-1,-1,-1,-1,-1,-1],"split_conditions":[8.3E1,3.2E1,8.5E1,9.2E1,2.2E1,1.06E2,-7.0423315E3,-8.2907745E2,6.394558E2,-4.2318295E2,-2.2410386E3,9.684211E0,9.3813214E2],"split_indices":[2,2,2,1,1,1,0,0,0,0,0,0,0],"split_type":[0,0,0,0,0,0,0,0,0,0,0,0,0],"sum_hessian":[7.834E3,1.38E3,6.454E3,1.066E3,3.14E2,6.437E3,1.7E1,8.38E2,2.28E2,4.4E1,2.7E2,5.105E3,1.332E3],"tree_param":{"num_deleted":"0","num_feature":"4","num_nodes":"13","size_leaf_vector":"1"}},{"base_weights":[-3.7959146E0,-1.0605958E4,1.2100775E3,-2.2262083E3,-1.2143079E4,2.5149656E4,2.134501E2,-4.2593466E2,2.1784136E3,-1.2857935E3,1.0902035E3,3.943817E3,2.3475532E3,-5.37445E2,2.8508145E2],"categories":[],"categories_nodes":[],"categories_segments":[],"categories_sizes":[],"default_left":[0,0,0,0,0,0,0,0,0,0,0,0,0,0,0],"id":22,"left_children":[1,3,5,7,9,11,13,-1,-1,-1,-1,-1,-1,-1,-1],"loss_changes":[1.008468E11,1.0341925E10,1.6774614E11,6.2436475E9,1.1342447E10,5.795889E9,9.950702E10,0E0,0E0,0E0,0E0,0E0,0E0,0E0,0E0],"parents":[2147483647,0,0,1,1,2,2,3,3,4,4,5,5,6,6],"right_children":[2,4,6,8,10,12,14,-1,-1,-1,-1,-1,-1,-1,-1],"split_conditions":[1E0,4.3E1,2E0,3.3E1,1.45E2,2.9E1,3E0,-4.2593466E2,2.1784136E3,-1.2857935E3,1.0902035E3,3.943817E3,2.3475532E3,-5.37445E2,2.8508145E2],"split_indices":[0,1,0,1,1,1,0,0,0,0,0,0,0,0,0],"split_type":[0,0,0,0,0,0,0,0,0,0,0,0,0,0,0],"sum_hessian":[7.834E3,8.04E2,7.03E3,1.25E2,6.79E2,2.8E2,6.75E3,1.16E2,9E0,6.59E2,2E1,2.7E1,2.53E2,2.164E3,4.586E3],"tree_param":{"num_deleted":"0","num_feature":"4","num_nodes":"15","size_leaf_vector":"1"}},{"base_weights":[-2.4456196E0,-7.509796E3,1.6036974E3,1.5453049E3,-1.11260625E4,1.78522E3,-6.340997E3,-1.5109174E3,6.5803925E2,5.4594086E2,-1.2837037E3,-3.6705255E2,3.9050104E2],"categories":[],"categories_nodes":[],"categories_segments":[],"categories_sizes":[],"default_left":[0,0,0,0,0,0,0,0,0,0,0,0,0],"id":23,"left_children":[1,3,5,7,9,11,-1,-1,-1,-1,-1,-1,-1],"loss_changes":[9.448552E10,4.5238944E10,7.629155E10,3.3222842E10,2.8078506E10,7.447004E10,0E0,0E0,0E0,0E0,0E0,0E0,0E0],"parents":[2147483647,0,0,1,1,2,2,3,3,4,4,5,5],"right_children":[2,4,6,8,10,12,-1,-1,-1,-1,-1,-1,-1],"split_conditions":[8.3E1,1.2E1,8.5E1,1.1E1,2E1,4.9E1,-6.340997E3,-1.5109174E3,6.5803925E2,5.4594086E2,-1.2837037E3,-3.6705255E2,3.9050104E2],"split_indices":[2,3,2,3,1,1,0,0,0,0,0,0,0],"split_type":[0,0,0,0,0,0,0,0,0,0,0,0,0],"sum_hessian":[7.834E3,1.38E3,6.454E3,3.94E2,9.86E2,6.437E3,1.7E1,9.1E1,3.03E2,9.2E1,8.94E2,1.801E3,4.636E3],"tree_param":{"num_deleted":"0","num_feature":"4","num_nodes":"13","size_leaf_vector":"1"}},{"base_weights":[-3.2106748E0,-5.0491133E3,1.9764191E3,9.338778E3,-9.943869E3,-1.168627E4,2.9987214E3,2.8601822E2,3.4716606E3,-3.50291E2,-1.2935087E3,-1.3586425E3,3.2679575E2,2.4519023E3,2.0142639E2],"categories":[],"categories_nodes":[],"categories_segments":[],"categories_sizes":[],"default_left":[0,0,0,0,0,0,0,0,0,0,0,0,0,0,0],"id":24,"left_children":[1,3,5,7,9,11,13,-1,-1,-1,-1,-1,-1,-1,-1],"loss_changes":[7.827394E10,1.5559174E11,7.864356E10,9.213622E10,3.1705563E10,1.1183215E10,1.10900765E11,0E0,0E0,0E0,0E0,0E0,0E0,0E0,0E0],"parents":[2147483647,0,0,1,1,2,2,3,3,4,4,5,5,6,6],"right_children":[2,4,6,8,10,12,14,-1,-1,-1,-1,-1,-1,-1,-1],"split_conditions":[5E1,1.9E1,1E0,1.6E1,4.3E1,1.44E2,2E0,2.8601822E2,3.4716606E3,-3.50291E2,-1.2935087E3,-1.3586425E3,3.2679575E2,2.4519023E3,2.0142639E2],"split_indices":[1,1,0,1,1,1,0,0,0,0,0,0,0,0,0],"split_type":[0,0,0,0,0,0,0,0,0,0,0,0,0,0,0],"sum_hessian":[7.834E3,2.207E3,5.627E3,5.6E2,1.647E3,3.91E2,5.236E3,4.47E2,1.13E2,5.23E2,1.124E3,3.47E2,4.4E1,2.28E2,5.008E3],"tree_param":{"num_deleted":"0","num_feature":"4","num_nodes":"15","size_leaf_vector":"1"}},{"base_weights":[-2.4101558E0,-6.686937E3,1.4276958E3,-3.7793567E3,-1.651456E4,1.5922759E3,-5.751641E3,-3.528123E3,-2.896456E2,-2.232341E3,-1.0374307E3,-2.7539802E0,7.795717E2],"categories":[],"categories_nodes":[],"categories_segments":[],"categories_sizes":[],"default_left":[0,0,0,0,0,0,0,0,0,0,0,0,0],"id":25,"left_children":[1,3,5,7,9,11,-1,-1,-1,-1,-1,-1,-1],"loss_changes":[7.490887E10,3.939912E10,6.2711685E10,2.9574312E10,1.1003765E10,6.469201E10,0E0,0E0,0E0,0E0,0E0,0E0,0E0],"parents":[2147483647,0,0,1,1,2,2,3,3,4,4,5,5],"right_children":[2,4,6,8,10,12,-1,-1,-1,-1,-1,-1,-1],"split_conditions":[8.3E1,3.2E1,8.5E1,6E0,5.1E1,1.06E2,-5.751641E3,-3.528123E3,-2.896456E2,-2.232341E3,-1.0374307E3,-2.7539802E0,7.795717E2],"split_indices":[2,2,2,2,3,1,0,0,0,0,0,0,0],"split_type":[0,0,0,0,0,0,0,0,0,0,0,0,0],"sum_hessian":[7.834E3,1.38E3,6.454E3,1.066E3,3.14E2,6.437E3,1.7E1,2.8E1,1.038E3,1.6E2,1.54E2,5.105E3,1.332E3],"tree_param":{"num_deleted":"0","num_feature":"4","num_nodes":"13","size_leaf_vector":"1"}},{"base_weights":[-3.711304E0,-2.6242395E3,3.1004504E3,-1.2792338E3,-2.3685705E4,-1.0214179E4,4.2878823E3,8.608123E2,-2.8936523E2,-2.7543147E3,-1.1233622E3,-1.251765E3,2.809867E2,2.4406758E3,3.4270163E2],"categories":[],"categories_nodes":[],"categories_segments":[],"categories_sizes":[],"default_left":[0,0,0,0,0,0,0,0,0,0,0,0,0,0,0],"id":26,"left_children":[1,3,5,7,9,11,13,-1,-1,-1,-1,-1,-1,-1,-1],"loss_changes":[6.374228E10,1.203345E11,5.6755036E10,6.3794434E10,1.1939054E10,8.855327E9,5.6967295E10,0E0,0E0,0E0,0E0,0E0,0E0,0E0,0E0],"parents":[2147483647,0,0,1,1,2,2,3,3,4,4,5,5,6,6],"right_children":[2,4,6,8,10,12,14,-1,-1,-1,-1,-1,-1,-1,-1],"split_conditions":[8E1,6.2E1,1E0,1.9E1,7.3E1,1.44E2,2E0,8.608123E2,-2.8936523E2,-2.7543147E3,-1.1233622E3,-1.251765E3,2.809867E2,2.4406758E3,3.4270163E2],"split_indices":[1,1,0,1,1,1,0,0,0,0,0,0,0,0,0],"split_type":[0,0,0,0,0,0,0,0,0,0,0,0,0,0,0],"sum_hessian":[7.834E3,4.248E3,3.586E3,3.994E3,2.54E2,2.93E2,3.293E3,5.6E2,3.434E3,1.93E2,6.1E1,2.49E2,4.4E1,1.34E2,3.159E3],"tree_param":{"num_deleted":"0","num_feature":"4","num_nodes":"15","size_leaf_vector":"1"}},{"base_weights":[-3.532789E0,-6.0312793E3,1.2860599E3,6.6627216E2,-9.7856875E3,1.4473772E3,-4.8207383E4,-1.2122606E3,5.765582E2,-2.8868123E3,-7.5354333E2,7.4701724E0,6.7011774E2,-1.9492832E3,-5.191021E3],"categories":[],"categories_nodes":[],"categories_segments":[],"categories_sizes":[],"default_left":[0,0,0,0,0,0,0,0,0,0,0,0,0,0,0],"id":27,"left_children":[1,3,5,7,9,11,13,-1,-1,-1,-1,-1,-1,-1,-1],"loss_changes":[6.091186E10,3.4732237E10,5.1607425E10,3.2481479E10,3.7784658E10,4.6407193E10,1.220952E9,0E0,0E0,0E0,0E0,0E0,0E0,0E0,0E0],"parents":[2147483647,0,0,1,1,2,2,3,3,4,4,5,5,6,6],"right_children":[2,4,6,8,10,12,14,-1,-1,-1,-1,-1,-1,-1,-1],"split_conditions":[8.3E1,1.9E1,8.4E1,5.6E1,2.6E1,1.06E2,8.5E1,-1.2122606E3,5.765582E2,-2.8868123E3,-7.5354333E2,7.4701724E0,6.7011774E2,-1.9492832E3,-5.191021E3],"split_indices":[2,3,2,1,3,1,2,0,0,0,0,0,0,0,0],"split_type":[0,0,0,0,0,0,0,0,0,0,0,0,0,0,0],"sum_hessian":[7.834E3,1.38E3,6.454E3,4.96E2,8.84E2,6.434E3,2E1,1.41E2,3.55E2,9.2E1,7.92E2,5.102E3,1.332E3,3E0,1.7E1],"tree_param":{"num_deleted":"0","num_feature":"4","num_nodes":"15","size_leaf_vector":"1"}},{"base_weights":[-4.550061E0,-3.18708E3,2.2496562E3,-4.543152E3,2.2630525E3,-2.4891165E3,3.835946E3,-3.801655E2,-3.3888748E3,7.437009E2,-5.8969635E2,8.7769696E2,-7.6484E2,-3.7185486E3,3.954493E2],"categories":[],"categories_nodes":[],"categories_segments":[],"categories_sizes":[],"default_left":[0,0,0,0,0,0,0,0,0,0,0,0,0,0,0],"id":28,"left_children":[1,3,5,7,9,11,13,-1,-1,-1,-1,-1,-1,-1,-1],"loss_changes":[5.6216084E10,2.4022893E10,3.4490335E10,5.648983E10,2.7402136E10,6.696893E10,1.6861037E10,0E0,0E0,0E0,0E0,0E0,0E0,0E0,0E0],"parents":[2147483647,0,0,1,1,2,2,3,3,4,4,5,5,6,6],"right_children":[2,4,6,8,10,12,14,-1,-1,-1,-1,-1,-1,-1,-1],"split_conditions":[3E0,9.6E1,5E1,8.9E1,1.26E2,1.7E1,6E0,-3.801655E2,-3.3888748E3,7.437009E2,-5.8969635E2,8.7769696E2,-7.6484E2,-3.7185486E3,3.954493E2],"split_indices":[0,1,1,1,1,1,2,0,0,0,0,0,0,0,0],"split_type":[0,0,0,0,0,0,0,0,0,0,0,0,0,0,0],"sum_hessian":[7.834E3,3.248E3,4.586E3,2.601E3,6.47E2,1.15E3,3.436E3,2.538E3,6.3E1,3.96E2,2.51E2,3.61E2,7.89E2,9E0,3.427E3],"tree_param":{"num_deleted":"0","num_feature":"4","num_nodes":"15","size_leaf_vector":"1"}},{"base_weights":[-4.9670587E0,-5.3546543E3,1.13956E3,-2.7431355E3,-1.4183657E4,1.284937E3,-4.3462348E4,-3.073157E3,-1.9592973E2,-1.4564783E3,5.2744834E3,-2.423782E2,2.7807602E2,-1.7745746E3,-4.6762573E3],"categories":[],"categories_nodes":[],"categories_segments":[],"categories_sizes":[],"default_left":[0,0,0,0,0,0,0,0,0,0,0,0,0,0,0],"id":29,"left_children":[1,3,5,7,9,11,13,-1,-1,-1,-1,-1,-1,-1,-1],"loss_changes":[4.797873E10,3.1802954E10,4.1910632E10,2.334806E10,8.803275E9,3.570547E10,9.52447E8,0E0,0E0,0E0,0E0,0E0,0E0,0E0,0E0],"parents":[2147483647,0,0,1,1,2,2,3,3,4,4,5,5,6,6],"right_children":[2,4,6,8,10,12,14,-1,-1,-1,-1,-1,-1,-1,-1],"split_conditions":[8.3E1,3.2E1,8.4E1,6E0,1.5E2,5.3E1,8.5E1,-3.073157E3,-1.9592973E2,-1.4564783E3,5.2744834E3,-2.423782E2,2.7807602E2,-1.7745746E3,-4.6762573E3],"split_indices":[2,2,2,2,1,1,2,0,0,0,0,0,0,0,0],"split_type":[0,0,0,0,0,0,0,0,0,0,0,0,0,0,0],"sum_hessian":[7.834E3,1.38E3,6.454E3,1.066E3,3.14E2,6.434E3,2E1,2.8E1,1.038E3,3.13E2,1E0,1.849E3,4.585E3,3E0,1.7E1],"tree_param":{"num_deleted":"0","num_feature":"4","num_nodes":"15","size_leaf_vector":"1"}},{"base_weights":[-5.220945E0,-2.7932043E3,1.9695258E3,7.443597E3,-3.4599792E3,-1.9598663E3,3.2848474E3,2.938145E2,3.1765464E3,-8.32984E2,-1.5477803E2,4.5607217E2,-9.5553644E2,3.9222778E2,-3.2736905E2],"categories":[],"categories_nodes":[],"categories_segments":[],"categories_sizes":[],"default_left":[0,0,0,0,0,0,0,0,0,0,0,0,0,0,0],"id":30,"left_children":[1,3,5,7,9,11,13,-1,-1,-1,-1,-1,-1,-1,-1],"loss_changes":[4.314157E10,2.2202264E10,2.3713956E10,2.171329E10,2.8398453E10,5.704928E10,1.4381601E10,0E0,0E0,0E0,0E0,0E0,0E0,0E0,0E0],"parents":[2147483647,0,0,1,1,2,2,3,3,4,4,5,5,6,6],"right_children":[2,4,6,8,10,12,14,-1,-1,-1,-1,-1,-1,-1,-1],"split_conditions":[3E0,1.9E1,5E1,1.5E1,5E1,4.3E1,1.27E2,2.938145E2,3.1765464E3,-8.32984E2,-1.5477803E2,4.5607217E2,-9.5553644E2,3.9222778E2,-3.2736905E2],"split_indices":[0,1,1,1,1,1,1,0,0,0,0,0,0,0,0],"split_type":[0,0,0,0,0,0,0,0,0,0,0,0,0,0,0],"sum_hessian":[7.834E3,3.248E3,4.586E3,1.98E2,3.05E3,1.15E3,3.436E3,1.68E2,3E1,8.59E2,2.191E3,6.19E2,5.31E2,3.132E3,3.04E2],"tree_param":{"num_deleted":"0","num_feature":"4","num_nodes":"15","size_leaf_vector":"1"}},{"base_weights":[-4.4393516E0,-4.777274E3,1.0166743E3,1.9977253E3,-7.679908E3,1.1479734E3,-3.926552E4,-2.788469E3,4.231814E2,5.6461316E2,-9.0538983E2,4.232324E0,5.37977E2,-1.6129176E3,-4.2225513E3],"categories":[],"categories_nodes":[],"categories_segments":[],"categories_sizes":[],"default_left":[0,0,0,0,0,0,0,0,0,0,0,0,0,0,0],"id":31,"left_children":[1,3,5,7,9,11,13,-1,-1,-1,-1,-1,-1,-1,-1],"loss_changes":[3.8189564E10,2.7173183E10,3.4185658E10,2.7823387E10,1.7756746E10,3.0108408E10,7.5708826E8,0E0,0E0,0E0,0E0,0E0,0E0,0E0,0E0],"parents":[2147483647,0,0,1,1,2,2,3,3,4,4,5,5,6,6],"right_children":[2,4,6,8,10,12,14,-1,-1,-1,-1,-1,-1,-1,-1],"split_conditions":[8.3E1,1.7E1,8.4E1,6E0,2E1,1.06E2,8.5E1,-2.788469E3,4.231814E2,5.6461316E2,-9.0538983E2,4.232324E0,5.37977E2,-1.6129176E3,-4.2225513E3],"split_indices":[2,2,2,2,1,1,2,0,0,0,0,0,0,0,0],"split_type":[0,0,0,0,0,0,0,0,0,0,0,0,0,0,0],"sum_hessian":[7.834E3,1.38E3,6.454E3,4.14E2,9.66E2,6.434E3,2E1,2.8E1,3.86E2,9E1,8.76E2,5.102E3,1.332E3,3E0,1.7E1],"tree_param":{"num_deleted":"0","num_feature":"4","num_nodes":"15","size_leaf_vector":"1"}},{"base_weights":[-5.018873E0,-6.4074966E3,7.280205E2,-4.0327195E3,-9.994166E3,1.9733354E4,-6.3155125E1,2.0494836E3,-4.3302927E2,-2.4796516E3,-7.354947E2,3.6602825E3,1.7796038E3,-3.8437778E2,1.7212598E2],"categories":[],"categories_nodes":[],"categories_segments":[],"categories_sizes":[],"default_left":[0,0,0,0,0,0,0,0,0,0,0,0,0,0,0],"id":32,"left_children":[1,3,5,7,9,11,13,-1,-1,-1,-1,-1,-1,-1,-1],"loss_changes":[3.6776423E10,6.8163174E9,1.0572327E11,3.6359352E9,1.2318949E10,8.5321236E9,4.5550207E10,0E0,0E0,0E0,0E0,0E0,0E0,0E0,0E0],"parents":[2147483647,0,0,1,1,2,2,3,3,4,4,5,5,6,6],"right_children":[2,4,6,8,10,12,14,-1,-1,-1,-1,-1,-1,-1,-1],"split_conditions":[1E0,6.1E1,2E0,2E0,8.2E1,2.9E1,3E0,2.0494836E3,-4.3302927E2,-2.4796516E3,-7.354947E2,3.6602825E3,1.7796038E3,-3.8437778E2,1.7212598E2],"split_indices":[0,1,0,1,1,1,0,0,0,0,0,0,0,0,0],"split_type":[0,0,0,0,0,0,0,0,0,0,0,0,0,0,0],"sum_hessian":[7.834E3,8.04E2,7.03E3,4.85E2,3.19E2,2.8E2,6.75E3,5E0,4.8E2,4.7E1,2.72E2,2.7E1,2.53E2,2.164E3,4.586E3],"tree_param":{"num_deleted":"0","num_feature":"4","num_nodes":"15","size_leaf_vector":"1"}},{"base_weights":[-4.0541177E0,-1.0046718E3,4.0022532E3,-4.0635114E2,-1.5350831E4,9.361372E3,-3.1041206E3,-5.969507E2,7.23034E1,1.6205116E3,-2.8635269E3,3.1997207E3,9.042788E2,-1.0667172E3,1.8835986E2],"categories":[],"categories_nodes":[],"categories_segments":[],"categories_sizes":[],"default_left":[0,0,0,0,0,0,0,0,0,0,0,0,0,0,0],"id":33,"left_children":[1,3,5,7,9,11,13,-1,-1,-1,-1,-1,-1,-1,-1],"loss_changes":[3.1412826E10,5.3812957E10,5.9668455E10,3.7827645E10,1.0568399E11,6.1504553E9,2.5444973E10,0E0,0E0,0E0,0E0,0E0,0E0,0E0,0E0],"parents":[2147483647,0,0,1,1,2,2,3,3,4,4,5,5,6,6],"right_children":[2,4,6,8,10,12,14,-1,-1,-1,-1,-1,-1,-1,-1],"split_conditions":[1.14E2,9E1,1.21E2,7.3E1,2E0,7E0,1.44E2,-5.969507E2,7.23034E1,1.6205116E3,-2.8635269E3,3.1997207E3,9.042788E2,-1.0667172E3,1.8835986E2],"split_indices":[1,1,1,3,0,2,1,0,0,0,0,0,0,0,0],"split_type":[0,0,0,0,0,0,0,0,0,0,0,0,0,0,0],"sum_hessian":[7.834E3,6.269E3,1.565E3,6.019E3,2.5E2,8.92E2,6.73E2,1.015E3,5.004E3,7.4E1,1.76E2,1.1E1,8.81E2,2.67E2,4.06E2],"tree_param":{"num_deleted":"0","num_feature":"4","num_nodes":"15","size_leaf_vector":"1"}},{"base_weights":[-3.4592872E0,7.2324126E3,-5.614415E2,1.6431503E3,2.9133791E4,-6.632126E3,1.2162859E3,3.6719668E3,5.1047348E1,-1.1980546E3,3.1528853E3,-2.095739E3,-5.6833167E2,-8.0426013E2,1.9091E2],"categories":[],"categories_nodes":[],"categories_segments":[],"categories_sizes":[],"default_left":[0,0,0,0,0,0,0,0,0,0,0,0,0,0,0],"id":34,"left_children":[1,3,5,7,9,11,13,-1,-1,-1,-1,-1,-1,-1,-1],"loss_changes":[3.1637778E10,6.862557E10,7.8520025E10,1.7780453E10,1.160346E10,2.228043E10,3.611721E10,0E0,0E0,0E0,0E0,0E0,0E0,0E0,0E0],"parents":[2147483647,0,0,1,1,2,2,3,3,4,4,5,5,6,6],"right_children":[2,4,6,8,10,12,14,-1,-1,-1,-1,-1,-1,-1,-1],"split_conditions":[1.9E1,1.6E1,5E1,1E0,6.2E1,2.5E1,1E0,3.6719668E3,5.1047348E1,-1.1980546E3,3.1528853E3,-2.095739E3,-5.6833167E2,-8.0426013E2,1.9091E2],"split_indices":[1,1,1,1,2,3,0,0,0,0,0,0,0,0,0],"split_type":[0,0,0,0,0,0,0,0,0,0,0,0,0,0,0],"sum_hessian":[7.834E3,5.6E2,7.274E3,4.47E2,1.13E2,1.647E3,5.627E3,1.3E1,4.34E2,6E0,1.07E2,1.01E2,1.546E3,3.91E2,5.236E3],"tree_param":{"num_deleted":"0","num_feature":"4","num_nodes":"15","size_leaf_vector":"1"}},{"base_weights":[-2.805191E0,9.22344E1,-3.5370977E4,-1.6069055E3,2.1068489E3,-1.4663754E4,-3.8007527E3,-3.704943E1,-2.1089915E3,-6.812338E2,2.8960687E2,4.770625E2,-2.2732087E3],"categories":[],"categories_nodes":[],"categories_segments":[],"categories_sizes":[],"default_left":[0,0,0,0,0,0,0,0,0,0,0,0,0],"id":35,"left_children":[1,3,5,7,9,11,-1,-1,-1,-1,-1,-1,-1],"loss_changes":[2.633965E10,2.6755002E10,5.891748E8,1.0212958E11,2.5191907E10,7.3565843E8,0E0,0E0,0E0,0E0,0E0,0E0,0E0],"parents":[2147483647,0,0,1,1,2,2,3,3,4,4,5,5],"right_children":[2,4,6,8,10,12,-1,-1,-1,-1,-1,-1,-1],"split_conditions":[8.4E1,8E1,8.5E1,6.2E1,1E0,4.7E1,-3.8007527E3,-3.704943E1,-2.1089915E3,-6.812338E2,2.8960687E2,4.770625E2,-2.2732087E3],"split_indices":[2,1,2,1,0,1,0,0,0,0,0,0,0],"split_type":[0,0,0,0,0,0,0,0,0,0,0,0,0],"sum_hessian":[7.834E3,7.814E3,2E1,4.239E3,3.575E3,3E0,1.7E1,3.987E3,2.52E2,2.9E2,3.285E3,1E0,2E0],"tree_param":{"num_deleted":"0","num_feature":"4","num_nodes":"13","size_leaf_vector":"1"}},{"base_weights":[-3.5653408E0,6.5629814E3,-5.0993362E2,1.5325114E3,2.6274277E4,-5.929253E3,1.0770508E3,3.3344382E3,5.05158E1,-1.0921887E3,2.844186E3,-5.9885464E1,-8.406764E2,-6.5645416E2,1.6488336E2],"categories":[],"categories_nodes":[],"categories_segments":[],"categories_sizes":[],"default_left":[0,0,0,0,0,0,0,0,0,0,0,0,0,0,0],"id":36,"left_children":[1,3,5,7,9,11,13,-1,-1,-1,-1,-1,-1,-1,-1],"loss_changes":[2.6055436E10,5.5586857E10,6.2574117E10,1.4624707E10,9.501975E9,2.1758644E10,2.4601426E10,0E0,0E0,0E0,0E0,0E0,0E0,0E0,0E0],"parents":[2147483647,0,0,1,1,2,2,3,3,4,4,5,5,6,6],"right_children":[2,4,6,8,10,12,14,-1,-1,-1,-1,-1,-1,-1,-1],"split_conditions":[1.9E1,1.6E1,5E1,1E0,6.2E1,4.3E1,1E0,3.3344382E3,5.05158E1,-1.0921887E3,2.844186E3,-5.9885464E1,-8.406764E2,-6.5645416E2,1.6488336E2],"split_indices":[1,1,1,1,2,1,0,0,0,0,0,0,0,0,0],"split_type":[0,0,0,0,0,0,0,0,0,0,0,0,0,0,0],"sum_hessian":[7.834E3,5.6E2,7.274E3,4.47E2,1.13E2,1.647E3,5.627E3,1.3E1,4.34E2,6E0,1.07E2,5.23E2,1.124E3,3.91E2,5.236E3],"tree_param":{"num_deleted":"0","num_feature":"4","num_nodes":"15","size_leaf_vector":"1"}},{"base_weights":[-2.7349927E0,8.332222E1,-3.2028182E4,-3.5665154E3,8.665922E2,-1.3313355E4,-3.4407688E3,-1.4014525E2,-1.1671385E3,4.3877482E0,4.0154648E2,4.9524338E2,-2.1052764E3],"categories":[],"categories_nodes":[],"categories_segments":[],"categories_sizes":[],"default_left":[0,0,0,0,0,0,0,0,0,0,0,0,0],"id":37,"left_children":[1,3,5,7,9,11,-1,-1,-1,-1,-1,-1,-1],"loss_changes":[2.1596088E10,2.234468E10,4.770939E8,2.4216816E10,1.6670487E10,6.697279E8,0E0,0E0,0E0,0E0,0E0,0E0,0E0],"parents":[2147483647,0,0,1,1,2,2,3,3,4,4,5,5],"right_children":[2,4,6,8,10,12,-1,-1,-1,-1,-1,-1,-1],"split_conditions":[8.4E1,8.3E1,8.5E1,3.8E1,1.06E2,4.7E1,-3.4407688E3,-1.4014525E2,-1.1671385E3,4.3877482E0,4.0154648E2,4.9524338E2,-2.1052764E3],"split_indices":[2,2,2,3,1,1,0,0,0,0,0,0,0],"split_type":[0,0,0,0,0,0,0,0,0,0,0,0,0],"sum_hessian":[7.834E3,7.814E3,2E1,1.38E3,6.434E3,3E0,1.7E1,1.09E3,2.9E2,5.102E3,1.332E3,1E0,2E0],"tree_param":{"num_deleted":"0","num_feature":"4","num_nodes":"13","size_leaf_vector":"1"}},{"base_weights":[-3.222925E0,6.009442E3,-4.6687952E2,1.4887996E3,2.3722059E4,-5.2760537E3,9.4143353E2,3.0411404E3,5.545347E1,-9.278747E2,2.5641353E3,-1.8143635E3,-4.4242316E2,-5.8745306E2,1.4514424E2],"categories":[],"categories_nodes":[],"categories_segments":[],"categories_sizes":[],"default_left":[0,0,0,0,0,0,0,0,0,0,0,0,0,0,0],"id":38,"left_children":[1,3,5,7,9,11,13,-1,-1,-1,-1,-1,-1,-1,-1],"loss_changes":[2.184531E10,4.4885303E10,4.9277256E10,1.2088712E10,7.458476E9,1.7983283E10,1.9572593E10,0E0,0E0,0E0,0E0,0E0,0E0,0E0,0E0],"parents":[2147483647,0,0,1,1,2,2,3,3,4,4,5,5,6,6],"right_children":[2,4,6,8,10,12,14,-1,-1,-1,-1,-1,-1,-1,-1],"split_conditions":[1.9E1,1.6E1,5E1,1E0,6.2E1,2.5E1,1E0,3.0411404E3,5.545347E1,-9.278747E2,2.5641353E3,-1.8143635E3,-4.4242316E2,-5.8745306E2,1.4514424E2],"split_indices":[1,1,1,1,2,3,0,0,0,0,0,0,0,0,0],"split_type":[0,0,0,0,0,0,0,0,0,0,0,0,0,0,0],"sum_hessian":[7.834E3,5.6E2,7.274E3,4.47E2,1.13E2,1.647E3,5.627E3,1.3E1,4.34E2,6E0,1.07E2,1.01E2,1.546E3,3.91E2,5.236E3],"tree_param":{"num_deleted":"0","num_feature":"4","num_nodes":"15","size_leaf_vector":"1"}},{"base_weights":[-2.638905E0,5.4169336E3,-4.205602E2,1.346832E3,2.1364201E4,-4.749819E3,8.4721497E2,2.7587488E3,4.9920906E1,-8.4834247E2,2.3100955E3,7.40389E0,-6.9924426E2,1.379727E2,-4.6653482E2],"categories":[],"categories_nodes":[],"categories_segments":[],"categories_sizes":[],"default_left":[0,0,0,0,0,0,0,0,0,0,0,0,0,0,0],"id":39,"left_children":[1,3,5,7,9,11,13,-1,-1,-1,-1,-1,-1,-1,-1],"loss_changes":[1.7748197E10,3.638405E10,3.9933055E10,9.950726E9,6.1054976E9,1.7828741E10,1.6527461E10,0E0,0E0,0E0,0E0,0E0,0E0,0E0,0E0],"parents":[2147483647,0,0,1,1,2,2,3,3,4,4,5,5,6,6],"right_children":[2,4,6,8,10,12,14,-1,-1,-1,-1,-1,-1,-1,-1],"split_conditions":[1.9E1,1.6E1,5E1,1E0,6.2E1,4.3E1,1.42E2,2.7587488E3,4.9920906E1,-8.4834247E2,2.3100955E3,7.40389E0,-6.9924426E2,1.379727E2,-4.6653482E2],"split_indices":[1,1,1,1,2,1,1,0,0,0,0,0,0,0,0],"split_type":[0,0,0,0,0,0,0,0,0,0,0,0,0,0,0],"sum_hessian":[7.834E3,5.6E2,7.274E3,4.47E2,1.13E2,1.647E3,5.627E3,1.3E1,4.34E2,6E0,1.07E2,5.23E2,1.124E3,5.132E3,4.95E2],"tree_param":{"num_deleted":"0","num_feature":"4","num_nodes":"15","size_leaf_vector":"1"}},{"base_weights":[-1.9592075E0,7.5794525E1,-2.8937361E4,-6.8162244E2,3.1131821E3,-1.2057523E4,-3.1080806E3,-1.0397998E1,-1.4500901E3,7.437894E2,-2.6577542E2,5.2756445E2,-1.9593795E3],"categories":[],"categories_nodes":[],"categories_segments":[],"categories_sizes":[],"default_left":[0,0,0,0,0,0,0,0,0,0,0,0,0],"id":40,"left_children":[1,3,5,7,9,11,-1,-1,-1,-1,-1,-1,-1],"loss_changes":[1.7629653E10,1.7981065E10,3.8504448E8,4.993764E10,3.895368E10,6.258797E8,0E0,0E0,0E0,0E0,0E0,0E0,0E0],"parents":[2147483647,0,0,1,1,2,2,3,3,4,4,5,5],"right_children":[2,4,6,8,10,12,-1,-1,-1,-1,-1,-1,-1],"split_conditions":[8.4E1,1.14E2,8.5E1,9E1,1.21E2,4.7E1,-3.1080806E3,-1.0397998E1,-1.4500901E3,7.437894E2,-2.6577542E2,5.2756445E2,-1.9593795E3],"split_indices":[2,1,2,1,1,1,0,0,0,0,0,0,0],"split_type":[0,0,0,0,0,0,0,0,0,0,0,0,0],"sum_hessian":[7.834E3,7.814E3,2E1,6.255E3,1.559E3,3E0,1.7E1,6.005E3,2.5E2,8.91E2,6.68E2,1E0,2E0],"tree_param":{"num_deleted":"0","num_feature":"4","num_nodes":"13","size_leaf_vector":"1"}},{"base_weights":[-2.4718256E0,-2.444646E4,8.832851E1,-1.7095566E4,-3.2178674E4,2.0154441E4,-2.0204206E1,1.15881E2,-1.9606737E3,-7.041383E2,-3.3686665E3,-2.7697832E3,2.5920413E3,-3.9744646E3,1.3898372E1],"categories":[],"categories_nodes":[],"categories_segments":[],"categories_sizes":[],"default_left":[0,0,0,0,0,0,0,0,0,0,0,0,0,0,0],"id":41,"left_children":[1,3,5,7,9,11,13,-1,-1,-1,-1,-1,-1,-1,-1],"loss_changes":[1.7392118E10,1.0982093E9,1.7002721E10,8.019978E8,2.5558733E8,1.2306362E10,4.9115E10,0E0,0E0,0E0,0E0,0E0,0E0,0E0,0E0],"parents":[2147483647,0,0,1,1,2,2,3,3,4,4,5,5,6,6],"right_children":[2,4,6,8,10,12,14,-1,-1,-1,-1,-1,-1,-1,-1],"split_conditions":[6E0,3E0,7E0,2E0,3E0,2.2E1,1E1,1.15881E2,-1.9606737E3,-7.041383E2,-3.3686665E3,-2.7697832E3,2.5920413E3,-3.9744646E3,1.3898372E1],"split_indices":[2,0,2,2,1,1,3,0,0,0,0,0,0,0,0],"split_type":[0,0,0,0,0,0,0,0,0,0,0,0,0,0,0],"sum_hessian":[7.834E3,2.8E1,7.806E3,1.6E1,1.2E1,4.1E1,7.765E3,2E0,1.4E1,1E0,1.1E1,4E0,3.7E1,3E1,7.735E3],"tree_param":{"num_deleted":"0","num_feature":"4","num_nodes":"15","size_leaf_vector":"1"}},{"base_weights":[-3.5029764E0,-2.9888262E3,6.351856E2,-8.840495E2,-1.0108851E4,7.228993E2,-2.6273047E4,-2.2205874E3,-2.8807556E1,-1.6511243E3,-6.137443E2,4.296128E0,3.3253006E2,-1.1220146E3,-2.8158523E3],"categories":[],"categories_nodes":[],"categories_segments":[],"categories_sizes":[],"default_left":[0,0,0,0,0,0,0,0,0,0,0,0,0,0,0],"id":42,"left_children":[1,3,5,7,9,11,13,-1,-1,-1,-1,-1,-1,-1,-1],"loss_changes":[1.4940829E10,2.0686815E10,1.5254217E10,1.355224E10,7.908012E9,1.1386408E10,2.800773E8,0E0,0E0,0E0,0E0,0E0,0E0,0E0,0E0],"parents":[2147483647,0,0,1,1,2,2,3,3,4,4,5,5,6,6],"right_children":[2,4,6,8,10,12,14,-1,-1,-1,-1,-1,-1,-1,-1],"split_conditions":[8.3E1,3.2E1,8.4E1,6E0,4.6E1,1.06E2,8.5E1,-2.2205874E3,-2.8807556E1,-1.6511243E3,-6.137443E2,4.296128E0,3.3253006E2,-1.1220146E3,-2.8158523E3],"split_indices":[2,2,2,2,2,1,2,0,0,0,0,0,0,0,0],"split_type":[0,0,0,0,0,0,0,0,0,0,0,0,0,0,0],"sum_hessian":[7.834E3,1.38E3,6.454E3,1.066E3,3.14E2,6.434E3,2E1,2.8E1,1.038E3,1.19E2,1.95E2,5.102E3,1.332E3,3E0,1.7E1],"tree_param":{"num_deleted":"0","num_feature":"4","num_nodes":"15","size_leaf_vector":"1"}},{"base_weights":[-4.189296E0,5.0556255E3,-3.9436823E2,1.4190112E3,1.9302533E4,-4.215138E3,7.2450586E2,2.513916E3,6.523421E1,-6.8051404E2,2.0815972E3,1.8206404E1,-6.259511E2,-5.186447E2,1.1668142E2],"categories":[],"categories_nodes":[],"categories_segments":[],"categories_sizes":[],"default_left":[0,0,0,0,0,0,0,0,0,0,0,0,0,0,0],"id":43,"left_children":[1,3,5,7,9,11,13,-1,-1,-1,-1,-1,-1,-1,-1],"loss_changes":[1.547011E10,2.9038305E10,3.1103392E10,8.1307075E9,4.64606E9,1.4815873E10,1.4720254E10,0E0,0E0,0E0,0E0,0E0,0E0,0E0,0E0],"parents":[2147483647,0,0,1,1,2,2,3,3,4,4,5,5,6,6],"right_children":[2,4,6,8,10,12,14,-1,-1,-1,-1,-1,-1,-1,-1],"split_conditions":[1.9E1,1.6E1,5E1,1E0,6.2E1,4.3E1,1E0,2.513916E3,6.523421E1,-6.8051404E2,2.0815972E3,1.8206404E1,-6.259511E2,-5.186447E2,1.1668142E2],"split_indices":[1,1,1,1,2,1,0,0,0,0,0,0,0,0,0],"split_type":[0,0,0,0,0,0,0,0,0,0,0,0,0,0,0],"sum_hessian":[7.834E3,5.6E2,7.274E3,4.47E2,1.13E2,1.647E3,5.627E3,1.3E1,4.34E2,6E0,1.07E2,5.23E2,1.124E3,3.91E2,5.236E3],"tree_param":{"num_deleted":"0","num_feature":"4","num_nodes":"15","size_leaf_vector":"1"}},{"base_weights":[-3.3939364E0,4.557158E3,-3.5507315E2,1.2828668E3,1.7384572E4,-3.793991E3,6.519794E2,2.0135411E2,-2.1511858E3,-6.221841E2,1.8753651E3,-1.5246313E3,-3.0364404E2,1.1163814E2,-4.1553336E2],"categories":[],"categories_nodes":[],"categories_segments":[],"categories_sizes":[],"default_left":[0,0,0,0,0,0,0,0,0,0,0,0,0,0,0],"id":44,"left_children":[1,3,5,7,9,11,13,-1,-1,-1,-1,-1,-1,-1,-1],"loss_changes":[1.2567794E10,2.3540085E10,2.5197042E10,7.5049866E9,3.8010511E9,1.4251284E10,1.2569292E10,0E0,0E0,0E0,0E0,0E0,0E0,0E0,0E0],"parents":[2147483647,0,0,1,1,2,2,3,3,4,4,5,5,6,6],"right_children":[2,4,6,8,10,12,14,-1,-1,-1,-1,-1,-1,-1,-1],"split_conditions":[1.9E1,1.6E1,5E1,1.4E1,6.2E1,2.5E1,1.42E2,2.0135411E2,-2.1511858E3,-6.221841E2,1.8753651E3,-1.5246313E3,-3.0364404E2,1.1163814E2,-4.1553336E2],"split_indices":[1,1,1,1,2,3,1,0,0,0,0,0,0,0,0],"split_type":[0,0,0,0,0,0,0,0,0,0,0,0,0,0,0],"sum_hessian":[7.834E3,5.6E2,7.274E3,4.47E2,1.13E2,1.647E3,5.627E3,4.34E2,1.3E1,6E0,1.07E2,1.01E2,1.546E3,5.132E3,4.95E2],"tree_param":{"num_deleted":"0","num_feature":"4","num_nodes":"15","size_leaf_vector":"1"}},{"base_weights":[-3.4180377E0,-6.470538E2,2.4245256E3,-9.20833E1,-1.9734342E4,5.914135E3,-2.5960322E3,-3.8365106E2,6.680426E1,1.871181E3,-2.8140886E3,2.3803752E3,5.218267E2,-9.462597E2,1.9318187E2],"categories":[],"categories_nodes":[],"categories_segments":[],"categories_sizes":[],"default_left":[0,0,0,0,0,0,0,0,0,0,0,0,0,0,0],"id":45,"left_children":[1,3,5,7,9,11,13,-1,-1,-1,-1,-1,-1,-1,-1],"loss_changes":[1.2245412E10,6.561049E10,2.8782842E10,1.7136903E10,5.7086448E10,1.1938677E10,2.0973466E10,0E0,0E0,0E0,0E0,0E0,0E0,0E0,0E0],"parents":[2147483647,0,0,1,1,2,2,3,3,4,4,5,5,6,6],"right_children":[2,4,6,8,10,12,14,-1,-1,-1,-1,-1,-1,-1,-1],"split_conditions":[1.06E2,9E1,1.21E2,7.3E1,2E0,1.07E2,1.44E2,-3.8365106E2,6.680426E1,1.871181E3,-2.8140886E3,2.3803752E3,5.218267E2,-9.462597E2,1.9318187E2],"split_indices":[1,1,1,3,0,1,1,0,0,0,0,0,0,0,0],"split_type":[0,0,0,0,0,0,0,0,0,0,0,0,0,0,0],"sum_hessian":[7.834E3,6.193E3,1.641E3,6.019E3,1.74E2,9.68E2,6.73E2,1.015E3,5.004E3,3.1E1,1.43E2,3.5E1,9.33E2,2.67E2,4.06E2],"tree_param":{"num_deleted":"0","num_feature":"4","num_nodes":"15","size_leaf_vector":"1"}},{"base_weights":[-2.9597425E0,6.053735E1,-2.3632809E4,-1.9819045E4,1.3456424E2,-1.0039055E4,-2.534071E3,-1.3064517E3,-2.7127349E3,1.8800566E3,3.3336933E0,5.997316E2,-1.7383617E3],"categories":[],"categories_nodes":[],"categories_segments":[],"categories_sizes":[],"default_left":[0,0,0,0,0,0,0,0,0,0,0,0,0],"id":46,"left_children":[1,3,5,7,9,11,-1,-1,-1,-1,-1,-1,-1],"loss_changes":[1.1757274E10,1.1503405E10,2.3315558E8,1.0771548E9,1.471298E10,5.753756E8,0E0,0E0,0E0,0E0,0E0,0E0,0E0],"parents":[2147483647,0,0,1,1,2,2,3,3,4,4,5,5],"right_children":[2,4,6,8,10,12,-1,-1,-1,-1,-1,-1,-1],"split_conditions":[8.4E1,6E0,8.5E1,3E0,7E0,4.7E1,-2.534071E3,-1.3064517E3,-2.7127349E3,1.8800566E3,3.3336933E0,5.997316E2,-1.7383617E3],"split_indices":[2,2,2,0,2,1,0,0,0,0,0,0,0],"split_type":[0,0,0,0,0,0,0,0,0,0,0,0,0],"sum_hessian":[7.834E3,7.814E3,2E1,2.8E1,7.786E3,3E0,1.7E1,1.6E1,1.2E1,4.1E1,7.745E3,1E0,2E0],"tree_param":{"num_deleted":"0","num_feature":"4","num_nodes":"13","size_leaf_vector":"1"}},{"base_weights":[-3.4020116E0,-1.0704026E3,1.2605201E3,2.1193262E2,-1.801166E4,2.0585388E3,-3.7167666E3,6.415693E0,3.2497358E3,-2.0548013E3,-7.9848303E2,6.3328815E1,5.4646936E2,-2.8418745E3,1.7547194E2],"categories":[],"categories_nodes":[],"categories_segments":[],"categories_sizes":[],"default_left":[0,0,0,0,0,0,0,0,0,0,0,0,0,0,0],"id":47,"left_children":[1,3,5,7,9,11,13,-1,-1,-1,-1,-1,-1,-1,-1],"loss_changes":[1.0567674E10,9.231067E10,1.4255098E10,1.884814E10,7.439966E9,1.5007038E10,6.70875E10,0E0,0E0,0E0,0E0,0E0,0E0,0E0,0E0],"parents":[2147483647,0,0,1,1,2,2,3,3,4,4,5,5,6,6],"right_children":[2,4,6,8,10,12,14,-1,-1,-1,-1,-1,-1,-1,-1],"split_conditions":[8E1,5.8E1,1.42E2,5.7E1,7.3E1,1.18E2,1.44E2,6.415693E0,3.2497358E3,-2.0548013E3,-7.9848303E2,6.3328815E1,5.4646936E2,-2.8418745E3,1.7547194E2],"split_indices":[1,1,1,1,1,1,1,0,0,0,0,0,0,0,0],"split_type":[0,0,0,0,0,0,0,0,0,0,0,0,0,0,0],"sum_hessian":[7.834E3,4.248E3,3.586E3,3.95E3,2.98E2,3.091E3,4.95E2,3.933E3,1.7E1,2.37E2,6.1E1,2.18E3,9.11E2,8.9E1,4.06E2],"tree_param":{"num_deleted":"0","num_feature":"4","num_nodes":"15","size_leaf_vector":"1"}},{"base_weights":[-3.2737646E0,4.1267046E3,-3.2175E2,1.1927618E3,1.5620387E4,-3.4230742E3,5.864419E2,9.534127E2,-7.583612E1,-5.24529E2,1.6828158E3,5.5017353E1,-5.270682E2,6.044489E2,2.7365248E1],"categories":[],"categories_nodes":[],"categories_segments":[],"categories_sizes":[],"default_left":[0,0,0,0,0,0,0,0,0,0,0,0,0,0,0],"id":48,"left_children":[1,3,5,7,9,11,13,-1,-1,-1,-1,-1,-1,-1,-1],"loss_changes":[1.0306703E10,1.88993E10,2.0492755E10,7.298442E9,2.9611807E9,1.2100872E10,9.606577E9,0E0,0E0,0E0,0E0,0E0,0E0,0E0,0E0],"parents":[2147483647,0,0,1,1,2,2,3,3,4,4,5,5,6,6],"right_children":[2,4,6,8,10,12,14,-1,-1,-1,-1,-1,-1,-1,-1],"split_conditions":[1.9E1,1.6E1,5E1,4.2E1,6.2E1,4.3E1,1.6E1,9.534127E2,-7.583612E1,-5.24529E2,1.6828158E3,5.5017353E1,-5.270682E2,6.044489E2,2.7365248E1],"split_indices":[1,1,1,2,2,1,3,0,0,0,0,0,0,0,0],"split_type":[0,0,0,0,0,0,0,0,0,0,0,0,0,0,0],"sum_hessian":[7.834E3,5.6E2,7.274E3,4.47E2,1.13E2,1.647E3,5.627E3,8.4E1,3.63E2,6E0,1.07E2,5.23E2,1.124E3,3.04E2,5.323E3],"tree_param":{"num_deleted":"0","num_feature":"4","num_nodes":"15","size_leaf_vector":"1"}},{"base_weights":[-2.662472E0,-2.4941597E3,5.3037555E2,2.9343787E3,-4.8213047E3,6.016032E2,-2.132107E4,-8.965786E2,6.7406714E2,-1.103268E3,-2.7783145E2,3.625973E2,1.5805112E1,-9.234992E2,-2.282236E3],"categories":[],"categories_nodes":[],"categories_segments":[],"categories_sizes":[],"default_left":[0,0,0,0,0,0,0,0,0,0,0,0,0,0,0],"id":49,"left_children":[1,3,5,7,9,11,13,-1,-1,-1,-1,-1,-1,-1,-1],"loss_changes":[1.0406695E10,1.7460314E10,1.0059564E10,1.8858076E10,1.2240361E10,8.631757E9,1.7027482E8,0E0,0E0,0E0,0E0,0E0,0E0,0E0,0E0],"parents":[2147483647,0,0,1,1,2,2,3,3,4,4,5,5,6,6],"right_children":[2,4,6,8,10,12,14,-1,-1,-1,-1,-1,-1,-1,-1],"split_conditions":[8.3E1,1.7E1,8.4E1,1.2E1,3.1E1,2E0,8.5E1,-8.965786E2,6.7406714E2,-1.103268E3,-2.7783145E2,3.625973E2,1.5805112E1,-9.234992E2,-2.282236E3],"split_indices":[2,2,2,2,2,0,2,0,0,0,0,0,0,0,0],"split_type":[0,0,0,0,0,0,0,0,0,0,0,0,0,0,0],"sum_hessian":[7.834E3,1.38E3,6.454E3,4.14E2,9.66E2,6.434E3,2E1,1E2,3.14E2,2.38E2,7.28E2,8.22E2,5.612E3,3E0,1.7E1],"tree_param":{"num_deleted":"0","num_feature":"4","num_nodes":"15","size_leaf_vector":"1"}},{"base_weights":[-2.9659855E0,-1.7595838E4,6.238514E1,-1.134352E4,-2.441842E4,1.7311654E4,-3.091021E1,3.387177E2,-1.3533424E3,-4.1957462E2,-2.5754E3,-2.5851394E3,2.2535435E3,-3.5061453E3,1.0946955E1],"categories":[],"categories_nodes":[],"categories_segments":[],"categories_sizes":[],"default_left":[0,0,0,0,0,0,0,0,0,0,0,0,0,0,0],"id":50,"left_children":[1,3,5,7,9,11,13,-1,-1,-1,-1,-1,-1,-1,-1],"loss_changes":[9.009107E9,9.600604E8,1.2564157E10,5.9423974E8,2.4305971E8,1.0052488E10,3.819376E10,0E0,0E0,0E0,0E0,0E0,0E0,0E0,0E0],"parents":[2147483647,0,0,1,1,2,2,3,3,4,4,5,5,6,6],"right_children":[2,4,6,8,10,12,14,-1,-1,-1,-1,-1,-1,-1,-1],"split_conditions":[6E0,3E0,7E0,2E0,3E0,2.2E1,1E1,3.387177E2,-1.3533424E3,-4.1957462E2,-2.5754E3,-2.5851394E3,2.2535435E3,-3.5061453E3,1.0946955E1],"split_indices":[2,0,2,2,1,1,3,0,0,0,0,0,0,0,0],"split_type":[0,0,0,0,0,0,0,0,0,0,0,0,0,0,0],"sum_hessian":[7.834E3,2.8E1,7.806E3,1.6E1,1.2E1,4.1E1,7.765E3,2E0,1.4E1,1E0,1.1E1,4E0,3.7E1,3E1,7.735E3],"tree_param":{"num_deleted":"0","num_feature":"4","num_nodes":"15","size_leaf_vector":"1"}},{"base_weights":[-3.6730964E0,-1.2680665E3,8.919053E2,2.5597925E3,-3.1858306E3,-1.5352242E4,1.01658203E3,-2.3108098E2,1.6503832E3,-4.4544626E2,3.907368E2,6.014485E2,-4.424218E3,1.3275217E2,-3.6974265E2],"categories":[],"categories_nodes":[],"categories_segments":[],"categories_sizes":[],"default_left":[0,0,0,0,0,0,0,0,0,0,0,0,0,0,0],"id":51,"left_children":[1,3,5,7,9,11,13,-1,-1,-1,-1,-1,-1,-1,-1],"loss_changes":[8.873199E9,2.3858838E10,9.30551E9,7.372685E10,1.9499497E10,2.1871012E10,6.678566E9,0E0,0E0,0E0,0E0,0E0,0E0,0E0,0E0],"parents":[2147483647,0,0,1,1,2,2,3,3,4,4,5,5,6,6],"right_children":[2,4,6,8,10,12,14,-1,-1,-1,-1,-1,-1,-1,-1],"split_conditions":[3E0,2E0,1.2E1,1E0,1.18E2,7E0,1.4E2,-2.3108098E2,1.6503832E3,-4.4544626E2,3.907368E2,6.014485E2,-4.424218E3,1.3275217E2,-3.6974265E2],"split_indices":[0,0,2,0,1,3,1,0,0,0,0,0,0,0,0],"split_type":[0,0,0,0,0,0,0,0,0,0,0,0,0,0,0],"sum_hessian":[7.834E3,3.248E3,4.586E3,1.084E3,2.164E3,3.4E1,4.552E3,8.04E2,2.8E2,1.836E3,3.28E2,2E1,1.4E1,4.271E3,2.81E2],"tree_param":{"num_deleted":"0","num_feature":"4","num_nodes":"15","size_leaf_vector":"1"}},{"base_weights":[-3.6479938E0,3.8281606E3,-2.991313E2,1.2161572E3,1.4059296E4,-1.2067675E4,-9.169974E1,8.843392E2,-8.341349E1,-4.0150565E2,1.5100603E3,-1.4532341E2,-1.4423782E3,4.6092896E2,-3.6948456E1],"categories":[],"categories_nodes":[],"categories_segments":[],"categories_sizes":[],"default_left":[0,0,0,0,0,0,0,0,0,0,0,0,0,0,0],"id":52,"left_children":[1,3,5,7,9,11,13,-1,-1,-1,-1,-1,-1,-1,-1],"loss_changes":[8.87221E9,1.4974932E10,1.7758386E10,7.0132265E9,2.2062203E9,3.1301407E9,9.338627E9,0E0,0E0,0E0,0E0,0E0,0E0,0E0,0E0],"parents":[2147483647,0,0,1,1,2,2,3,3,4,4,5,5,6,6],"right_children":[2,4,6,8,10,12,14,-1,-1,-1,-1,-1,-1,-1,-1],"split_conditions":[1.9E1,1.6E1,2.8E1,4.3E1,6.2E1,2E0,4.3E1,8.843392E2,-8.341349E1,-4.0150565E2,1.5100603E3,-1.4532341E2,-1.4423782E3,4.6092896E2,-3.6948456E1],"split_indices":[1,1,1,2,2,0,1,0,0,0,0,0,0,0,0],"split_type":[0,0,0,0,0,0,0,0,0,0,0,0,0,0,0],"sum_hessian":[7.834E3,5.6E2,7.274E3,4.47E2,1.13E2,1.25E2,7.149E3,9.4E1,3.53E2,6E0,1.07E2,2.3E1,1.02E2,3.98E2,6.751E3],"tree_param":{"num_deleted":"0","num_feature":"4","num_nodes":"15","size_leaf_vector":"1"}},{"base_weights":[-3.186329E0,4.8463623E1,-1.9224195E4,-2.1495786E3,5.0696222E2,-3.06516E3,-1.6408068E4,-1.4325687E2,-2.8260732E3,4.2561353E3,4.6783607E1,6.5480664E2,-1.8047191E3],"categories":[],"categories_nodes":[],"categories_segments":[],"categories_sizes":[],"default_left":[0,0,0,0,0,0,0,0,0,0,0,0,0],"id":53,"left_children":[1,3,5,7,9,-1,11,-1,-1,-1,-1,-1,-1],"loss_changes":[7.7792384E9,7.877041E9,1.728681E8,2.5215439E10,1.0621064E10,0E0,8.331044E8,0E0,0E0,0E0,0E0,0E0,0E0],"parents":[2147483647,0,0,1,1,2,2,3,3,4,4,6,6],"right_children":[2,4,6,8,10,-1,12,-1,-1,-1,-1,-1,-1],"split_conditions":[8.4E1,7.4E1,3E1,7E1,7.6E1,-3.06516E3,4.7E1,-1.4325687E2,-2.8260732E3,4.2561353E3,4.6783607E1,6.5480664E2,-1.8047191E3],"split_indices":[2,2,1,2,2,0,1,0,0,0,0,0,0],"split_type":[0,0,0,0,0,0,0,0,0,0,0,0,0],"sum_hessian":[7.834E3,7.814E3,2E1,1.348E3,6.466E3,2E0,1.8E1,1.313E3,3.5E1,5E0,6.461E3,1E0,1.7E1],"tree_param":{"num_deleted":"0","num_feature":"4","num_nodes":"13","size_leaf_vector":"1"}},{"base_weights":[-3.2335827E0,-9.1253925E2,1.0738903E3,1.571568E2,-1.7667533E4,7.2157734E3,4.6181973E2,-1.35629E2,2.1313548E2,-2.0994111E3,-6.9735986E2,5.0833252E1,2.3693545E3,1.1272512E2,-3.2526486E2],"categories":[],"categories_nodes":[],"categories_segments":[],"categories_sizes":[],"default_left":[0,0,0,0,0,0,0,0,0,0,0,0,0,0,0],"id":54,"left_children":[1,3,5,7,9,11,13,-1,-1,-1,-1,-1,-1,-1,-1],"loss_changes":[7.6748513E9,7.6156535E10,1.3481154E10,1.1939325E10,8.92502E9,3.5908153E10,8.0689024E9,0E0,0E0,0E0,0E0,0E0,0E0,0E0,0E0],"parents":[2147483647,0,0,1,1,2,2,3,3,4,4,5,5,6,6],"right_children":[2,4,6,8,10,12,14,-1,-1,-1,-1,-1,-1,-1,-1],"split_conditions":[8E1,6.2E1,8.7E1,5.3E1,7.3E1,8.5E1,1.42E2,-1.35629E2,2.1313548E2,-2.0994111E3,-6.9735986E2,5.0833252E1,2.3693545E3,1.1272512E2,-3.2526486E2],"split_indices":[1,1,1,1,1,1,1,0,0,0,0,0,0,0,0],"split_type":[0,0,0,0,0,0,0,0,0,0,0,0,0,0,0],"sum_hessian":[7.834E3,4.248E3,3.586E3,3.994E3,2.54E2,3.24E2,3.262E3,2.261E3,1.733E3,1.93E2,6.1E1,2.31E2,9.3E1,2.767E3,4.95E2],"tree_param":{"num_deleted":"0","num_feature":"4","num_nodes":"15","size_leaf_vector":"1"}},{"base_weights":[-2.9743E0,3.5812742E3,-2.793675E2,1.23648E3,1.2764489E4,-6.5181333E3,6.0640522E1,2.2348606E3,5.5416676E1,-3.4318588E2,1.3696063E3,6.677453E2,-1.0395461E3,1.8807587E3,-3.5306736E1],"categories":[],"categories_nodes":[],"categories_segments":[],"categories_sizes":[],"default_left":[0,0,0,0,0,0,0,0,0,0,0,0,0,0,0],"id":55,"left_children":[1,3,5,7,9,11,13,-1,-1,-1,-1,-1,-1,-1,-1],"loss_changes":[7.762836E9,1.206409E10,1.5432345E10,6.441092E9,1.7670451E9,1.9306932E10,5.3521375E10,0E0,0E0,0E0,0E0,0E0,0E0,0E0,0E0],"parents":[2147483647,0,0,1,1,2,2,3,3,4,4,5,5,6,6],"right_children":[2,4,6,8,10,12,14,-1,-1,-1,-1,-1,-1,-1,-1],"split_conditions":[1.9E1,1.6E1,3.2E1,1E0,6.2E1,2E0,4.3E1,2.2348606E3,5.5416676E1,-3.4318588E2,1.3696063E3,6.677453E2,-1.0395461E3,1.8807587E3,-3.5306736E1],"split_indices":[1,1,1,1,2,0,1,0,0,0,0,0,0,0,0],"split_type":[0,0,0,0,0,0,0,0,0,0,0,0,0,0,0],"sum_hessian":[7.834E3,5.6E2,7.274E3,4.47E2,1.13E2,3.75E2,6.899E3,1.3E1,4.34E2,6E0,1.07E2,8.5E1,2.9E2,1.48E2,6.751E3],"tree_param":{"num_deleted":"0","num_feature":"4","num_nodes":"15","size_leaf_vector":"1"}},{"base_weights":[-2.062906E0,-5.0758972E2,2.0219825E3,-2.6426187E0,-1.2616251E4,5.136338E3,-1.8084939E3,-8.0289474E1,2.2660991E2,1.2303313E3,-2.310411E3,1.1743949E3,4.0856894E2,-7.119506E2,2.071553E2],"categories":[],"categories_nodes":[],"categories_segments":[],"categories_sizes":[],"default_left":[0,0,0,0,0,0,0,0,0,0,0,0,0,0,0],"id":56,"left_children":[1,3,5,7,9,11,13,-1,-1,-1,-1,-1,-1,-1,-1],"loss_changes":[8.017871E9,3.833621E10,1.8690832E10,1.0931524E10,6.588383E10,5.9501425E9,1.4501453E10,0E0,0E0,0E0,0E0,0E0,0E0,0E0,0E0],"parents":[2147483647,0,0,1,1,2,2,3,3,4,4,5,5,6,6],"right_children":[2,4,6,8,10,12,14,-1,-1,-1,-1,-1,-1,-1,-1],"split_conditions":[1.14E2,9E1,1.19E2,8.3E1,2E0,2.8E1,1.44E2,-8.0289474E1,2.2660991E2,1.2303313E3,-2.310411E3,1.1743949E3,4.0856894E2,-7.119506E2,2.071553E2],"split_indices":[1,1,1,1,0,3,1,0,0,0,0,0,0,0,0],"split_type":[0,0,0,0,0,0,0,0,0,0,0,0,0,0,0],"sum_hessian":[7.834E3,6.269E3,1.565E3,6.019E3,2.5E2,8.63E2,7.02E2,4.45E3,1.569E3,7.4E1,1.76E2,1.17E2,7.46E2,2.96E2,4.06E2],"tree_param":{"num_deleted":"0","num_feature":"4","num_nodes":"15","size_leaf_vector":"1"}},{"base_weights":[-1.8352278E0,-1.5696228E4,5.6463634E1,-9.663221E3,-2.2378143E4,1.5682647E4,-2.8053001E1,4.2214508E2,-1.1795941E3,-4.576965E2,-2.348016E3,5.8318915E2,3.7208806E3,-3.0502026E3,9.406711E0],"categories":[],"categories_nodes":[],"categories_segments":[],"categories_sizes":[],"default_left":[0,0,0,0,0,0,0,0,0,0,0,0,0,0,0],"id":57,"left_children":[1,3,5,7,9,11,13,-1,-1,-1,-1,-1,-1,-1,-1],"loss_changes":[7.1696384E9,9.5280384E8,1.031093E10,5.532018E8,1.4755635E8,8.689056E9,2.8903922E10,0E0,0E0,0E0,0E0,0E0,0E0,0E0,0E0],"parents":[2147483647,0,0,1,1,2,2,3,3,4,4,5,5,6,6],"right_children":[2,4,6,8,10,12,14,-1,-1,-1,-1,-1,-1,-1,-1],"split_conditions":[6E0,3E0,7E0,2E0,3E0,9.1E1,1E1,4.2214508E2,-1.1795941E3,-4.576965E2,-2.348016E3,5.8318915E2,3.7208806E3,-3.0502026E3,9.406711E0],"split_indices":[2,0,2,2,1,1,3,0,0,0,0,0,0,0,0],"split_type":[0,0,0,0,0,0,0,0,0,0,0,0,0,0,0],"sum_hessian":[7.834E3,2.8E1,7.806E3,1.6E1,1.2E1,4.1E1,7.765E3,2E0,1.4E1,1E0,1.1E1,2.9E1,1.2E1,3E1,7.735E3],"tree_param":{"num_deleted":"0","num_feature":"4","num_nodes":"15","size_leaf_vector":"1"}},{"base_weights":[-1.9447863E0,3.3452234E3,-2.6005603E2,1.242875E3,1.1577739E4,-2.8011082E3,4.8406516E2,8.4371436E2,-6.913013E1,-2.9070844E2,1.2409369E3,6.890562E1,-4.4470865E2,-3.916393E2,8.1335594E1],"categories":[],"categories_nodes":[],"categories_segments":[],"categories_sizes":[],"default_left":[0,0,0,0,0,0,0,0,0,0,0,0,0,0,0],"id":58,"left_children":[1,3,5,7,9,11,13,-1,-1,-1,-1,-1,-1,-1,-1],"loss_changes":[6.7698534E9,9.695183E9,1.3757296E10,6.239745E9,1.40932E9,9.470388E9,8.1583273E9,0E0,0E0,0E0,0E0,0E0,0E0,0E0,0E0],"parents":[2147483647,0,0,1,1,2,2,3,3,4,4,5,5,6,6],"right_children":[2,4,6,8,10,12,14,-1,-1,-1,-1,-1,-1,-1,-1],"split_conditions":[1.9E1,1.6E1,5E1,4.3E1,6.2E1,4.4E1,1E0,8.4371436E2,-6.913013E1,-2.9070844E2,1.2409369E3,6.890562E1,-4.4470865E2,-3.916393E2,8.1335594E1],"split_indices":[1,1,1,2,2,1,0,0,0,0,0,0,0,0,0],"split_type":[0,0,0,0,0,0,0,0,0,0,0,0,0,0,0],"sum_hessian":[7.834E3,5.6E2,7.274E3,4.47E2,1.13E2,1.647E3,5.627E3,9.4E1,3.53E2,6E0,1.07E2,5.28E2,1.119E3,3.91E2,5.236E3],"tree_param":{"num_deleted":"0","num_feature":"4","num_nodes":"15","size_leaf_vector":"1"}},{"base_weights":[-1.6134229E0,2.497741E3,-4.0330176E2,-1.6816493E3,1.4461838E4,-2.7574475E3,7.079101E2,-2.2913591E2,8.666591E2,3.0902131E3,1.2592587E3,-3.8419205E2,3.306183E2,-1.3465449E3,8.167086E1],"categories":[],"categories_nodes":[],"categories_segments":[],"categories_sizes":[],"default_left":[0,0,0,0,0,0,0,0,0,0,0,0,0,0,0],"id":59,"left_children":[1,3,5,7,9,11,13,-1,-1,-1,-1,-1,-1,-1,-1],"loss_changes":[7.867046E9,5.4277177E10,1.7662261E10,5.0989435E9,8.2462843E9,1.4249404E10,7.084337E9,0E0,0E0,0E0,0E0,0E0,0E0,0E0,0E0],"parents":[2147483647,0,0,1,1,2,2,3,3,4,4,5,5,6,6],"right_children":[2,4,6,8,10,12,14,-1,-1,-1,-1,-1,-1,-1,-1],"split_conditions":[2E0,1E0,3E0,1.44E2,2.9E1,1.18E2,1.2E1,-2.2913591E2,8.666591E2,3.0902131E3,1.2592587E3,-3.8419205E2,3.306183E2,-1.3465449E3,8.167086E1],"split_indices":[0,0,0,1,1,1,2,0,0,0,0,0,0,0,0],"split_type":[0,0,0,0,0,0,0,0,0,0,0,0,0,0,0],"sum_hessian":[7.834E3,1.084E3,6.75E3,8.04E2,2.8E2,2.164E3,4.586E3,7.6E2,4.4E1,2.7E1,2.53E2,1.836E3,3.28E2,3.4E1,4.552E3],"tree_param":{"num_deleted":"0","num_feature":"4","num_nodes":"15","size_leaf_vector":"1"}},{"base_weights":[-9.852739E-1,2.25256E3,-3.6316803E2,-1.5126943E3,1.3031127E4,-2.481729E3,6.3684235E2,-2.0625264E2,7.8191925E2,2.7922278E3,1.1338279E3,-3.4579385E2,2.9765646E2,-1.2157375E3,7.350547E1],"categories":[],"categories_nodes":[],"categories_segments":[],"categories_sizes":[],"default_left":[0,0,0,0,0,0,0,0,0,0,0,0,0,0,0],"id":60,"left_children":[1,3,5,7,9,11,13,-1,-1,-1,-1,-1,-1,-1,-1],"loss_changes":[6.395708E9,4.40534E10,1.4304133E10,4.146559E9,6.7669893E9,1.1546364E10,5.7727314E9,0E0,0E0,0E0,0E0,0E0,0E0,0E0,0E0],"parents":[2147483647,0,0,1,1,2,2,3,3,4,4,5,5,6,6],"right_children":[2,4,6,8,10,12,14,-1,-1,-1,-1,-1,-1,-1,-1],"split_conditions":[2E0,1E0,3E0,1.44E2,2.9E1,1.18E2,1.2E1,-2.0625264E2,7.8191925E2,2.7922278E3,1.1338279E3,-3.4579385E2,2.9765646E2,-1.2157375E3,7.350547E1],"split_indices":[0,0,0,1,1,1,2,0,0,0,0,0,0,0,0],"split_type":[0,0,0,0,0,0,0,0,0,0,0,0,0,0,0],"sum_hessian":[7.834E3,1.084E3,6.75E3,8.04E2,2.8E2,2.164E3,4.586E3,7.6E2,4.4E1,2.7E1,2.53E2,1.836E3,3.28E2,3.4E1,4.552E3],"tree_param":{"num_deleted":"0","num_feature":"4","num_nodes":"15","size_leaf_vector":"1"}},{"base_weights":[-4.6135855E-1,4.615746E1,-1.7349299E4,3.0645178E3,-1.8679843E2,-2.795076E3,-1.4762263E4,1.1654022E2,1.0484169E3,-5.677252E2,1.1240336E1,6.781621E2,-1.6335902E3],"categories":[],"categories_nodes":[],"categories_segments":[],"categories_sizes":[],"default_left":[0,0,0,0,0,0,0,0,0,0,0,0,0],"id":61,"left_children":[1,3,5,7,9,-1,11,-1,-1,-1,-1,-1,-1],"loss_changes":[6.3376097E9,5.49565E9,1.6333722E8,7.8786145E9,1.1920458E10,0E0,7.5492736E8,0E0,0E0,0E0,0E0,0E0,0E0],"parents":[2147483647,0,0,1,1,2,2,3,3,4,4,6,6],"right_children":[2,4,6,8,10,-1,12,-1,-1,-1,-1,-1,-1],"split_conditions":[8.4E1,1.9E1,3E1,1.6E1,3.2E1,-2.795076E3,4.7E1,1.1654022E2,1.0484169E3,-5.677252E2,1.1240336E1,6.781621E2,-1.6335902E3],"split_indices":[2,1,1,1,1,0,1,0,0,0,0,0,0],"split_type":[0,0,0,0,0,0,0,0,0,0,0,0,0],"sum_hessian":[7.834E3,7.814E3,2E1,5.59E2,7.255E3,2E0,1.8E1,4.46E2,1.13E2,3.74E2,6.881E3,1E0,1.7E1],"tree_param":{"num_deleted":"0","num_feature":"4","num_nodes":"13","size_leaf_vector":"1"}},{"base_weights":[-8.137345E-1,2.2247945E2,-3.3051912E3,-3.7788898E2,3.7370337E3,-2.4332854E4,1.3527815E3,9.767752E0,-1.1782401E3,3.212963E3,3.3577963E2,-1.4860518E3,-3.8128567E3,-2.5142507E3,2.2213536E2],"categories":[],"categories_nodes":[],"categories_segments":[],"categories_sizes":[],"default_left":[0,0,0,0,0,0,0,0,0,0,0,0,0,0,0],"id":62,"left_children":[1,3,5,7,9,11,13,-1,-1,-1,-1,-1,-1,-1,-1],"loss_changes":[5.781751E9,1.5489014E10,4.861427E10,3.400715E10,1.142415E10,1.119438E10,9.422169E9,0E0,0E0,0E0,0E0,0E0,0E0,0E0,0E0],"parents":[2147483647,0,0,1,1,2,2,3,3,4,4,5,5,6,6],"right_children":[2,4,6,8,10,12,14,-1,-1,-1,-1,-1,-1,-1,-1],"split_conditions":[1.42E2,1.14E2,1.44E2,9E1,7E0,2E0,1.2E1,9.767752E0,-1.1782401E3,3.212963E3,3.3577963E2,-1.4860518E3,-3.8128567E3,-2.5142507E3,2.2213536E2],"split_indices":[1,1,1,1,2,0,3,0,0,0,0,0,0,0,0],"split_type":[0,0,0,0,0,0,0,0,0,0,0,0,0,0,0],"sum_hessian":[7.834E3,7.339E3,4.95E2,6.269E3,1.07E3,8.9E1,4.06E2,6.019E3,2.5E2,1.3E1,1.057E3,5.4E1,3.5E1,1.2E1,3.94E2],"tree_param":{"num_deleted":"0","num_feature":"4","num_nodes":"15","size_leaf_vector":"1"}},{"base_weights":[-1.3964036E0,2.1739758E3,-3.5101535E2,-1.2578354E3,1.1997585E4,-2.2227375E3,5.324879E2,4.4072865E1,-3.8335992E2,2.5401223E3,1.0472784E3,5.603644E2,-2.7583292E2,-1.1474811E3,6.2467396E1],"categories":[],"categories_nodes":[],"categories_segments":[],"categories_sizes":[],"default_left":[0,0,0,0,0,0,0,0,0,0,0,0,0,0,0],"id":63,"left_children":[1,3,5,7,9,11,13,-1,-1,-1,-1,-1,-1,-1,-1],"loss_changes":[5.959683E9,3.6593447E10,1.1165128E10,3.523645E9,5.477024E9,9.090583E9,5.0845414E9,0E0,0E0,0E0,0E0,0E0,0E0,0E0,0E0],"parents":[2147483647,0,0,1,1,2,2,3,3,4,4,5,5,6,6],"right_children":[2,4,6,8,10,12,14,-1,-1,-1,-1,-1,-1,-1,-1],"split_conditions":[2E0,1E0,3E0,6.1E1,2.9E1,1.8E1,1.2E1,4.4072865E1,-3.8335992E2,2.5401223E3,1.0472784E3,5.603644E2,-2.7583292E2,-1.1474811E3,6.2467396E1],"split_indices":[0,0,0,1,1,1,2,0,0,0,0,0,0,0,0],"split_type":[0,0,0,0,0,0,0,0,0,0,0,0,0,0,0],"sum_hessian":[7.834E3,1.084E3,6.75E3,8.04E2,2.8E2,2.164E3,4.586E3,4.85E2,3.19E2,2.7E1,2.53E2,1.38E2,2.026E3,3.4E1,4.552E3],"tree_param":{"num_deleted":"0","num_feature":"4","num_nodes":"15","size_leaf_vector":"1"}},{"base_weights":[-9.4541293E-1,1.9367535E4,-3.5611454E1,3.61983E3,1.3545883E3,6.809506E0,-1.57943125E4,-1.7584575E2,3.8574726E1,-2.63015E3,-1.3304004E3],"categories":[],"categories_nodes":[],"categories_segments":[],"categories_sizes":[],"default_left":[0,0,0,0,0,0,0,0,0,0,0],"id":64,"left_children":[1,3,5,-1,-1,7,9,-1,-1,-1,-1],"loss_changes":[5.261332E9,8.8142234E8,5.229109E9,0E0,0E0,5.219641E9,1.995735E8,0E0,0E0,0E0,0E0],"parents":[2147483647,0,0,1,1,2,2,5,5,6,6],"right_children":[2,4,6,-1,-1,8,10,-1,-1,-1,-1],"split_conditions":[1E0,3.8E1,8.4E1,3.61983E3,1.3545883E3,8.3E1,3E1,-1.7584575E2,3.8574726E1,-2.63015E3,-1.3304004E3],"split_indices":[1,2,2,0,0,2,1,0,0,0,0],"split_type":[0,0,0,0,0,0,0,0,0,0,0],"sum_hessian":[7.834E3,1.3E1,7.821E3,2E0,1.1E1,7.801E3,2E1,1.378E3,6.423E3,2E0,1.8E1],"tree_param":{"num_deleted":"0","num_feature":"4","num_nodes":"11","size_leaf_vector":"1"}},{"base_weights":[-7.420078E-1,3.6533381E3,-1.9626811E2,4.5273335E3,-2.257862E4,-9.016706E3,1.07954506E2,2.2609483E2,1.4726144E3,-3.471623E3,-1.0653085E3,-2.687818E1,-1.8497493E3,2.577552E2,-2.7752802E1],"categories":[],"categories_nodes":[],"categories_segments":[],"categories_sizes":[],"default_left":[0,0,0,0,0,0,0,0,0,0,0,0,0,0,0],"id":65,"left_children":[1,3,5,7,9,11,13,-1,-1,-1,-1,-1,-1,-1,-1],"loss_changes":[5.5985746E9,9.227009E9,1.9959929E10,8.888875E9,1.5118828E9,2.0563452E10,6.8464507E9,0E0,0E0,0E0,0E0,0E0,0E0,0E0,0E0],"parents":[2147483647,0,0,1,1,2,2,3,3,4,4,5,5,6,6],"right_children":[2,4,6,8,10,12,14,-1,-1,-1,-1,-1,-1,-1,-1],"split_conditions":[1.2E1,1.44E2,2.7E1,1.18E2,3E0,2.4E1,2E0,2.2609483E2,1.4726144E3,-3.471623E3,-1.0653085E3,-2.687818E1,-1.8497493E3,2.577552E2,-2.7752802E1],"split_indices":[3,1,3,1,0,3,0,0,0,0,0,0,0,0,0],"split_type":[0,0,0,0,0,0,0,0,0,0,0,0,0,0,0],"sum_hessian":[7.834E3,3.97E2,7.437E3,3.85E2,1.2E1,2.47E2,7.19E3,3.16E2,6.9E1,5E0,7E0,1.29E2,1.18E2,9.7E2,6.22E3],"tree_param":{"num_deleted":"0","num_feature":"4","num_nodes":"15","size_leaf_vector":"1"}},{"base_weights":[-1.2423458E0,-1.5721566E4,3.898382E1,2.373252E2,-1.8551803E4,1.1256034E4,-4.0503002E1,5.951387E2,-3.6511575E2,-5.57812E2,-2.2114617E3,1.4896786E3,-2.8130837E3,-3.3156758E3,6.649453E0],"categories":[],"categories_nodes":[],"categories_segments":[],"categories_sizes":[],"default_left":[0,0,0,0,0,0,0,0,0,0,0,0,0,0,0],"id":66,"left_children":[1,3,5,7,9,11,13,-1,-1,-1,-1,-1,-1,-1,-1],"loss_changes":[4.955219E9,9.077514E8,6.9692616E9,1.1060557E8,6.624307E8,8.305937E9,2.7505744E10,0E0,0E0,0E0,0E0,0E0,0E0,0E0,0E0],"parents":[2147483647,0,0,1,1,2,2,3,3,4,4,5,5,6,6],"right_children":[2,4,6,8,10,12,14,-1,-1,-1,-1,-1,-1,-1,-1],"split_conditions":[5E0,1E0,7E0,4E0,2E0,1.42E2,1E1,5.951387E2,-3.6511575E2,-5.57812E2,-2.2114617E3,1.4896786E3,-2.8130837E3,-3.3156758E3,6.649453E0],"split_indices":[2,0,3,3,2,1,3,0,0,0,0,0,0,0,0],"split_type":[0,0,0,0,0,0,0,0,0,0,0,0,0,0,0],"sum_hessian":[7.834E3,1.9E1,7.815E3,3E0,1.6E1,5.4E1,7.761E3,1E0,2E0,4E0,1.2E1,5E1,4E0,2.4E1,7.737E3],"tree_param":{"num_deleted":"0","num_feature":"4","num_nodes":"15","size_leaf_vector":"1"}},{"base_weights":[-2.0375638E0,1.3163692E4,-4.9250473E1,3.3153054E3,8.450754E3,-7.754913E2,8.055691E2,-1.3937711E3,1.3625333E3,2.6764194E1,-1.4462714E3,6.3450977E2,2.5357635E1],"categories":[],"categories_nodes":[],"categories_segments":[],"categories_sizes":[],"default_left":[0,0,0,0,0,0,0,0,0,0,0,0,0],"id":67,"left_children":[1,3,5,-1,7,9,11,-1,-1,-1,-1,-1,-1],"loss_changes":[4.870825E9,2.3576735E9,4.8478684E9,0E0,2.9703265E9,6.028388E10,1.0966647E10,0E0,0E0,0E0,0E0,0E0,0E0],"parents":[2147483647,0,0,1,1,2,2,4,4,5,5,6,6],"right_children":[2,4,6,-1,8,10,12,-1,-1,-1,-1,-1,-1],"split_conditions":[2E0,2.2E1,8E1,3.3153054E3,4.2E1,5.8E1,8.7E1,-1.3937711E3,1.3625333E3,2.6764194E1,-1.4462714E3,6.3450977E2,2.5357635E1],"split_indices":[1,2,1,0,3,1,1,0,0,0,0,0,0],"split_type":[0,0,0,0,0,0,0,0,0,0,0,0,0],"sum_hessian":[7.834E3,2.7E1,7.807E3,4E0,2.3E1,4.221E3,3.586E3,4E0,1.9E1,3.923E3,2.98E2,3.24E2,3.262E3],"tree_param":{"num_deleted":"0","num_feature":"4","num_nodes":"13","size_leaf_vector":"1"}},{"base_weights":[-1.5133219E0,3.3882861E3,-1.8289793E2,4.1615283E3,-1.9831688E4,-9.433522E3,6.745486E1,2.1280186E2,1.3310972E3,-3.0440015E3,-9.3964825E2,-2.825405E1,-2.704836E3,2.2640755E2,-2.7905817E1],"categories":[],"categories_nodes":[],"categories_segments":[],"categories_sizes":[],"default_left":[0,0,0,0,0,0,0,0,0,0,0,0,0,0,0],"id":68,"left_children":[1,3,5,7,9,11,13,-1,-1,-1,-1,-1,-1,-1,-1],"loss_changes":[4.818028E9,7.2284846E9,1.7226445E10,7.15339E9,1.1530716E9,3.1586195E10,5.5136957E9,0E0,0E0,0E0,0E0,0E0,0E0,0E0,0E0],"parents":[2147483647,0,0,1,1,2,2,3,3,4,4,5,5,6,6],"right_children":[2,4,6,8,10,12,14,-1,-1,-1,-1,-1,-1,-1,-1],"split_conditions":[1.2E1,1.44E2,2.6E1,1.18E2,3E0,2.4E1,2E0,2.1280186E2,1.3310972E3,-3.0440015E3,-9.3964825E2,-2.825405E1,-2.704836E3,2.2640755E2,-2.7905817E1],"split_indices":[3,1,3,1,0,3,0,0,0,0,0,0,0,0,0],"split_type":[0,0,0,0,0,0,0,0,0,0,0,0,0,0,0],"sum_hessian":[7.834E3,3.97E2,7.437E3,3.85E2,1.2E1,1.95E2,7.242E3,3.16E2,6.9E1,5E0,7E0,1.29E2,6.6E1,9.86E2,6.256E3],"tree_param":{"num_deleted":"0","num_feature":"4","num_nodes":"15","size_leaf_vector":"1"}},{"base_weights":[-1.9962777E0,3.6768166E1,-1.44278125E4,-1.2210321E4,8.237351E1,-2.4533237E3,-1.207286E4,-1.4292351E2,-1.3878126E3,1.2703671E3,5.731823E-1,6.822031E2,-1.3501578E3],"categories":[],"categories_nodes":[],"categories_segments":[],"categories_sizes":[],"default_left":[0,0,0,0,0,0,0,0,0,0,0,0,0],"id":69,"left_children":[1,3,5,7,9,-1,11,-1,-1,-1,-1,-1,-1],"loss_changes":[4.381931E9,4.3659397E9,2.0356762E8,5.016059E8,7.5324293E9,0E0,6.050222E8,0E0,0E0,0E0,0E0,0E0,0E0],"parents":[2147483647,0,0,1,1,2,2,3,3,4,4,6,6],"right_children":[2,4,6,8,10,-1,12,-1,-1,-1,-1,-1,-1],"split_conditions":[8.4E1,6E0,3E1,1E0,7E0,-2.4533237E3,4.7E1,-1.4292351E2,-1.3878126E3,1.2703671E3,5.731823E-1,6.822031E2,-1.3501578E3],"split_indices":[2,2,1,0,3,0,1,0,0,0,0,0,0],"split_type":[0,0,0,0,0,0,0,0,0,0,0,0,0],"sum_hessian":[7.834E3,7.814E3,2E1,2.8E1,7.786E3,2E0,1.8E1,4E0,2.4E1,4.6E1,7.74E3,1E0,1.7E1],"tree_param":{"num_deleted":"0","num_feature":"4","num_nodes":"13","size_leaf_vector":"1"}},{"base_weights":[-2.23058E0,1.8794678E2,-2.8165444E3,-3.351025E2,3.2498806E3,-2.2053326E4,1.4442096E3,1.036415E1,-1.0856632E3,2.6387537E3,2.9406396E2,-1.3733267E3,-3.4151934E3,-1.8341719E3,2.0917358E2],"categories":[],"categories_nodes":[],"categories_segments":[],"categories_sizes":[],"default_left":[0,0,0,0,0,0,0,0,0,0,0,0,0,0,0],"id":70,"left_children":[1,3,5,7,9,11,13,-1,-1,-1,-1,-1,-1,-1,-1],"loss_changes":[4.1939686E9,1.1756411E10,4.0685593E10,2.8945064E10,7.585531E9,8.590488E9,5.252813E9,0E0,0E0,0E0,0E0,0E0,0E0,0E0,0E0],"parents":[2147483647,0,0,1,1,2,2,3,3,4,4,5,5,6,6],"right_children":[2,4,6,8,10,12,14,-1,-1,-1,-1,-1,-1,-1,-1],"split_conditions":[1.42E2,1.14E2,1.44E2,9E1,7E0,2E0,1.2E1,1.036415E1,-1.0856632E3,2.6387537E3,2.9406396E2,-1.3733267E3,-3.4151934E3,-1.8341719E3,2.0917358E2],"split_indices":[1,1,1,1,2,0,3,0,0,0,0,0,0,0,0],"split_type":[0,0,0,0,0,0,0,0,0,0,0,0,0,0,0],"sum_hessian":[7.834E3,7.339E3,4.95E2,6.269E3,1.07E3,8.9E1,4.06E2,6.019E3,2.5E2,1.3E1,1.057E3,5.4E1,3.5E1,1.2E1,3.94E2],"tree_param":{"num_deleted":"0","num_feature":"4","num_nodes":"15","size_leaf_vector":"1"}},{"base_weights":[-2.5873702E0,1.2040761E4,-4.5775276E1,3.0415522E3,7.710987E3,-1.3099905E3,4.4414996E2,-8.47061E2,1.3575442E3,1.4670547E2,-3.9180145E2,2.1670775E2,-3.293969E1],"categories":[],"categories_nodes":[],"categories_segments":[],"categories_sizes":[],"default_left":[0,0,0,0,0,0,0,0,0,0,0,0,0],"id":71,"left_children":[1,3,5,-1,7,9,11,-1,-1,-1,-1,-1,-1],"loss_changes":[4.0757458E9,1.9931059E9,4.8366305E9,0E0,2.3925023E9,1.5801859E10,7.501516E9,0E0,0E0,0E0,0E0,0E0,0E0],"parents":[2147483647,0,0,1,1,2,2,4,4,5,5,6,6],"right_children":[2,4,6,-1,8,10,12,-1,-1,-1,-1,-1,-1],"split_conditions":[2E0,2.2E1,5E1,3.0415522E3,7.3E1,4.3E1,5.8E1,-8.47061E2,1.3575442E3,1.4670547E2,-3.9180145E2,2.1670775E2,-3.293969E1],"split_indices":[1,2,1,0,3,1,1,0,0,0,0,0,0],"split_type":[0,0,0,0,0,0,0,0,0,0,0,0,0],"sum_hessian":[7.834E3,2.7E1,7.807E3,4E0,2.3E1,2.18E3,5.627E3,6E0,1.7E1,1.056E3,1.124E3,1.743E3,3.884E3],"tree_param":{"num_deleted":"0","num_feature":"4","num_nodes":"13","size_leaf_vector":"1"}},{"base_weights":[-1.8826878E0,-6.407672E2,8.3819916E2,-3.6888812E2,-3.1388504E4,1.6049154E4,2.6455963E2,2.8778193E1,-5.9717706E2,-1.3416696E2,-3.4784094E3,2.8529275E3,6.192361E2,-1.9352616E3,3.4292282E1],"categories":[],"categories_nodes":[],"categories_segments":[],"categories_sizes":[],"default_left":[0,0,0,0,0,0,0,0,0,0,0,0,0,0,0],"id":72,"left_children":[1,3,5,7,9,11,13,-1,-1,-1,-1,-1,-1,-1,-1],"loss_changes":[4.2057016E9,3.71973E10,2.9531927E10,1.6238227E10,3.932373E9,1.4954054E10,5.0227297E9,0E0,0E0,0E0,0E0,0E0,0E0,0E0,0E0],"parents":[2147483647,0,0,1,1,2,2,3,3,4,4,5,5,6,6],"right_children":[2,4,6,8,10,12,14,-1,-1,-1,-1,-1,-1,-1,-1],"split_conditions":[8.3E1,8.2E1,8.7E1,5.8E1,1E0,3E0,8.8E1,2.8778193E1,-5.9717706E2,-1.3416696E2,-3.4784094E3,2.8529275E3,6.192361E2,-1.9352616E3,3.4292282E1],"split_indices":[1,1,1,1,0,0,1,0,0,0,0,0,0,0,0],"split_type":[0,0,0,0,0,0,0,0,0,0,0,0,0,0,0],"sum_hessian":[7.834E3,4.45E3,3.384E3,4.412E3,3.8E1,1.22E2,3.262E3,3.95E3,4.62E2,4E0,3.4E1,5.3E1,6.9E1,1.2E1,3.25E3],"tree_param":{"num_deleted":"0","num_feature":"4","num_nodes":"15","size_leaf_vector":"1"}},{"base_weights":[-2.0303528E0,-1.3979703E4,3.3736725E1,3.2168066E2,-1.6522398E4,3.598319E3,-1.5648135E2,5.7818243E2,-3.4256418E2,-4.072536E2,-2.0039854E3,-2.493582E2,6.1310126E2,-7.770136E2,9.686959E0],"categories":[],"categories_nodes":[],"categories_segments":[],"categories_sizes":[],"default_left":[0,0,0,0,0,0,0,0,0,0,0,0,0,0,0],"id":73,"left_children":[1,3,5,7,9,11,13,-1,-1,-1,-1,-1,-1,-1,-1],"loss_changes":[3.9175058E9,7.32596E8,5.3001866E9,1.01650136E8,6.62848E8,6.12514E9,1.4315316E10,0E0,0E0,0E0,0E0,0E0,0E0,0E0,0E0],"parents":[2147483647,0,0,1,1,2,2,3,3,4,4,5,5,6,6],"right_children":[2,4,6,8,10,12,14,-1,-1,-1,-1,-1,-1,-1,-1],"split_conditions":[5E0,1E0,1.7E1,4E0,2E0,5.6E1,3.1E1,5.7818243E2,-3.4256418E2,-4.072536E2,-2.0039854E3,-2.493582E2,6.1310126E2,-7.770136E2,9.686959E0],"split_indices":[2,0,2,3,2,1,2,0,0,0,0,0,0,0,0],"split_type":[0,0,0,0,0,0,0,0,0,0,0,0,0,0,0],"sum_hessian":[7.834E3,1.9E1,7.815E3,3E0,1.6E1,3.95E2,7.42E3,1E0,2E0,4E0,1.2E1,1.16E2,2.79E2,2.38E2,7.182E3],"tree_param":{"num_deleted":"0","num_feature":"4","num_nodes":"15","size_leaf_vector":"1"}},{"base_weights":[-2.156799E0,1.7522574E3,-2.8412054E2,-1.273283E3,1.0413495E4,-1.8990415E3,4.7816153E2,-1.6089882E2,1.133633E3,2.1950168E3,9.1007385E2,-2.703414E2,2.598015E2,5.076988E1,-3.3491033E3],"categories":[],"categories_nodes":[],"categories_segments":[],"categories_sizes":[],"default_left":[0,0,0,0,0,0,0,0,0,0,0,0,0,0,0],"id":74,"left_children":[1,3,5,7,9,11,13,-1,-1,-1,-1,-1,-1,-1,-1],"loss_changes":[3.8763254E9,2.8445602E10,8.3115597E9,3.425896E9,4.055939E9,7.8384983E9,4.6193956E9,0E0,0E0,0E0,0E0,0E0,0E0,0E0,0E0],"parents":[2147483647,0,0,1,1,2,2,3,3,4,4,5,5,6,6],"right_children":[2,4,6,8,10,12,14,-1,-1,-1,-1,-1,-1,-1,-1],"split_conditions":[2E0,1E0,3E0,1.45E2,2.9E1,1.18E2,1.48E2,-1.6089882E2,1.133633E3,2.1950168E3,9.1007385E2,-2.703414E2,2.598015E2,5.076988E1,-3.3491033E3],"split_indices":[0,0,0,1,1,1,1,0,0,0,0,0,0,0,0],"split_type":[0,0,0,0,0,0,0,0,0,0,0,0,0,0,0],"sum_hessian":[7.834E3,1.084E3,6.75E3,8.04E2,2.8E2,2.164E3,4.586E3,7.84E2,2E1,2.7E1,2.53E2,1.836E3,3.28E2,4.583E3,3E0],"tree_param":{"num_deleted":"0","num_feature":"4","num_nodes":"15","size_leaf_vector":"1"}},{"base_weights":[-1.8409095E0,1.7732271E2,-2.65317E3,-2.3763654E2,3.102318E3,-1.9878012E4,1.1622821E3,1.2756843E1,-5.5993353E2,1.1068086E3,2.4677922E2,-1.2309633E3,-3.0888647E3,-1.7102357E3,1.7604544E2],"categories":[],"categories_nodes":[],"categories_segments":[],"categories_sizes":[],"default_left":[0,0,0,0,0,0,0,0,0,0,0,0,0,0,0],"id":75,"left_children":[1,3,5,7,9,11,13,-1,-1,-1,-1,-1,-1,-1,-1],"loss_changes":[3.7222653E9,8.909691E9,3.2620497E10,1.258946E10,4.5823754E9,7.119712E9,4.4767457E9,0E0,0E0,0E0,0E0,0E0,0E0,0E0,0E0],"parents":[2147483647,0,0,1,1,2,2,3,3,4,4,5,5,6,6],"right_children":[2,4,6,8,10,12,14,-1,-1,-1,-1,-1,-1,-1,-1],"split_conditions":[1.42E2,1.18E2,1.44E2,9E1,1.2E1,2E0,1.2E1,1.2756843E1,-5.5993353E2,1.1068086E3,2.4677922E2,-1.2309633E3,-3.0888647E3,-1.7102357E3,1.7604544E2],"split_indices":[1,1,1,1,3,0,3,0,0,0,0,0,0,0,0],"split_type":[0,0,0,0,0,0,0,0,0,0,0,0,0,0,0],"sum_hessian":[7.834E3,7.339E3,4.95E2,6.428E3,9.11E2,8.9E1,4.06E2,6.019E3,4.09E2,6.6E1,8.45E2,5.4E1,3.5E1,1.2E1,3.94E2],"tree_param":{"num_deleted":"0","num_feature":"4","num_nodes":"15","size_leaf_vector":"1"}},{"base_weights":[-2.298358E0,3.341264E1,-1.3291781E4,1.7190139E3,-2.3684906E2,-1.0050223E4,-1.9720643E3,-1.0420131E2,9.6113837E2,-1.6675822E2,4.361031E1,-2.2963367E3,-6.565248E2],"categories":[],"categories_nodes":[],"categories_segments":[],"categories_sizes":[],"default_left":[0,0,0,0,0,0,0,0,0,0,0,0,0],"id":76,"left_children":[1,3,5,7,9,11,-1,-1,-1,-1,-1,-1,-1],"loss_changes":[3.718784E9,3.5605576E9,2.3943322E8,2.3544345E10,6.4862484E9,5.6927155E8,0E0,0E0,0E0,0E0,0E0,0E0,0E0],"parents":[2147483647,0,0,1,1,2,2,3,3,4,4,5,5],"right_children":[2,4,6,8,10,12,-1,-1,-1,-1,-1,-1,-1],"split_conditions":[8.4E1,2E0,1.19E2,1E0,3E0,3E1,-1.9720643E3,-1.0420131E2,9.6113837E2,-1.6675822E2,4.361031E1,-2.2963367E3,-6.565248E2],"split_indices":[2,0,1,0,0,1,0,0,0,0,0,0,0],"split_type":[0,0,0,0,0,0,0,0,0,0,0,0,0],"sum_hessian":[7.834E3,7.814E3,2E1,1.079E3,6.735E3,1.5E1,5E0,8E2,2.79E2,2.154E3,4.581E3,2E0,1.3E1],"tree_param":{"num_deleted":"0","num_feature":"4","num_nodes":"13","size_leaf_vector":"1"}},{"base_weights":[-2.6017718E0,-5.7806763E3,7.284595E1,4.896483E3,-2.2185756E4,5.0029854E3,-1.3643402E2,-9.6121106E2,1.2562156E3,-1.7051305E3,-5.471665E3,-8.582546E1,7.172827E2,-7.617985E2,6.7580094E0],"categories":[],"categories_nodes":[],"categories_segments":[],"categories_sizes":[],"default_left":[0,0,0,0,0,0,0,0,0,0,0,0,0,0,0],"id":77,"left_children":[1,3,5,7,9,11,13,-1,-1,-1,-1,-1,-1,-1,-1],"loss_changes":[3.4160312E9,1.7799756E10,7.9814963E9,7.016272E9,5.74814E9,4.012314E9,1.1327499E10,0E0,0E0,0E0,0E0,0E0,0E0,0E0,0E0],"parents":[2147483647,0,0,1,1,2,2,3,3,4,4,5,5,6,6],"right_children":[2,4,6,8,10,12,14,-1,-1,-1,-1,-1,-1,-1,-1],"split_conditions":[1.2E1,7E0,1.7E1,6E0,1.07E2,5.6E1,2.6E1,-9.6121106E2,1.2562156E3,-1.7051305E3,-5.471665E3,-8.582546E1,7.172827E2,-7.617985E2,6.7580094E0],"split_indices":[2,3,2,2,1,1,3,0,0,0,0,0,0,0,0],"split_type":[0,0,0,0,0,0,0,0,0,0,0,0,0,0,0],"sum_hessian":[7.834E3,1E2,7.734E3,6.1E1,3.9E1,3.14E2,7.42E3,2.1E1,4E1,3.5E1,4E0,8.5E1,2.29E2,1.96E2,7.224E3],"tree_param":{"num_deleted":"0","num_feature":"4","num_nodes":"15","size_leaf_vector":"1"}},{"base_weights":[-3.240426E0,1.1192019E4,-4.3386944E1,2.88742E3,7.041897E3,-6.0754727E3,3.407348E1,-1.0879648E3,1.1170189E3,4.4115903E2,-2.3026064E3,4.504693E2,-1.5633745E1],"categories":[],"categories_nodes":[],"categories_segments":[],"categories_sizes":[],"default_left":[0,0,0,0,0,0,0,0,0,0,0,0,0],"id":78,"left_children":[1,3,5,-1,7,9,11,-1,-1,-1,-1,-1,-1],"loss_changes":[3.521932E9,1.8514002E9,3.6484787E9,0E0,1.8971764E9,1.7700012E10,6.5638794E9,0E0,0E0,0E0,0E0,0E0,0E0],"parents":[2147483647,0,0,1,1,2,2,4,4,5,5,6,6],"right_children":[2,4,6,-1,8,10,12,-1,-1,-1,-1,-1,-1],"split_conditions":[2E0,2.2E1,1.2E1,2.88742E3,4.2E1,7E0,1.7E1,-1.0879648E3,1.1170189E3,4.4115903E2,-2.3026064E3,4.504693E2,-1.5633745E1],"split_indices":[1,2,2,0,3,3,2,0,0,0,0,0,0],"split_type":[0,0,0,0,0,0,0,0,0,0,0,0,0],"sum_hessian":[7.834E3,2.7E1,7.807E3,4E0,2.3E1,9.8E1,7.709E3,4E0,1.9E1,6.1E1,3.7E1,3.14E2,7.395E3],"tree_param":{"num_deleted":"0","num_feature":"4","num_nodes":"13","size_leaf_vector":"1"}},{"base_weights":[-2.7221427E0,-1.4498955E3,2.9633997E2,3.5359705E2,-9.486405E3,7.4371943E3,1.9595383E2,9.8546136E2,-3.833351E1,-2.3610044E3,-5.1993854E2,5.7339263E3,4.449432E2,-1.0481188E2,6.7721855E1],"categories":[],"categories_nodes":[],"categories_segments":[],"categories_sizes":[],"default_left":[0,0,0,0,0,0,0,0,0,0,0,0,0,0,0],"id":79,"left_children":[1,3,5,7,9,11,13,-1,-1,-1,-1,-1,-1,-1,-1],"loss_changes":[3.3913761E9,1.9454013E10,4.65372E9,7.684538E9,1.477213E10,1.3163469E10,3.8355645E9,0E0,0E0,0E0,0E0,0E0,0E0,0E0,0E0],"parents":[2147483647,0,0,1,1,2,2,3,3,4,4,5,5,6,6],"right_children":[2,4,6,8,10,12,14,-1,-1,-1,-1,-1,-1,-1,-1],"split_conditions":[7.3E1,3.8E1,8E0,1.2E1,4.3E1,8E1,5.3E1,9.8546136E2,-3.833351E1,-2.3610044E3,-5.1993854E2,5.7339263E3,4.449432E2,-1.0481188E2,6.7721855E1],"split_indices":[3,3,1,1,2,2,1,0,0,0,0,0,0,0,0],"split_type":[0,0,0,0,0,0,0,0,0,0,0,0,0,0,0],"sum_hessian":[7.834E3,1.341E3,6.493E3,1.096E3,2.45E2,8.9E1,6.404E3,7.8E1,1.018E3,5.6E1,1.89E2,4E0,8.5E1,1.786E3,4.618E3],"tree_param":{"num_deleted":"0","num_feature":"4","num_nodes":"15","size_leaf_vector":"1"}},{"base_weights":[-1.9108154E0,1.6170999E3,-2.6183463E2,-1.8140195E2,2.9814863E4,-3.3071284E3,3.46946E2,2.0702034E2,-2.926987E2,-4.1135386E3,3.3911414E3,6.0654835E1,-4.6544946E2,1.8654141E2,-3.347928E1],"categories":[],"categories_nodes":[],"categories_segments":[],"categories_sizes":[],"default_left":[0,0,0,0,0,0,0,0,0,0,0,0,0,0,0],"id":80,"left_children":[1,3,5,7,9,11,13,-1,-1,-1,-1,-1,-1,-1,-1],"loss_changes":[3.2975434E9,5.4979092E10,1.2518787E10,6.311673E9,2.0287283E10,5.9351255E9,5.826723E9,0E0,0E0,0E0,0E0,0E0,0E0,0E0,0E0],"parents":[2147483647,0,0,1,1,2,2,3,3,4,4,5,5,6,6],"right_children":[2,4,6,8,10,12,14,-1,-1,-1,-1,-1,-1,-1,-1],"split_conditions":[4.3E1,3.4E1,5E1,1.9E1,1E1,1E0,5.8E1,2.0702034E2,-2.926987E2,-4.1135386E3,3.3911414E3,6.0654835E1,-4.6544946E2,1.8654141E2,-3.347928E1],"split_indices":[1,1,1,1,3,0,1,0,0,0,0,0,0,0,0],"split_type":[0,0,0,0,0,0,0,0,0,0,0,0,0,0,0],"sum_hessian":[7.834E3,1.083E3,6.751E3,1.019E3,6.4E1,1.124E3,5.627E3,5.6E2,4.59E2,3E0,6.1E1,2.88E2,8.36E2,1.743E3,3.884E3],"tree_param":{"num_deleted":"0","num_feature":"4","num_nodes":"15","size_leaf_vector":"1"}},{"base_weights":[-1.8536258E0,-5.9967566E2,7.063002E2,1.9940009E2,-1.3948401E4,5.749884E3,2.0373479E2,-7.19283E1,1.7289818E2,-1.7486243E3,-3.5093353E2,3.3156063E1,1.9061598E3,-1.7452152E3,2.7427393E1],"categories":[],"categories_nodes":[],"categories_segments":[],"categories_sizes":[],"default_left":[0,0,0,0,0,0,0,0,0,0,0,0,0,0,0],"id":81,"left_children":[1,3,5,7,9,11,13,-1,-1,-1,-1,-1,-1,-1,-1],"loss_changes":[3.3173704E9,4.5325345E10,9.090908E9,5.6360975E9,8.802263E9,2.3435006E10,4.068629E9,0E0,0E0,0E0,0E0,0E0,0E0,0E0,0E0],"parents":[2147483647,0,0,1,1,2,2,3,3,4,4,5,5,6,6],"right_children":[2,4,6,8,10,12,14,-1,-1,-1,-1,-1,-1,-1,-1],"split_conditions":[8E1,6.3E1,8.7E1,5.6E1,7.3E1,8.5E1,8.8E1,-7.19283E1,1.7289818E2,-1.7486243E3,-3.5093353E2,3.3156063E1,1.9061598E3,-1.7452152E3,2.7427393E1],"split_indices":[1,1,1,1,1,1,1,0,0,0,0,0,0,0,0],"split_type":[0,0,0,0,0,0,0,0,0,0,0,0,0,0,0],"sum_hessian":[7.834E3,4.248E3,3.586E3,4.009E3,2.39E2,3.24E2,3.262E3,2.505E3,1.504E3,1.78E2,6.1E1,2.31E2,9.3E1,1.2E1,3.25E3],"tree_param":{"num_deleted":"0","num_feature":"4","num_nodes":"15","size_leaf_vector":"1"}},{"base_weights":[-1.8926805E0,3.0625751E1,-1.2103305E4,1.6062649E3,-2.2200504E2,-9.090117E3,-1.8121252E3,-8.403454E1,8.599581E2,-1.469382E2,3.6470806E1,-2.1280173E3,-5.828669E2],"categories":[],"categories_nodes":[],"categories_segments":[],"categories_sizes":[],"default_left":[0,0,0,0,0,0,0,0,0,0,0,0,0],"id":82,"left_children":[1,3,5,7,9,11,-1,-1,-1,-1,-1,-1,-1],"loss_changes":[3.0835914E9,3.111156E9,2.1607296E8,1.8485938E10,4.930293E9,5.1208077E8,0E0,0E0,0E0,0E0,0E0,0E0,0E0],"parents":[2147483647,0,0,1,1,2,2,3,3,4,4,5,5],"right_children":[2,4,6,8,10,12,-1,-1,-1,-1,-1,-1,-1],"split_conditions":[8.4E1,2E0,1.19E2,1E0,3E0,3E1,-1.8121252E3,-8.403454E1,8.599581E2,-1.469382E2,3.6470806E1,-2.1280173E3,-5.828669E2],"split_indices":[2,0,1,0,0,1,0,0,0,0,0,0,0],"split_type":[0,0,0,0,0,0,0,0,0,0,0,0,0],"sum_hessian":[7.834E3,7.814E3,2E1,1.079E3,6.735E3,1.5E1,5E0,8E2,2.79E2,2.154E3,4.581E3,2E0,1.3E1],"tree_param":{"num_deleted":"0","num_feature":"4","num_nodes":"13","size_leaf_vector":"1"}},{"base_weights":[-2.1948442E0,1.5335646E3,-2.4875305E2,-8.6481346E1,2.693223E4,-2.8758884E3,2.7643817E2,-7.893662E1,7.654539E2,-3.8023633E3,3.068854E3,7.032499E1,-4.1082602E2,3.80775E2,1.6403302E0],"categories":[],"categories_nodes":[],"categories_segments":[],"categories_sizes":[],"default_left":[0,0,0,0,0,0,0,0,0,0,0,0,0,0,0],"id":83,"left_children":[1,3,5,7,9,11,13,-1,-1,-1,-1,-1,-1,-1,-1],"loss_changes":[2.9671363E9,4.4605678E10,9.316857E9,5.555909E9,1.7026523E10,4.965071E9,5.1679283E9,0E0,0E0,0E0,0E0,0E0,0E0,0E0,0E0],"parents":[2147483647,0,0,1,1,2,2,3,3,4,4,5,5,6,6],"right_children":[2,4,6,8,10,12,14,-1,-1,-1,-1,-1,-1,-1,-1],"split_conditions":[4.3E1,3.4E1,5E1,3.2E1,1E1,1E0,2.8E1,-7.893662E1,7.654539E2,-3.8023633E3,3.068854E3,7.032499E1,-4.1082602E2,3.80775E2,1.6403302E0],"split_indices":[1,1,1,1,3,0,2,0,0,0,0,0,0,0,0],"split_type":[0,0,0,0,0,0,0,0,0,0,0,0,0,0,0],"sum_hessian":[7.834E3,1.083E3,6.751E3,1.019E3,6.4E1,1.124E3,5.627E3,9.35E2,8.4E1,3E0,6.1E1,2.88E2,8.36E2,3.85E2,5.242E3],"tree_param":{"num_deleted":"0","num_feature":"4","num_nodes":"15","size_leaf_vector":"1"}},{"base_weights":[-1.9760983E0,-1.3691672E3,2.805574E2,2.5771298E2,-8.618429E3,6.6987505E3,1.903282E2,1.3358836E0,2.4380918E3,-2.1412615E3,-4.7348135E2,5.258669E3,3.952955E2,2.2587929E1,-1.2436932E3],"categories":[],"categories_nodes":[],"categories_segments":[],"categories_sizes":[],"default_left":[0,0,0,0,0,0,0,0,0,0,0,0,0,0,0],"id":84,"left_children":[1,3,5,7,9,11,13,-1,-1,-1,-1,-1,-1,-1,-1],"loss_changes":[3.0268664E9,1.582934E10,3.7594547E9,6.466056E9,1.2121788E10,1.1132028E10,2.8780964E9,0E0,0E0,0E0,0E0,0E0,0E0,0E0,0E0],"parents":[2147483647,0,0,1,1,2,2,3,3,4,4,5,5,6,6],"right_children":[2,4,6,8,10,12,14,-1,-1,-1,-1,-1,-1,-1,-1],"split_conditions":[7.3E1,3.8E1,8E0,3.6E1,4.3E1,8E1,1.46E2,1.3358836E0,2.4380918E3,-2.1412615E3,-4.7348135E2,5.258669E3,3.952955E2,2.2587929E1,-1.2436932E3],"split_indices":[3,3,1,3,2,2,1,0,0,0,0,0,0,0,0],"split_type":[0,0,0,0,0,0,0,0,0,0,0,0,0,0,0],"sum_hessian":[7.834E3,1.341E3,6.493E3,1.096E3,2.45E2,8.9E1,6.404E3,1.086E3,1E1,5.6E1,1.89E2,4E0,8.5E1,6.387E3,1.7E1],"tree_param":{"num_deleted":"0","num_feature":"4","num_nodes":"15","size_leaf_vector":"1"}},{"base_weights":[-1.2380663E0,1.5626111E2,-2.3319695E3,-2.592246E2,2.5885107E3,-1.7947396E4,1.1268032E3,1.3189893E1,-9.638924E2,2.1745232E3,2.3325725E2,-1.1140531E3,-2.784824E3,-1.661832E3,1.7079674E2],"categories":[],"categories_nodes":[],"categories_segments":[],"categories_sizes":[],"default_left":[0,0,0,0,0,0,0,0,0,0,0,0,0,0,0],"id":85,"left_children":[1,3,5,7,9,11,13,-1,-1,-1,-1,-1,-1,-1,-1],"loss_changes":[2.8765007E9,7.418218E9,2.6809289E10,2.3003527E10,5.200322E9,5.755189E9,4.225705E9,0E0,0E0,0E0,0E0,0E0,0E0,0E0,0E0],"parents":[2147483647,0,0,1,1,2,2,3,3,4,4,5,5,6,6],"right_children":[2,4,6,8,10,12,14,-1,-1,-1,-1,-1,-1,-1,-1],"split_conditions":[1.42E2,1.14E2,1.44E2,9E1,7E0,2E0,1.2E1,1.3189893E1,-9.638924E2,2.1745232E3,2.3325725E2,-1.1140531E3,-2.784824E3,-1.661832E3,1.7079674E2],"split_indices":[1,1,1,1,2,0,3,0,0,0,0,0,0,0,0],"split_type":[0,0,0,0,0,0,0,0,0,0,0,0,0,0,0],"sum_hessian":[7.834E3,7.339E3,4.95E2,6.269E3,1.07E3,8.9E1,4.06E2,6.019E3,2.5E2,1.3E1,1.057E3,5.4E1,3.5E1,1.2E1,3.94E2],"tree_param":{"num_deleted":"0","num_feature":"4","num_nodes":"15","size_leaf_vector":"1"}},{"base_weights":[-1.6137202E0,1.46271E3,-2.369551E2,-7.5328253E2,7.8058105E3,-1.3468588E3,2.8695563E2,-1.1912687E2,6.6702893E2,9.096027E2,-1.8347649E2,5.473769E2,-1.8139137E2,-2.2589392E2,6.1514507E1],"categories":[],"categories_nodes":[],"categories_segments":[],"categories_sizes":[],"default_left":[0,0,0,0,0,0,0,0,0,0,0,0,0,0,0],"id":86,"left_children":[1,3,5,7,9,11,13,-1,-1,-1,-1,-1,-1,-1,-1],"loss_changes":[2.7004124E9,1.5256926E10,3.9260283E9,2.6253404E9,3.5118868E9,6.9067704E9,3.8339924E9,0E0,0E0,0E0,0E0,0E0,0E0,0E0,0E0],"parents":[2147483647,0,0,1,1,2,2,3,3,4,4,5,5,6,6],"right_children":[2,4,6,8,10,12,14,-1,-1,-1,-1,-1,-1,-1,-1],"split_conditions":[2E0,1E0,3E0,1.44E2,1.07E2,1.8E1,3.2E1,-1.1912687E2,6.6702893E2,9.096027E2,-1.8347649E2,5.473769E2,-1.8139137E2,-2.2589392E2,6.1514507E1],"split_indices":[0,0,0,1,1,1,1,0,0,0,0,0,0,0,0],"split_type":[0,0,0,0,0,0,0,0,0,0,0,0,0,0,0],"sum_hessian":[7.834E3,1.084E3,6.75E3,8.04E2,2.8E2,2.164E3,4.586E3,7.6E2,4.4E1,2.47E2,3.3E1,1.38E2,2.026E3,5.23E2,4.063E3],"tree_param":{"num_deleted":"0","num_feature":"4","num_nodes":"15","size_leaf_vector":"1"}},{"base_weights":[-1.2653887E0,2.880336E1,-1.1191075E4,-5.056981E2,6.6254425E2,-8.314525E3,-1.6996695E4,2.70785E1,-1.1923878E3,7.321604E2,3.4645927E1,-1.9939882E3,-5.229483E2,-7.6635315E2,-1.9747395E3],"categories":[],"categories_nodes":[],"categories_segments":[],"categories_sizes":[],"default_left":[0,0,0,0,0,0,0,0,0,0,0,0,0,0,0],"id":87,"left_children":[1,3,5,7,9,11,13,-1,-1,-1,-1,-1,-1,-1,-1],"loss_changes":[2.6365146E9,2.6475523E9,2.0938368E8,3.759517E10,7.524332E9,4.695602E8,2.701696E6,0E0,0E0,0E0,0E0,0E0,0E0,0E0,0E0],"parents":[2147483647,0,0,1,1,2,2,3,3,4,4,5,5,6,6],"right_children":[2,4,6,8,10,12,14,-1,-1,-1,-1,-1,-1,-1,-1],"split_conditions":[8.4E1,8E1,1.19E2,6.1E1,8.1E1,3E1,1E0,2.70785E1,-1.1923878E3,7.321604E2,3.4645927E1,-1.9939882E3,-5.229483E2,-7.6635315E2,-1.9747395E3],"split_indices":[2,1,1,1,1,1,0,0,0,0,0,0,0,0,0],"split_type":[0,0,0,0,0,0,0,0,0,0,0,0,0,0,0],"sum_hessian":[7.834E3,7.814E3,2E1,4.239E3,3.575E3,1.5E1,5E0,3.97E3,2.69E2,1.61E2,3.414E3,2E0,1.3E1,2E0,3E0],"tree_param":{"num_deleted":"0","num_feature":"4","num_nodes":"15","size_leaf_vector":"1"}},{"base_weights":[-1.8587602E0,-5.0493315E3,6.404901E1,1.155025E3,-2.5003102E4,3.830308E3,-9.582643E1,-8.976175E2,7.0080206E2,-3.054614E3,2.1696672E2,-1.3365543E2,5.745612E2,-2.5470535E3,-4.099371E0],"categories":[],"categories_nodes":[],"categories_segments":[],"categories_sizes":[],"default_left":[0,0,0,0,0,0,0,0,0,0,0,0,0,0,0],"id":88,"left_children":[1,3,5,7,9,11,13,-1,-1,-1,-1,-1,-1,-1,-1],"loss_changes":[2.6067748E9,1.2532709E10,4.65786E9,4.68814E9,3.681147E9,3.1249546E9,1.032427E10,0E0,0E0,0E0,0E0,0E0,0E0,0E0,0E0],"parents":[2147483647,0,0,1,1,2,2,3,3,4,4,5,5,6,6],"right_children":[2,4,6,8,10,12,14,-1,-1,-1,-1,-1,-1,-1,-1],"split_conditions":[1.2E1,1E1,1.7E1,6E0,1E1,5.6E1,2.1E1,-8.976175E2,7.0080206E2,-3.054614E3,2.1696672E2,-1.3365543E2,5.745612E2,-2.5470535E3,-4.099371E0],"split_indices":[2,2,2,2,3,1,2,0,0,0,0,0,0,0,0],"split_type":[0,0,0,0,0,0,0,0,0,0,0,0,0,0,0],"sum_hessian":[7.834E3,1E2,7.734E3,7.7E1,2.3E1,3.14E2,7.42E3,2.8E1,4.9E1,1.9E1,4E0,8.5E1,2.29E2,1.5E1,7.405E3],"tree_param":{"num_deleted":"0","num_feature":"4","num_nodes":"15","size_leaf_vector":"1"}},{"base_weights":[-2.3325305E0,1.4414925E2,-2.1700217E3,-2.2231673E2,2.2894316E3,-1.6177598E4,9.328082E2,1.3679694E1,-8.8344354E2,1.9467327E3,2.059961E2,-9.9889874E2,-2.5183042E3,-1.5536954E3,1.4724895E2],"categories":[],"categories_nodes":[],"categories_segments":[],"categories_sizes":[],"default_left":[0,0,0,0,0,0,0,0,0,0,0,0,0,0,0],"id":89,"left_children":[1,3,5,7,9,11,13,-1,-1,-1,-1,-1,-1,-1,-1],"loss_changes":[2.4881364E9,5.771019E9,2.15728E10,1.939262E10,4.1815905E9,4.764252E9,3.6404657E9,0E0,0E0,0E0,0E0,0E0,0E0,0E0,0E0],"parents":[2147483647,0,0,1,1,2,2,3,3,4,4,5,5,6,6],"right_children":[2,4,6,8,10,12,14,-1,-1,-1,-1,-1,-1,-1,-1],"split_conditions":[1.42E2,1.14E2,1.44E2,9E1,7E0,2E0,1.2E1,1.3679694E1,-8.8344354E2,1.9467327E3,2.059961E2,-9.9889874E2,-2.5183042E3,-1.5536954E3,1.4724895E2],"split_indices":[1,1,1,1,2,0,3,0,0,0,0,0,0,0,0],"split_type":[0,0,0,0,0,0,0,0,0,0,0,0,0,0,0],"sum_hessian":[7.834E3,7.339E3,4.95E2,6.269E3,1.07E3,8.9E1,4.06E2,6.019E3,2.5E2,1.3E1,1.057E3,5.4E1,3.5E1,1.2E1,3.94E2],"tree_param":{"num_deleted":"0","num_feature":"4","num_nodes":"15","size_leaf_vector":"1"}},{"base_weights":[-2.5682576E0,1.390722E3,-2.2649323E2,-6.3100696E2,7.177559E3,-1.7720542E3,8.2219826E1,-9.009698E1,9.4905096E2,8.204003E2,-2.7824677E2,1.0239631E1,-1.0485468E3,