{"learner":{"attributes":{"scikit_learn":"{\"_estimator_type\": \"regressor\"}"},"feature_names":["experience_level","job_title","employee_residence","company_location"],"feature_types":["int","int","int","int"],"gradient_booster":{"model":{"gbtree_model_param":{"num_parallel_tree":"1","num_trees":"100"},"iteration_indptr":[0,1,2,3,4,5,6,7,8,9,10,11,12,13,14,15,16,17,18,19,20,21,22,23,24,25,26,27,28,29,30,31,32,33,34,35,36,37,38,39,40,41,42,43,44,45,46,47,48,49,50,51,52,53,54,55,56,57,58,59,60,61,62,63,64,65,66,67,68,69,70,71,72,73,74,75,76,77,78,79,80,81,82,83,84,85,86,87,88,89,90,91,92,93,94,95,96,97,98,99,100],"tree_info":[0,0,0,0,0,0,0,0,0,0,0,0,0,0,0,0,0,0,0,0,0,0,0,0,0,0,0,0,0,0,0,0,0,0,0,0,0,0,0,0,0,0,0,0,0,0,0,0,0,0,0,0,0,0,0,0,0,0,0,0,0,0,0,0,0,0,0,0,0,0,0,0,0,0,0,0,0,0,0,0,0,0,0,0,0,0,0,0,0,0,0,0,0,0,0,0,0,0,0,0],"trees":[{"base_weights":[4.93241E-3,1.4493933E4,-2.2835693E4,8.215823E3,3.764384E4,-2.6947281E4,3.0247283E4,1.1383719E4,-2.2177592E4,3.890272E4,2.0966521E4,-3.300522E4,7.3594136E3,-3.1358792E3,4.3855117E4,2.3756677E3,3.737972E2,-1.5890082E3,-8.766299E3,4.0815427E3,3.1884185E3,2.7884617E3,-9.035473E2,-2.7724797E3,-6.3132803E3,1.446103E3,-3.9346912E3,2.2413884E3,-2.986532E3,4.5062886E3,-3.242214E3],"categories":[],"categories_nodes":[],"categories_segments":[],"categories_sizes":[],"default_left":[0,0,0,0,0,0,0,0,0,0,0,0,0,0,0,0,0,0,0,0,0,0,0,0,0,0,0,0,0,0,0],"id":0,"left_children":[1,3,5,7,9,11,13,15,17,19,21,23,25,27,29,-1,-1,-1,-1,-1,-1,-1,-1,-1,-1,-1,-1,-1,-1,-1,-1],"loss_changes":[1.5122428E12,4.0590954E11,3.8799992E11,2.120754E11,1.1697127E10,3.425353E11,5.828441E10,1.8844996E11,8.424898E10,6.1223076E9,9.384442E9,2.2097035E11,8.2828214E10,2.6620768E10,9.844457E9,0E0,0E0,0E0,0E0,0E0,0E0,0E0,0E0,0E0,0E0,0E0,0E0,0E0,0E0,0E0,0E0],"parents":[2147483647,0,0,1,1,2,2,3,3,4,4,5,5,6,6,7,7,8,8,9,9,10,10,11,11,12,12,13,13,14,14],"right_children":[2,4,6,8,10,12,14,16,18,20,22,24,26,28,30,-1,-1,-1,-1,-1,-1,-1,-1,-1,-1,-1,-1,-1,-1,-1,-1],"split_conditions":[1E0,3E0,3E0,1E0,2E0,3E0,2E0,1E0,3E0,4E0,4E0,1E0,1E0,1E0,3E0,2.3756677E3,3.737972E2,-1.5890082E3,-8.766299E3,4.0815427E3,3.1884185E3,2.7884617E3,-9.035473E2,-2.7724797E3,-6.3132803E3,1.446103E3,-3.9346912E3,2.2413884E3,-2.986532E3,4.5062886E3,-3.242214E3],"split_indices":[0,1,0,3,2,1,1,1,2,1,1,2,2,1,2,0,0,0,0,0,0,0,0,0,0,0,0,0,0,0,0],"split_type":[0,0,0,0,0,0,0,0,0,0,0,0,0,0,0,0,0,0,0,0,0,0,0,0,0,0,0,0,0,0,0],"sum_hessian":[4.567E3,2.794E3,1.773E3,2.199E3,5.95E2,1.646E3,1.27E2,1.992E3,2.07E2,5.52E2,4.3E1,1.399E3,2.47E2,3.7E1,9E1,7.6E2,1.232E3,1.9E2,1.7E1,4.3E2,1.22E2,3.5E1,8E0,1.192E3,2.07E2,2.15E2,3.2E1,1.9E1,1.8E1,8.9E1,1E0],"tree_param":{"num_deleted":"0","num_feature":"4","num_nodes":"31","size_leaf_vector":"1"}},{"base_weights":[-2.0764182E0,1.3045092E4,-2.0558352E4,7.390783E3,3.3894812E4,-3.2655658E4,-5.34527E3,1.8720785E4,3.5206265E2,3.502559E4,1.8912701E4,-1.5857064E4,-4.732035E4,-1.1190426E4,3.9483504E4,1.96855E3,-7.2863433E3,-1.8959828E3,1.2660061E3,3.6743347E3,2.8721687E3,2.5173604E3,-8.2323193E2,-1.093727E3,-4.325166E3,-4.3120933E3,-7.8694272E3,-4.3873233E2,-4.558189E3,4.0606677E3,-3.0801033E3],"categories":[],"categories_nodes":[],"categories_segments":[],"categories_sizes":[],"default_left":[0,0,0,0,0,0,0,0,0,0,0,0,0,0,0,0,0,0,0,0,0,0,0,0,0,0,0,0,0,0,0],"id":1,"left_children":[1,3,5,7,9,11,13,15,17,19,21,23,25,27,29,-1,-1,-1,-1,-1,-1,-1,-1,-1,-1,-1,-1,-1,-1,-1,-1],"loss_changes":[1.2254113E12,3.2925414E11,3.2630768E11,1.7544063E11,9.434694E9,2.4263983E11,2.0666035E11,7.5915624E10,3.23024E11,4.9328947E9,7.6851405E9,6.1793354E10,6.6040103E10,1.6287615E11,8.4344177E9,0E0,0E0,0E0,0E0,0E0,0E0,0E0,0E0,0E0,0E0,0E0,0E0,0E0,0E0,0E0,0E0],"parents":[2147483647,0,0,1,1,2,2,3,3,4,4,5,5,6,6,7,7,8,8,9,9,10,10,11,11,12,12,13,13,14,14],"right_children":[2,4,6,8,10,12,14,16,18,20,22,24,26,28,30,-1,-1,-1,-1,-1,-1,-1,-1,-1,-1,-1,-1,-1,-1,-1,-1],"split_conditions":[1E0,3E0,2E0,1E0,2E0,1E0,3E0,3E0,2E0,4E0,4E0,1E0,1E0,1E0,3E0,1.96855E3,-7.2863433E3,-1.8959828E3,1.2660061E3,3.6743347E3,2.8721687E3,2.5173604E3,-8.2323193E2,-1.093727E3,-4.325166E3,-4.3120933E3,-7.8694272E3,-4.3873233E2,-4.558189E3,4.0606677E3,-3.0801033E3],"split_indices":[0,1,1,1,2,1,0,2,1,1,1,2,2,2,2,0,0,0,0,0,0,0,0,0,0,0,0,0,0,0,0],"split_type":[0,0,0,0,0,0,0,0,0,0,0,0,0,0,0,0,0,0,0,0,0,0,0,0,0,0,0,0,0,0,0],"sum_hessian":[4.567E3,2.794E3,1.773E3,2.199E3,5.95E2,9.87E2,7.86E2,8.42E2,1.357E3,5.52E2,4.3E1,4.61E2,5.26E2,6.96E2,9E1,8.34E2,8E0,5.28E2,8.29E2,4.3E2,1.22E2,3.5E1,8E0,3.92E2,6.9E1,4.66E2,6E1,5.82E2,1.14E2,8.9E1,1E0],"tree_param":{"num_deleted":"0","num_feature":"4","num_nodes":"31","size_leaf_vector":"1"}},{"base_weights":[-6.0957E0,1.1741407E4,-1.85147E4,6.6490054E3,3.0519164E4,-2.9407902E4,-4.8158457E3,9.465477E3,-2.0369633E4,3.1715701E4,1.8648107E4,-1.428308E4,-4.2611434E4,-1.0078551E4,3.5545926E4,1.9418167E3,3.315061E2,-1.5161731E3,-7.799009E3,3.3359133E3,2.5872864E3,2.307035E3,-7.500556E2,-9.8463196E2,-3.898828E3,-3.8818074E3,-7.0953853E3,-3.9493414E2,-4.1063335E3,3.6591125E3,-2.9260977E3],"categories":[],"categories_nodes":[],"categories_segments":[],"categories_sizes":[],"default_left":[0,0,0,0,0,0,0,0,0,0,0,0,0,0,0,0,0,0,0,0,0,0,0,0,0,0,0,0,0,0,0],"id":2,"left_children":[1,3,5,7,9,11,13,15,17,19,21,23,25,27,29,-1,-1,-1,-1,-1,-1,-1,-1,-1,-1,-1,-1,-1,-1,-1,-1],"loss_changes":[9.934371E11,2.6706582E11,2.645824E11,1.6760671E11,7.8742815E9,1.9669595E11,1.6752656E11,1.2193351E11,6.123452E10,4.322132E9,6.7642737E9,5.0256413E10,5.3905064E10,1.3220664E11,7.2346747E9,0E0,0E0,0E0,0E0,0E0,0E0,0E0,0E0,0E0,0E0,0E0,0E0,0E0,0E0,0E0,0E0],"parents":[2147483647,0,0,1,1,2,2,3,3,4,4,5,5,6,6,7,7,8,8,9,9,10,10,11,11,12,12,13,13,14,14],"right_children":[2,4,6,8,10,12,14,16,18,20,22,24,26,28,30,-1,-1,-1,-1,-1,-1,-1,-1,-1,-1,-1,-1,-1,-1,-1,-1],"split_conditions":[1E0,3E0,2E0,1E0,1E0,1E0,3E0,1E0,3E0,4E0,4E0,1E0,1E0,1E0,3E0,1.9418167E3,3.315061E2,-1.5161731E3,-7.799009E3,3.3359133E3,2.5872864E3,2.307035E3,-7.500556E2,-9.8463196E2,-3.898828E3,-3.8818074E3,-7.0953853E3,-3.9493414E2,-4.1063335E3,3.6591125E3,-2.9260977E3],"split_indices":[0,1,1,3,2,1,0,1,3,1,1,2,2,2,2,0,0,0,0,0,0,0,0,0,0,0,0,0,0,0,0],"split_type":[0,0,0,0,0,0,0,0,0,0,0,0,0,0,0,0,0,0,0,0,0,0,0,0,0,0,0,0,0,0,0],"sum_hessian":[4.567E3,2.794E3,1.773E3,2.199E3,5.95E2,9.87E2,7.86E2,1.992E3,2.07E2,5.39E2,5.6E1,4.61E2,5.26E2,6.96E2,9E1,7.6E2,1.232E3,1.91E2,1.6E1,4.17E2,1.22E2,4.8E1,8E0,3.92E2,6.9E1,4.66E2,6E1,5.82E2,1.14E2,8.9E1,1E0],"tree_param":{"num_deleted":"0","num_feature":"4","num_nodes":"31","size_leaf_vector":"1"}},{"base_weights":[-9.6837015E0,1.0567429E4,-1.6674293E4,5.9809087E3,2.7479805E4,-1.9791719E4,2.3568473E4,8.520075E3,-1.8377455E4,2.8555107E4,1.6810617E4,-2.478114E4,8.454173E3,2.75842E3,3.199939E4,1.7478906E3,2.9838303E2,-1.3653456E3,-7.0649844E3,3.0031206E3,2.3306619E3,2.08104E3,-6.8338336E2,-1.8238143E3,-4.1739326E3,1.3851428E3,-2.71295E3,2.2873567E3,-1.8560599E3,3.2972673E3,-2.779793E3],"categories":[],"categories_nodes":[],"categories_segments":[],"categories_sizes":[],"default_left":[0,0,0,0,0,0,0,0,0,0,0,0,0,0,0,0,0,0,0,0,0,0,0,0,0,0,0,0,0,0,0],"id":3,"left_children":[1,3,5,7,9,11,13,15,17,19,21,23,25,27,29,-1,-1,-1,-1,-1,-1,-1,-1,-1,-1,-1,-1,-1,-1,-1,-1],"loss_changes":[8.053476E11,2.1664082E11,2.2302153E11,1.3622646E11,6.35768E9,2.3232237E11,2.2369059E10,9.879722E10,5.0397815E10,3.483566E9,5.5328594E9,1.5457904E11,4.800521E10,1.6720285E10,6.212731E9,0E0,0E0,0E0,0E0,0E0,0E0,0E0,0E0,0E0,0E0,0E0,0E0,0E0,0E0,0E0,0E0],"parents":[2147483647,0,0,1,1,2,2,3,3,4,4,5,5,6,6,7,7,8,8,9,9,10,10,11,11,12,12,13,13,14,14],"right_children":[2,4,6,8,10,12,14,16,18,20,22,24,26,28,30,-1,-1,-1,-1,-1,-1,-1,-1,-1,-1,-1,-1,-1,-1,-1,-1],"split_conditions":[1E0,3E0,3E0,1E0,1E0,3E0,2E0,1E0,3E0,4E0,4E0,2E0,1E0,1E0,3E0,1.7478906E3,2.9838303E2,-1.3653456E3,-7.0649844E3,3.0031206E3,2.3306619E3,2.08104E3,-6.8338336E2,-1.8238143E3,-4.1739326E3,1.3851428E3,-2.71295E3,2.2873567E3,-1.8560599E3,3.2972673E3,-2.779793E3],"split_indices":[0,1,0,3,2,1,1,1,3,1,1,0,2,1,2,0,0,0,0,0,0,0,0,0,0,0,0,0,0,0,0],"split_type":[0,0,0,0,0,0,0,0,0,0,0,0,0,0,0,0,0,0,0,0,0,0,0,0,0,0,0,0,0,0,0],"sum_hessian":[4.567E3,2.794E3,1.773E3,2.199E3,5.95E2,1.646E3,1.27E2,1.992E3,2.07E2,5.39E2,5.6E1,1.399E3,2.47E2,3.7E1,9E1,7.6E2,1.232E3,1.91E2,1.6E1,4.17E2,1.22E2,4.8E1,8E0,1.011E3,3.88E2,2.15E2,3.2E1,1.9E1,1.8E1,8.9E1,1E0],"tree_param":{"num_deleted":"0","num_feature":"4","num_nodes":"31","size_leaf_vector":"1"}},{"base_weights":[-1.0037963E1,9.510806E3,-1.501046E4,5.3799116E3,2.4743115E4,-1.09043125E4,-3.9997914E4,7.66909E3,-1.6580242E4,2.570947E4,1.515407E4,-2.0505242E4,1.4766509E3,-4.6901523E4,-2.446096E4,1.5733313E3,2.6856815E2,-3.4210154E3,-3.1073663E2,2.7035266E3,2.099491E3,1.8771825E3,-6.226375E2,-6.810247E2,-3.1986245E3,-2.7323715E2,3.032822E3,-4.889598E3,2.94925E3,-5.254247E2,-6.57373E3],"categories":[],"categories_nodes":[],"categories_segments":[],"categories_sizes":[],"default_left":[0,0,0,0,0,0,0,0,0,0,0,0,0,0,0,0,0,0,0,0,0,0,0,0,0,0,0,0,0,0,0],"id":4,"left_children":[1,3,5,7,9,11,13,15,17,19,21,23,25,27,29,-1,-1,-1,-1,-1,-1,-1,-1,-1,-1,-1,-1,-1,-1,-1,-1],"loss_changes":[6.525293E11,1.7573685E11,1.8158004E11,1.1072271E11,5.1331727E9,1.8130515E11,2.5668026E10,8.005106E10,4.9299026E10,2.8076933E9,4.525784E9,1.3484468E11,8.108129E10,2.7648754E10,6.2284444E10,0E0,0E0,0E0,0E0,0E0,0E0,0E0,0E0,0E0,0E0,0E0,0E0,0E0,0E0,0E0,0E0],"parents":[2147483647,0,0,1,1,2,2,3,3,4,4,5,5,6,6,7,7,8,8,9,9,10,10,11,11,12,12,13,13,14,14],"right_children":[2,4,6,8,10,12,14,16,18,20,22,24,26,28,30,-1,-1,-1,-1,-1,-1,-1,-1,-1,-1,-1,-1,-1,-1,-1,-1],"split_conditions":[1E0,3E0,1E0,1E0,1E0,2E0,2E0,1E0,2E0,4E0,4E0,1E0,3E0,4E0,3E0,1.5733313E3,2.6856815E2,-3.4210154E3,-3.1073663E2,2.7035266E3,2.099491E3,1.8771825E3,-6.226375E2,-6.810247E2,-3.1986245E3,-2.7323715E2,3.032822E3,-4.889598E3,2.94925E3,-5.254247E2,-6.57373E3],"split_indices":[0,1,2,3,2,1,3,1,3,1,1,1,0,1,2,0,0,0,0,0,0,0,0,0,0,0,0,0,0,0,0],"split_type":[0,0,0,0,0,0,0,0,0,0,0,0,0,0,0,0,0,0,0,0,0,0,0,0,0,0,0,0,0,0,0],"sum_hessian":[4.567E3,2.794E3,1.773E3,2.199E3,5.95E2,1.524E3,2.49E2,1.992E3,2.07E2,5.39E2,5.6E1,8.58E2,6.66E2,1.71E2,7.8E1,7.6E2,1.232E3,8.9E1,1.18E2,4.17E2,1.22E2,4.8E1,8E0,3.92E2,4.66E2,5.82E2,8.4E1,1.67E2,4E0,5.4E1,2.4E1],"tree_param":{"num_deleted":"0","num_feature":"4","num_nodes":"31","size_leaf_vector":"1"}},{"base_weights":[-1.0343974E1,8.561219E3,-1.351514E4,1.0865032E3,1.5746675E4,-1.7493717E4,9.824769E3,1.2614568E4,-1.7286361E4,1.7789768E4,-5.094587E3,-2.0424627E4,1.7726533E4,1.4293969E4,-2.1215627E4,1.331621E3,-5.388384E3,-1.6737147E3,-6.2370063E3,1.3954564E3,2.3147417E3,-1.9871741E3,1.3660669E3,-1.4793347E3,-3.5022136E3,4.6600836E2,2.3711516E3,1.274467E3,4.0990186E3,-3.0716807E3,1.8462584E3],"categories":[],"categories_nodes":[],"categories_segments":[],"categories_sizes":[],"default_left":[0,0,0,0,0,0,0,0,0,0,0,0,0,0,0,0,0,0,0,0,0,0,0,0,0,0,0,0,0,0,0],"id":5,"left_children":[1,3,5,7,9,11,13,15,17,19,21,23,25,27,29,-1,-1,-1,-1,-1,-1,-1,-1,-1,-1,-1,-1,-1,-1,-1,-1],"loss_changes":[5.2889462E11,1.501002E11,1.649048E11,2.9060075E11,6.076806E10,1.5685488E11,3.6233216E10,4.005026E10,1.2054495E10,2.6347864E10,3.574657E10,1.1456558E11,9.039188E9,8.86641E9,1.3007778E10,0E0,0E0,0E0,0E0,0E0,0E0,0E0,0E0,0E0,0E0,0E0,0E0,0E0,0E0,0E0,0E0],"parents":[2147483647,0,0,1,1,2,2,3,3,4,4,5,5,6,6,7,7,8,8,9,9,10,10,11,11,12,12,13,13,14,14],"right_children":[2,4,6,8,10,12,14,16,18,20,22,24,26,28,30,-1,-1,-1,-1,-1,-1,-1,-1,-1,-1,-1,-1,-1,-1,-1,-1],"split_conditions":[1E0,2E0,3E0,1E0,1E0,3E0,1E0,3E0,3E0,3E0,3E0,2E0,2E0,3E0,4E0,1.331621E3,-5.388384E3,-1.6737147E3,-6.2370063E3,1.3954564E3,2.3147417E3,-1.9871741E3,1.3660669E3,-1.4793347E3,-3.5022136E3,4.6600836E2,2.3711516E3,1.274467E3,4.0990186E3,-3.0716807E3,1.8462584E3],"split_indices":[0,1,1,1,3,0,2,2,2,1,1,0,1,0,1,0,0,0,0,0,0,0,0,0,0,0,0,0,0,0,0],"split_type":[0,0,0,0,0,0,0,0,0,0,0,0,0,0,0,0,0,0,0,0,0,0,0,0,0,0,0,0,0,0,0],"sum_hessian":[4.567E3,2.794E3,1.773E3,1.37E3,1.424E3,1.515E3,2.58E2,8.42E2,5.28E2,1.297E3,1.27E2,1.399E3,1.16E2,2.26E2,3.2E1,8.34E2,8E0,5.23E2,5E0,7.58E2,5.39E2,7.1E1,5.6E1,1.011E3,3.88E2,3.7E1,7.9E1,2.15E2,1.1E1,2.6E1,6E0],"tree_param":{"num_deleted":"0","num_feature":"4","num_nodes":"31","size_leaf_vector":"1"}},{"base_weights":[-1.0814416E1,7.7019224E3,-1.2162499E4,9.6912305E2,1.417418E4,-8.538817E3,-3.421831E4,1.1348295E4,-1.5572675E4,1.6013654E4,-4.5899795E3,-1.2276619E4,1.2888241E4,-4.036839E4,-2.0395113E4,1.198618E3,-4.909416E3,-1.5066622E3,-5.7172554E3,1.2560948E3,2.083697E3,-1.7912168E3,1.2318573E3,-1.4899159E3,1.7078213E3,1.1476102E3,3.7232751E3,-4.2093115E3,2.565609E3,-3.202576E2,-5.740289E3],"categories":[],"categories_nodes":[],"categories_segments":[],"categories_sizes":[],"default_left":[0,0,0,0,0,0,0,0,0,0,0,0,0,0,0,0,0,0,0,0,0,0,0,0,0,0,0,0,0,0,0],"id":6,"left_children":[1,3,5,7,9,11,13,15,17,19,21,23,25,27,29,-1,-1,-1,-1,-1,-1,-1,-1,-1,-1,-1,-1,-1,-1,-1,-1],"loss_changes":[4.282192E11,1.21782305E11,1.414916E11,2.3556396E11,4.925912E10,1.2229561E11,2.0430127E10,3.3090593E10,1.0274988E10,2.1354512E10,2.9053792E10,1.0025697E11,7.3764864E9,2.0666319E10,5.0080514E10,0E0,0E0,0E0,0E0,0E0,0E0,0E0,0E0,0E0,0E0,0E0,0E0,0E0,0E0,0E0,0E0],"parents":[2147483647,0,0,1,1,2,2,3,3,4,4,5,5,6,6,7,7,8,8,9,9,10,10,11,11,12,12,13,13,14,14],"right_children":[2,4,6,8,10,12,14,16,18,20,22,24,26,28,30,-1,-1,-1,-1,-1,-1,-1,-1,-1,-1,-1,-1,-1,-1,-1,-1],"split_conditions":[1E0,2E0,1E0,1E0,1E0,3E0,2E0,3E0,3E0,3E0,3E0,3E0,3E0,4E0,3E0,1.198618E3,-4.909416E3,-1.5066622E3,-5.7172554E3,1.2560948E3,2.083697E3,-1.7912168E3,1.2318573E3,-1.4899159E3,1.7078213E3,1.1476102E3,3.7232751E3,-4.2093115E3,2.565609E3,-3.202576E2,-5.740289E3],"split_indices":[0,1,2,1,3,1,3,2,2,1,1,0,0,1,2,0,0,0,0,0,0,0,0,0,0,0,0,0,0,0,0],"split_type":[0,0,0,0,0,0,0,0,0,0,0,0,0,0,0,0,0,0,0,0,0,0,0,0,0,0,0,0,0,0,0],"sum_hessian":[4.567E3,2.794E3,1.773E3,1.37E3,1.424E3,1.524E3,2.49E2,8.42E2,5.28E2,1.297E3,1.27E2,1.298E3,2.26E2,1.71E2,7.8E1,8.34E2,8E0,5.23E2,5E0,7.58E2,5.39E2,7.1E1,5.6E1,1.192E3,1.06E2,2.15E2,1.1E1,1.67E2,4E0,5.4E1,2.4E1],"tree_param":{"num_deleted":"0","num_feature":"4","num_nodes":"31","size_leaf_vector":"1"}},{"base_weights":[-1.2092534E1,6.9288086E3,-1.0947722E4,8.6422845E2,1.2758711E4,-7.681597E3,-3.0827293E4,1.0209057E4,-1.4029069E4,1.4414859E4,-4.1353516E3,-1.4996317E4,1.750226E3,-3.6341105E4,-1.8432316E4,1.078899E3,-4.473024E3,-1.356284E3,-5.2408174E3,1.130651E3,1.8757125E3,-2.169052E3,6.668881E2,-3.0365665E2,-2.5028835E3,-1.3240642E2,2.281565E3,-3.790886E3,2.36036E3,-2.8881415E2,-5.189221E3],"categories":[],"categories_nodes":[],"categories_segments":[],"categories_sizes":[],"default_left":[0,0,0,0,0,0,0,0,0,0,0,0,0,0,0,0,0,0,0,0,0,0,0,0,0,0,0,0,0,0,0],"id":7,"left_children":[1,3,5,7,9,11,13,15,17,19,21,23,25,27,29,-1,-1,-1,-1,-1,-1,-1,-1,-1,-1,-1,-1,-1,-1,-1,-1],"loss_changes":[3.4680134E11,9.8808726E10,1.14947555E11,1.9095259E11,3.9929807E10,1.0523774E11,1.6416031E10,2.734153E10,8.754823E9,1.7307402E10,2.4422427E10,1.02992314E11,4.3225944E10,1.705907E10,4.0938545E10,0E0,0E0,0E0,0E0,0E0,0E0,0E0,0E0,0E0,0E0,0E0,0E0,0E0,0E0,0E0,0E0],"parents":[2147483647,0,0,1,1,2,2,3,3,4,4,5,5,6,6,7,7,8,8,9,9,10,10,11,11,12,12,13,13,14,14],"right_children":[2,4,6,8,10,12,14,16,18,20,22,24,26,28,30,-1,-1,-1,-1,-1,-1,-1,-1,-1,-1,-1,-1,-1,-1,-1,-1],"split_conditions":[1E0,2E0,1E0,1E0,1E0,2E0,2E0,3E0,3E0,3E0,2E0,1E0,3E0,4E0,3E0,1.078899E3,-4.473024E3,-1.356284E3,-5.2408174E3,1.130651E3,1.8757125E3,-2.169052E3,6.668881E2,-3.0365665E2,-2.5028835E3,-1.3240642E2,2.281565E3,-3.790886E3,2.36036E3,-2.8881415E2,-5.189221E3],"split_indices":[0,1,2,1,3,1,3,2,2,1,2,1,0,1,2,0,0,0,0,0,0,0,0,0,0,0,0,0,0,0,0],"split_type":[0,0,0,0,0,0,0,0,0,0,0,0,0,0,0,0,0,0,0,0,0,0,0,0,0,0,0,0,0,0,0],"sum_hessian":[4.567E3,2.794E3,1.773E3,1.37E3,1.424E3,1.524E3,2.49E2,8.42E2,5.28E2,1.297E3,1.27E2,8.58E2,6.66E2,1.71E2,7.8E1,8.34E2,8E0,5.23E2,5E0,7.58E2,5.39E2,4.8E1,7.9E1,3.92E2,4.66E2,5.82E2,8.4E1,1.67E2,4E0,5.4E1,2.4E1],"tree_param":{"num_deleted":"0","num_feature":"4","num_nodes":"31","size_leaf_vector":"1"}},{"base_weights":[-1.4401073E1,6.2328857E3,-9.857216E3,7.7051263E2,1.148389E4,-1.297679E4,8.440592E3,9.184118E3,-1.2638636E4,1.2975685E4,-3.7335554E3,-1.522002E4,1.397619E4,1.1635722E4,-1.3793809E4,9.7113763E2,-4.0754216E3,-1.2209148E3,-4.8040825E3,1.0177343E3,1.6884879E3,-1.5424874E3,1.1099927E3,-1.0364435E3,-2.7812905E3,4.755042E2,1.8181533E3,1.0465598E3,3.172831E3,-2.055076E3,1.4239255E3],"categories":[],"categories_nodes":[],"categories_segments":[],"categories_sizes":[],"default_left":[0,0,0,0,0,0,0,0,0,0,0,0,0,0,0,0,0,0,0,0,0,0,0,0,0,0,0,0,0,0,0],"id":8,"left_children":[1,3,5,7,9,11,13,15,17,19,21,23,25,27,29,-1,-1,-1,-1,-1,-1,-1,-1,-1,-1,-1,-1,-1,-1,-1,-1],"loss_changes":[2.809518E11,8.015997E10,1.01371855E11,1.5479131E11,3.2397804E10,9.187272E10,1.856033E10,2.2592315E10,7.456817E9,1.4027325E10,2.2369354E10,8.531591E10,4.4505825E9,5.0049004E9,6.543421E9,0E0,0E0,0E0,0E0,0E0,0E0,0E0,0E0,0E0,0E0,0E0,0E0,0E0,0E0,0E0,0E0],"parents":[2147483647,0,0,1,1,2,2,3,3,4,4,5,5,6,6,7,7,8,8,9,9,10,10,11,11,12,12,13,13,14,14],"right_children":[2,4,6,8,10,12,14,16,18,20,22,24,26,28,30,-1,-1,-1,-1,-1,-1,-1,-1,-1,-1,-1,-1,-1,-1,-1,-1],"split_conditions":[1E0,2E0,3E0,1E0,1E0,3E0,1E0,3E0,3E0,3E0,3E0,2E0,2E0,3E0,4E0,9.7113763E2,-4.0754216E3,-1.2209148E3,-4.8040825E3,1.0177343E3,1.6884879E3,-1.5424874E3,1.1099927E3,-1.0364435E3,-2.7812905E3,4.755042E2,1.8181533E3,1.0465598E3,3.172831E3,-2.055076E3,1.4239255E3],"split_indices":[0,1,1,1,3,0,2,2,2,1,1,0,1,0,1,0,0,0,0,0,0,0,0,0,0,0,0,0,0,0,0],"split_type":[0,0,0,0,0,0,0,0,0,0,0,0,0,0,0,0,0,0,0,0,0,0,0,0,0,0,0,0,0,0,0],"sum_hessian":[4.567E3,2.794E3,1.773E3,1.37E3,1.424E3,1.515E3,2.58E2,8.42E2,5.28E2,1.297E3,1.27E2,1.399E3,1.16E2,2.26E2,3.2E1,8.34E2,8E0,5.23E2,5E0,7.58E2,5.39E2,7.1E1,5.6E1,1.011E3,3.88E2,3.7E1,7.9E1,2.15E2,1.1E1,2.6E1,6E0],"tree_param":{"num_deleted":"0","num_feature":"4","num_nodes":"31","size_leaf_vector":"1"}},{"base_weights":[-1.4010296E1,5.6071455E3,-8.870333E3,6.868033E2,1.0337098E4,-5.9813438E3,-2.6457684E4,8.2620205E3,-1.1386155E4,1.1680202E4,-3.3635835E3,-8.855231E3,1.0490735E4,-2.1900324E4,-3.9360312E4,8.7413983E2,-3.7131619E3,-1.0990557E3,-4.4037417E3,9.160949E2,1.5199521E3,-1.8758456E3,6.10782E2,-1.0795912E3,1.28652E3,9.423881E2,2.8819885E3,-2.780631E3,-9.2452356E2,-4.8453145E3,8.8554443E2],"categories":[],"categories_nodes":[],"categories_segments":[],"categories_sizes":[],"default_left":[0,0,0,0,0,0,0,0,0,0,0,0,0,0,0,0,0,0,0,0,0,0,0,0,0,0,0,0,0,0,0],"id":9,"left_children":[1,3,5,7,9,11,13,15,17,19,21,23,25,27,29,-1,-1,-1,-1,-1,-1,-1,-1,-1,-1,-1,-1,-1,-1,-1,-1],"loss_changes":[2.2745742E11,6.5040867E10,8.997808E10,1.25479264E11,2.6261357E10,7.228474E10,1.3838451E10,1.8668868E10,6.3489925E9,1.136889E10,1.8778386E10,5.4894854E10,4.1672868E9,1.3719454E10,2.848782E10,0E0,0E0,0E0,0E0,0E0,0E0,0E0,0E0,0E0,0E0,0E0,0E0,0E0,0E0,0E0,0E0],"parents":[2147483647,0,0,1,1,2,2,3,3,4,4,5,5,6,6,7,7,8,8,9,9,10,10,11,11,12,12,13,13,14,14],"right_children":[2,4,6,8,10,12,14,16,18,20,22,24,26,28,30,-1,-1,-1,-1,-1,-1,-1,-1,-1,-1,-1,-1,-1,-1,-1,-1],"split_conditions":[1E0,2E0,1E0,1E0,1E0,3E0,2E0,3E0,3E0,3E0,2E0,3E0,3E0,2E0,3E0,8.7413983E2,-3.7131619E3,-1.0990557E3,-4.4037417E3,9.160949E2,1.5199521E3,-1.8758456E3,6.10782E2,-1.0795912E3,1.28652E3,9.423881E2,2.8819885E3,-2.780631E3,-9.2452356E2,-4.8453145E3,8.8554443E2],"split_indices":[0,1,2,1,3,1,0,2,2,1,2,0,0,2,0,0,0,0,0,0,0,0,0,0,0,0,0,0,0,0,0],"split_type":[0,0,0,0,0,0,0,0,0,0,0,0,0,0,0,0,0,0,0,0,0,0,0,0,0,0,0,0,0,0,0],"sum_hessian":[4.567E3,2.794E3,1.773E3,1.37E3,1.424E3,1.524E3,2.49E2,8.42E2,5.28E2,1.297E3,1.27E2,1.298E3,2.26E2,1.86E2,6.3E1,8.34E2,8E0,5.23E2,5E0,7.58E2,5.39E2,4.8E1,7.9E1,1.192E3,1.06E2,2.15E2,1.1E1,1.26E2,6E1,5.3E1,1E1],"tree_param":{"num_deleted":"0","num_feature":"4","num_nodes":"31","size_leaf_vector":"1"}},{"base_weights":[-1.4973173E1,5.043866E3,-7.9853457E3,6.1204047E2,9.30421E3,-5.380564E3,-2.3842574E4,7.43245E3,-1.0257936E4,1.0514059E4,-3.037109E3,-1.0936145E4,1.7822904E3,-2.1346678E4,-4.4524645E4,7.845129E2,-3.662157E3,-9.893592E2,-4.0367634E3,8.2460626E2,1.3682384E3,-1.3297335E3,9.97646E2,-4.8444057E1,-1.9708271E3,-4.5565563E1,1.7110999E3,-2.8176257E3,-2.3283651E1,-4.8716953E3,-9.287707E2],"categories":[],"categories_nodes":[],"categories_segments":[],"categories_sizes":[],"default_left":[0,0,0,0,0,0,0,0,0,0,0,0,0,0,0,0,0,0,0,0,0,0,0,0,0,0,0,0,0,0,0],"id":10,"left_children":[1,3,5,7,9,11,13,15,17,19,21,23,25,27,29,-1,-1,-1,-1,-1,-1,-1,-1,-1,-1,-1,-1,-1,-1,-1,-1],"loss_changes":[1.8422584E11,5.2766982E10,7.314611E10,1.0171901E11,2.13088E10,6.0705055E10,1.1954618E10,1.561319E10,5.403902E9,9.21428E9,1.7223496E10,7.8746714E10,2.2889112E10,3.2438133E10,3.3883628E9,0E0,0E0,0E0,0E0,0E0,0E0,0E0,0E0,0E0,0E0,0E0,0E0,0E0,0E0,0E0,0E0],"parents":[2147483647,0,0,1,1,2,2,3,3,4,4,5,5,6,6,7,7,8,8,9,9,10,10,11,11,12,12,13,13,14,14],"right_children":[2,4,6,8,10,12,14,16,18,20,22,24,26,28,30,-1,-1,-1,-1,-1,-1,-1,-1,-1,-1,-1,-1,-1,-1,-1,-1],"split_conditions":[1E0,2E0,1E0,1E0,1E0,2E0,3E0,3E0,3E0,3E0,3E0,1E0,3E0,2E0,3E0,7.845129E2,-3.662157E3,-9.893592E2,-4.0367634E3,8.2460626E2,1.3682384E3,-1.3297335E3,9.97646E2,-4.8444057E1,-1.9708271E3,-4.5565563E1,1.7110999E3,-2.8176257E3,-2.3283651E1,-4.8716953E3,-9.287707E2],"split_indices":[0,1,2,1,3,1,2,3,2,1,1,1,0,2,1,0,0,0,0,0,0,0,0,0,0,0,0,0,0,0,0],"split_type":[0,0,0,0,0,0,0,0,0,0,0,0,0,0,0,0,0,0,0,0,0,0,0,0,0,0,0,0,0,0,0],"sum_hessian":[4.567E3,2.794E3,1.773E3,1.37E3,1.424E3,1.524E3,2.49E2,8.42E2,5.28E2,1.297E3,1.27E2,8.58E2,6.66E2,2.24E2,2.5E1,8.35E2,7E0,5.23E2,5E0,7.58E2,5.39E2,7.1E1,5.6E1,3.92E2,4.66E2,5.82E2,8.4E1,1.69E2,5.5E1,2.2E1,3E0],"tree_param":{"num_deleted":"0","num_feature":"4","num_nodes":"31","size_leaf_vector":"1"}},{"base_weights":[-1.6769033E1,4.537317E3,-7.191884E3,5.450699E2,8.375095E3,-9.661548E3,7.291526E3,6.6857886E3,-9.241643E3,9.464343E3,-2.7359895E3,-1.1362683E4,1.0776483E4,9.418744E3,-7.562115E3,7.061552E2,-3.3417185E3,-8.1935443E2,-1.812538E3,7.42254E2,1.2316683E3,-1.6235764E3,5.5668225E2,-7.256613E2,-2.2015583E3,4.2296786E2,1.3751509E3,1.1902786E3,1.4340582E2,-1.3593866E3,1.6783506E3],"categories":[],"categories_nodes":[],"categories_segments":[],"categories_sizes":[],"default_left":[0,0,0,0,0,0,0,0,0,0,0,0,0,0,0,0,0,0,0,0,0,0,0,0,0,0,0,0,0,0,0],"id":11,"left_children":[1,3,5,7,9,11,13,15,17,19,21,23,25,27,29,-1,-1,-1,-1,-1,-1,-1,-1,-1,-1,-1,-1,-1,-1,-1,-1],"loss_changes":[1.49297E11,4.281862E10,6.352493E10,8.24554E10,1.7272275E10,5.2830487E10,8.2548326E9,1.2939325E10,4.7770255E9,7.468024E9,1.44374E10,6.107842E10,2.2206351E9,4.4853125E9,5.0740936E9,0E0,0E0,0E0,0E0,0E0,0E0,0E0,0E0,0E0,0E0,0E0,0E0,0E0,0E0,0E0,0E0],"parents":[2147483647,0,0,1,1,2,2,3,3,4,4,5,5,6,6,7,7,8,8,9,9,10,10,11,11,12,12,13,13,14,14],"right_children":[2,4,6,8,10,12,14,16,18,20,22,24,26,28,30,-1,-1,-1,-1,-1,-1,-1,-1,-1,-1,-1,-1,-1,-1,-1,-1],"split_conditions":[1E0,2E0,3E0,1E0,1E0,3E0,1E0,3E0,1E0,3E0,2E0,2E0,2E0,2E0,4E0,7.061552E2,-3.3417185E3,-8.1935443E2,-1.812538E3,7.42254E2,1.2316683E3,-1.6235764E3,5.5668225E2,-7.256613E2,-2.2015583E3,4.2296786E2,1.3751509E3,1.1902786E3,1.4340582E2,-1.3593866E3,1.6783506E3],"split_indices":[0,1,1,1,3,0,2,3,2,1,2,0,1,0,1,0,0,0,0,0,0,0,0,0,0,0,0,0,0,0,0],"split_type":[0,0,0,0,0,0,0,0,0,0,0,0,0,0,0,0,0,0,0,0,0,0,0,0,0,0,0,0,0,0,0],"sum_hessian":[4.567E3,2.794E3,1.773E3,1.37E3,1.424E3,1.515E3,2.58E2,8.42E2,5.28E2,1.297E3,1.27E2,1.399E3,1.16E2,2.26E2,3.2E1,8.35E2,7E0,4.74E2,5.4E1,7.58E2,5.39E2,4.8E1,7.9E1,1.011E3,3.88E2,3.7E1,7.9E1,1.72E2,5.4E1,2.6E1,6E0],"tree_param":{"num_deleted":"0","num_feature":"4","num_nodes":"31","size_leaf_vector":"1"}},{"base_weights":[-1.5932576E1,4.082026E3,-6.472403E3,2.2328025E3,1.0901169E4,-4.159824E3,-2.0553242E4,3.5456917E3,-1.0357682E4,1.2335409E4,5.716001E3,-6.365908E3,8.482743E3,-2.1839848E4,9.386658E3,7.226069E2,1.27131004E2,-2.5280078E3,1.0152023E2,1.2478748E3,1.0276683E3,6.9282263E2,-1.148618E3,-7.797672E2,9.657085E2,1.0719384E3,1.2932594E2,-1.6743876E3,-3.9082576E3,3.9448894E3,-1.6770494E2],"categories":[],"categories_nodes":[],"categories_segments":[],"categories_sizes":[],"default_left":[0,0,0,0,0,0,0,0,0,0,0,0,0,0,0,0,0,0,0,0,0,0,0,0,0,0,0,0,0,0,0],"id":12,"left_children":[1,3,5,7,9,11,13,15,17,19,21,23,25,27,29,-1,-1,-1,-1,-1,-1,-1,-1,-1,-1,-1,-1,-1,-1,-1,-1],"loss_changes":[1.2088815E11,3.522094E10,5.768134E10,3.6402524E10,4.361814E9,4.2587107E10,9.835225E9,1.6673382E10,3.5325485E10,9.273344E6,2.8113098E9,2.9875843E10,3.6363643E9,2.0434043E10,3.7247552E9,0E0,0E0,0E0,0E0,0E0,0E0,0E0,0E0,0E0,0E0,0E0,0E0,0E0,0E0,0E0,0E0],"parents":[2147483647,0,0,1,1,2,2,3,3,4,4,5,5,6,6,7,7,8,8,9,9,10,10,11,11,12,12,13,13,14,14],"right_children":[2,4,6,8,10,12,14,16,18,20,22,24,26,28,30,-1,-1,-1,-1,-1,-1,-1,-1,-1,-1,-1,-1,-1,-1,-1,-1],"split_conditions":[1E0,3E0,1E0,1E0,4E0,3E0,3E0,1E0,2E0,2E0,1E0,3E0,2E0,2E0,1E0,7.226069E2,1.27131004E2,-2.5280078E3,1.0152023E2,1.2478748E3,1.0276683E3,6.9282263E2,-1.148618E3,-7.797672E2,9.657085E2,1.0719384E3,1.2932594E2,-1.6743876E3,-3.9082576E3,3.9448894E3,-1.6770494E2],"split_indices":[0,1,2,3,1,1,0,1,3,2,2,0,0,0,1,0,0,0,0,0,0,0,0,0,0,0,0,0,0,0,0],"split_type":[0,0,0,0,0,0,0,0,0,0,0,0,0,0,0,0,0,0,0,0,0,0,0,0,0,0,0,0,0,0,0],"sum_hessian":[4.567E3,2.794E3,1.773E3,2.199E3,5.95E2,1.524E3,2.49E2,1.992E3,2.07E2,4.65E2,1.3E2,1.298E3,2.26E2,2.39E2,1E1,7.6E2,1.232E3,8.9E1,1.18E2,4.3E2,3.5E1,1.22E2,8E0,1.192E3,1.06E2,1.72E2,5.4E1,1.86E2,5.3E1,2E0,8E0],"tree_param":{"num_deleted":"0","num_feature":"4","num_nodes":"31","size_leaf_vector":"1"}},{"base_weights":[-1.437676E1,3.673912E3,-5.825399E3,1.3569916E2,7.0754673E3,-3.742933E3,-1.8505137E4,5.443203E3,-8.322451E3,7.979176E3,-2.1439797E3,-7.945536E3,1.675026E3,-1.6295911E4,-3.6911695E4,5.781431E2,-3.0582012E3,-7.994485E2,-3.5577817E3,6.55431E2,9.967127E2,-1.029704E3,8.192236E2,1.1994037E2,-1.5624371E3,-3.3581288E0,1.3374355E3,-2.2394937E3,2.5099783E2,-4.834994E3,-2.3653918E3],"categories":[],"categories_nodes":[],"categories_segments":[],"categories_sizes":[],"default_left":[0,0,0,0,0,0,0,0,0,0,0,0,0,0,0,0,0,0,0,0,0,0,0,0,0,0,0,0,0,0,0],"id":13,"left_children":[1,3,5,7,9,11,13,15,17,19,21,23,25,27,29,-1,-1,-1,-1,-1,-1,-1,-1,-1,-1,-1,-1,-1,-1,-1,-1],"loss_changes":[9.792611E10,3.363806E10,4.677341E10,6.1591777E10,1.188977E10,3.473684E10,9.564553E9,1.044854E10,4.4442296E9,3.6113367E9,1.0871142E10,6.0339843E10,1.3333486E10,2.5863156E10,2.7991245E9,0E0,0E0,0E0,0E0,0E0,0E0,0E0,0E0,0E0,0E0,0E0,0E0,0E0,0E0,0E0,0E0],"parents":[2147483647,0,0,1,1,2,2,3,3,4,4,5,5,6,6,7,7,8,8,9,9,10,10,11,11,12,12,13,13,14,14],"right_children":[2,4,6,8,10,12,14,16,18,20,22,24,26,28,30,-1,-1,-1,-1,-1,-1,-1,-1,-1,-1,-1,-1,-1,-1,-1,-1],"split_conditions":[1E0,2E0,1E0,1E0,1E0,2E0,3E0,3E0,3E0,3E0,3E0,1E0,3E0,2E0,2E0,5.781431E2,-3.0582012E3,-7.994485E2,-3.5577817E3,6.55431E2,9.967127E2,-1.029704E3,8.192236E2,1.1994037E2,-1.5624371E3,-3.3581288E0,1.3374355E3,-2.2394937E3,2.5099783E2,-4.834994E3,-2.3653918E3],"split_indices":[0,1,2,1,3,1,2,3,2,1,1,1,0,2,1,0,0,0,0,0,0,0,0,0,0,0,0,0,0,0,0],"split_type":[0,0,0,0,0,0,0,0,0,0,0,0,0,0,0,0,0,0,0,0,0,0,0,0,0,0,0,0,0,0,0],"sum_hessian":[4.567E3,2.794E3,1.773E3,1.37E3,1.424E3,1.524E3,2.49E2,8.42E2,5.28E2,1.297E3,1.27E2,8.58E2,6.66E2,2.24E2,2.5E1,8.35E2,7E0,5.23E2,5E0,7.58E2,5.39E2,7.1E1,5.6E1,3.92E2,4.66E2,5.82E2,8.4E1,1.69E2,5.5E1,1.2E1,1.3E1],"tree_param":{"num_deleted":"0","num_feature":"4","num_nodes":"31","size_leaf_vector":"1"}},{"base_weights":[-1.6156063E1,3.304589E3,-5.2480986E3,1.17145195E2,6.368927E3,-7.211517E3,6.264606E3,4.8959434E3,-7.4984395E3,6.5412495E3,-3.54757E4,-5.279075E3,-1.869331E4,8.794345E3,-2.0908489E3,5.223445E2,-2.6032908E3,-7.196558E2,-3.2612998E3,7.182525E2,-2.7920752E1,-4.698986E3,1.1047539E3,1.0797715E2,-8.028521E2,-2.0141283E3,1.0385905E3,9.6569824E2,2.941361E2,-1.0396058E3,1.8326934E3],"categories":[],"categories_nodes":[],"categories_segments":[],"categories_sizes":[],"default_left":[0,0,0,0,0,0,0,0,0,0,0,0,0,0,0,0,0,0,0,0,0,0,0,0,0,0,0,0,0,0,0],"id":14,"left_children":[1,3,5,7,9,11,13,15,17,19,21,23,25,27,29,-1,-1,-1,-1,-1,-1,-1,-1,-1,-1,-1,-1,-1,-1,-1,-1],"loss_changes":[7.938154E10,2.7299146E10,4.014513E10,4.993199E10,1.050744E10,3.353818E10,5.492902E9,8.674933E9,3.7759713E9,6.212788E9,3.7331773E9,2.2719488E10,9.38827E9,9.7634714E8,1.053454E10,0E0,0E0,0E0,0E0,0E0,0E0,0E0,0E0,0E0,0E0,0E0,0E0,0E0,0E0,0E0,0E0],"parents":[2147483647,0,0,1,1,2,2,3,3,4,4,5,5,6,6,7,7,8,8,9,9,10,10,11,11,12,12,13,13,14,14],"right_children":[2,4,6,8,10,12,14,16,18,20,22,24,26,28,30,-1,-1,-1,-1,-1,-1,-1,-1,-1,-1,-1,-1,-1,-1,-1,-1],"split_conditions":[1E0,2E0,3E0,1E0,3E0,1E0,2E0,3E0,3E0,1E0,3E0,1E0,3E0,1E0,4E0,5.223445E2,-2.6032908E3,-7.196558E2,-3.2612998E3,7.182525E2,-2.7920752E1,-4.698986E3,1.1047539E3,1.0797715E2,-8.028521E2,-2.0141283E3,1.0385905E3,9.6569824E2,2.941361E2,-1.0396058E3,1.8326934E3],"split_indices":[0,1,1,1,3,2,0,2,2,3,1,1,0,2,1,0,0,0,0,0,0,0,0,0,0,0,0,0,0,0,0],"split_type":[0,0,0,0,0,0,0,0,0,0,0,0,0,0,0,0,0,0,0,0,0,0,0,0,0,0,0,0,0,0,0],"sum_hessian":[4.567E3,2.794E3,1.773E3,1.37E3,1.424E3,1.515E3,2.58E2,8.42E2,5.28E2,1.419E3,5E0,1.298E3,2.17E2,1.98E2,6E1,8.34E2,8E0,5.23E2,5E0,1.297E3,1.22E2,4E0,1E0,3.92E2,9.06E2,2.07E2,1E1,1.72E2,2.6E1,4.3E1,1.7E1],"tree_param":{"num_deleted":"0","num_feature":"4","num_nodes":"31","size_leaf_vector":"1"}},{"base_weights":[-1.641823E1,2.9709238E3,-4.7230728E3,3.1977295E3,-3.2197787E4,-6.4914663E3,5.6460693E3,3.8475464E2,5.8876133E3,-3.5326501E3,1.0495165E3,-7.7648647E3,8.801267E3,7.9212373E3,-1.8687585E3,4.686002E2,-6.478275E2,4.23972E2,8.165382E2,-4.3105698E2,-1.67314E3,1.7930485E3,6.848352E2,8.6968616E2,2.6581207E2,-8.0606573E2,2.408655E3],"categories":[],"categories_nodes":[],"categories_segments":[],"categories_sizes":[],"default_left":[0,0,0,0,0,0,0,0,0,0,0,0,0,0,0,0,0,0,0,0,0,0,0,0,0,0,0],"id":15,"left_children":[1,3,5,7,9,11,13,15,17,-1,-1,19,21,23,25,-1,-1,-1,-1,-1,-1,-1,-1,-1,-1,-1,-1],"loss_changes":[6.4241873E10,2.2397168E10,3.2565998E10,2.1017678E10,2.7750892E9,2.959054E10,4.4430556E9,4.014748E10,5.2953784E9,0E0,0E0,4.3290157E10,1.9631493E9,7.892398E8,9.997624E9,0E0,0E0,0E0,0E0,0E0,0E0,0E0,0E0,0E0,0E0,0E0,0E0],"parents":[2147483647,0,0,1,1,2,2,3,3,4,4,5,5,6,6,7,7,8,8,11,11,12,12,13,13,14,14],"right_children":[2,4,6,8,10,12,14,16,18,-1,-1,20,22,24,26,-1,-1,-1,-1,-1,-1,-1,-1,-1,-1,-1,-1],"split_conditions":[1E0,3E0,3E0,2E0,3E0,3E0,2E0,1E0,3E0,-3.5326501E3,1.0495165E3,2E0,1E0,1E0,3E0,4.686002E2,-6.478275E2,4.23972E2,8.165382E2,-4.3105698E2,-1.67314E3,1.7930485E3,6.848352E2,8.6968616E2,2.6581207E2,-8.0606573E2,2.408655E3],"split_indices":[0,3,1,1,1,0,0,1,1,0,0,0,1,2,0,0,0,0,0,0,0,0,0,0,0,0,0],"split_type":[0,0,0,0,0,0,0,0,0,0,0,0,0,0,0,0,0,0,0,0,0,0,0,0,0,0,0],"sum_hessian":[4.567E3,2.794E3,1.773E3,2.777E3,1.7E1,1.515E3,2.58E2,1.358E3,1.419E3,1.6E1,1E0,1.399E3,1.16E2,1.98E2,6E1,8.35E2,5.23E2,8.25E2,5.94E2,1.011E3,3.88E2,1.9E1,9.7E1,1.72E2,2.6E1,4.9E1,1.1E1],"tree_param":{"num_deleted":"0","num_feature":"4","num_nodes":"27","size_leaf_vector":"1"}},{"base_weights":[-1.4404152E1,1.2109336E3,-9.681194E3,-1.8686417E3,4.4938374E3,-1.7983504E4,-4.2051004E2,3.7781843E3,-8.785668E3,2.8219834E3,7.102698E3,-2.1053545E4,1.3947347E3,5.832748E3,-3.063458E4,4.6522012E2,-6.984509E2,-5.340391E2,-1.2271151E3,4.7170465E2,-4.416895E1,6.858442E2,2.1878613E3,-1.326269E3,-2.429804E3,7.7168304E2,-4.1874463E3,2.325641E1,1.1375748E3,-3.3861746E3,1.8792187E0],"categories":[],"categories_nodes":[],"categories_segments":[],"categories_sizes":[],"default_left":[0,0,0,0,0,0,0,0,0,0,0,0,0,0,0,0,0,0,0,0,0,0,0,0,0,0,0,0,0,0,0],"id":16,"left_children":[1,3,5,7,9,11,13,15,17,19,21,23,25,27,29,-1,-1,-1,-1,-1,-1,-1,-1,-1,-1,-1,-1,-1,-1,-1,-1],"loss_changes":[5.4120067E10,4.1004245E10,3.951136E10,8.1784185E10,8.5418435E9,1.6151699E10,4.627916E10,1.087851E10,1.1234427E10,7.411552E9,2.614526E9,5.592654E9,1.0718114E10,6.2988436E9,4.1554207E9,0E0,0E0,0E0,0E0,0E0,0E0,0E0,0E0,0E0,0E0,0E0,0E0,0E0,0E0,0E0,0E0],"parents":[2147483647,0,0,1,1,2,2,3,3,4,4,5,5,6,6,7,7,8,8,9,9,10,10,11,11,12,12,13,13,14,14],"right_children":[2,4,6,8,10,12,14,16,18,20,22,24,26,28,30,-1,-1,-1,-1,-1,-1,-1,-1,-1,-1,-1,-1,-1,-1,-1,-1],"split_conditions":[1E0,2E0,2E0,1E0,3E0,3E0,3E0,2E0,1E0,1E0,3E0,1E0,2E0,2E0,3E0,4.6522012E2,-6.984509E2,-5.340391E2,-1.2271151E3,4.7170465E2,-4.416895E1,6.858442E2,2.1878613E3,-1.326269E3,-2.429804E3,7.7168304E2,-4.1874463E3,2.325641E1,1.1375748E3,-3.3861746E3,1.8792187E0],"split_indices":[2,1,2,1,1,1,3,0,0,0,0,1,0,1,1,0,0,0,0,0,0,0,0,0,0,0,0,0,0,0,0],"split_type":[0,0,0,0,0,0,0,0,0,0,0,0,0,0,0,0,0,0,0,0,0,0,0,0,0,0,0,0,0,0,0],"sum_hessian":[4.567E3,4.054E3,5.13E2,2.092E3,1.962E3,2.7E2,2.43E2,1.152E3,9.4E2,1.197E3,7.65E2,2.33E2,3.7E1,2.02E2,4.1E1,1.066E3,8.6E1,4.74E2,4.66E2,7.57E2,4.4E2,7.54E2,1.1E1,7E1,1.63E2,3.3E1,4E0,1.01E2,1.01E2,3.7E1,4E0],"tree_param":{"num_deleted":"0","num_feature":"4","num_nodes":"31","size_leaf_vector":"1"}},{"base_weights":[-1.4732509E1,1.0901648E3,-8.7313545E3,-1.6827274E3,4.0461367E3,-1.6211618E4,-3.8757254E2,3.400165E3,-7.908968E3,2.540144E3,6.39618E3,-1.8964242E4,1.1653723E3,5.255191E3,-2.7651703E4,4.1874185E2,-6.2940845E2,-4.8074683E2,-1.1046663E3,4.245966E2,-3.976178E1,6.861104E2,2.612378E1,-1.1955105E3,-2.1883052E3,6.9678436E2,-3.8524504E3,2.0953785E1,1.0249324E3,-3.0564683E3,1.7287501E0],"categories":[],"categories_nodes":[],"categories_segments":[],"categories_sizes":[],"default_left":[0,0,0,0,0,0,0,0,0,0,0,0,0,0,0,0,0,0,0,0,0,0,0,0,0,0,0,0,0,0,0],"id":17,"left_children":[1,3,5,7,9,11,13,15,17,19,21,23,25,27,29,-1,-1,-1,-1,-1,-1,-1,-1,-1,-1,-1,-1,-1,-1,-1,-1],"loss_changes":[4.4003803E10,3.3243988E10,3.2074346E10,6.626471E10,6.9311017E9,1.2984664E10,3.7683503E10,8.82586E9,9.104286E9,6.005223E9,2.1830533E9,4.5256376E9,9.019809E9,5.1131786E9,3.3856963E9,0E0,0E0,0E0,0E0,0E0,0E0,0E0,0E0,0E0,0E0,0E0,0E0,0E0,0E0,0E0,0E0],"parents":[2147483647,0,0,1,1,2,2,3,3,4,4,5,5,6,6,7,7,8,8,9,9,10,10,11,11,12,12,13,13,14,14],"right_children":[2,4,6,8,10,12,14,16,18,20,22,24,26,28,30,-1,-1,-1,-1,-1,-1,-1,-1,-1,-1,-1,-1,-1,-1,-1,-1],"split_conditions":[1E0,2E0,2E0,1E0,3E0,3E0,3E0,2E0,1E0,1E0,2E0,1E0,2E0,2E0,3E0,4.1874185E2,-6.2940845E2,-4.8074683E2,-1.1046663E3,4.245966E2,-3.976178E1,6.861104E2,2.612378E1,-1.1955105E3,-2.1883052E3,6.9678436E2,-3.8524504E3,2.0953785E1,1.0249324E3,-3.0564683E3,1.7287501E0],"split_indices":[2,1,2,1,1,1,3,0,0,0,0,1,0,1,1,0,0,0,0,0,0,0,0,0,0,0,0,0,0,0,0],"split_type":[0,0,0,0,0,0,0,0,0,0,0,0,0,0,0,0,0,0,0,0,0,0,0,0,0,0,0,0,0,0,0],"sum_hessian":[4.567E3,4.054E3,5.13E2,2.092E3,1.962E3,2.7E2,2.43E2,1.152E3,9.4E2,1.197E3,7.65E2,2.33E2,3.7E1,2.02E2,4.1E1,1.066E3,8.6E1,4.74E2,4.66E2,7.57E2,4.4E2,7.11E2,5.4E1,7E1,1.63E2,3.3E1,4E0,1.01E2,1.01E2,3.7E1,4E0],"tree_param":{"num_deleted":"0","num_feature":"4","num_nodes":"31","size_leaf_vector":"1"}},{"base_weights":[-1.5281399E1,9.8097845E2,-7.8748506E3,-1.5153099E3,3.6420842E3,-1.4520145E4,-2.2763925E2,3.0599705E3,-7.1197554E3,3.2728076E3,1.1762422E4,-1.693168E4,9.657942E2,4.9932446E3,-2.4959264E4,3.7690744E2,-5.671913E2,-4.3277304E2,-9.9443634E2,3.991894E2,-1.1065382E3,1.0292113E3,1.9849127E3,-1.0705431E3,-1.9567733E3,6.291556E2,-3.5442544E3,6.0681995E2,-1.5930221E3,-2.7588647E3,1.5904688E0],"categories":[],"categories_nodes":[],"categories_segments":[],"categories_sizes":[],"default_left":[0,0,0,0,0,0,0,0,0,0,0,0,0,0,0,0,0,0,0,0,0,0,0,0,0,0,0,0,0,0,0],"id":18,"left_children":[1,3,5,7,9,11,13,15,17,19,21,23,25,27,29,-1,-1,-1,-1,-1,-1,-1,-1,-1,-1,-1,-1,-1,-1,-1,-1],"loss_changes":[3.577596E10,2.6942427E10,2.6117128E10,5.3690302E10,5.847855E9,1.0286199E10,3.1113652E10,7.160536E9,7.378039E9,1.9417401E10,8.06358E8,3.6967465E9,7.591269E9,4.5725317E9,2.7585495E9,0E0,0E0,0E0,0E0,0E0,0E0,0E0,0E0,0E0,0E0,0E0,0E0,0E0,0E0,0E0,0E0],"parents":[2147483647,0,0,1,1,2,2,3,3,4,4,5,5,6,6,7,7,8,8,9,9,10,10,11,11,12,12,13,13,14,14],"right_children":[2,4,6,8,10,12,14,16,18,20,22,24,26,28,30,-1,-1,-1,-1,-1,-1,-1,-1,-1,-1,-1,-1,-1,-1,-1,-1],"split_conditions":[1E0,2E0,2E0,1E0,3E0,3E0,3E0,2E0,1E0,2E0,3E0,1E0,2E0,4E0,3E0,3.7690744E2,-5.671913E2,-4.3277304E2,-9.9443634E2,3.991894E2,-1.1065382E3,1.0292113E3,1.9849127E3,-1.0705431E3,-1.9567733E3,6.291556E2,-3.5442544E3,6.0681995E2,-1.5930221E3,-2.7588647E3,1.5904688E0],"split_indices":[2,1,3,1,0,1,2,0,0,0,1,1,0,1,1,0,0,0,0,0,0,0,0,0,0,0,0,0,0,0,0],"split_type":[0,0,0,0,0,0,0,0,0,0,0,0,0,0,0,0,0,0,0,0,0,0,0,0,0,0,0,0,0,0,0],"sum_hessian":[4.567E3,4.054E3,5.13E2,2.092E3,1.962E3,2.74E2,2.39E2,1.152E3,9.4E2,1.878E3,8.4E1,2.37E2,3.7E1,1.98E2,4.1E1,1.066E3,8.6E1,4.74E2,4.66E2,1.789E3,8.9E1,7.3E1,1.1E1,7.2E1,1.65E2,3.3E1,4E0,1.89E2,9E0,3.7E1,4E0],"tree_param":{"num_deleted":"0","num_feature":"4","num_nodes":"31","size_leaf_vector":"1"}},{"base_weights":[-1.5723443E1,2.0197711E3,-3.2227085E3,2.6235771E3,-3.7789287E3,-4.203305E3,9.419992E3,7.680659E2,4.387008E3,-1.3020922E4,2.12048E3,-1.6183442E3,-1.1334812E4,1.8197111E4,7.72309E3,3.67819E2,-3.8958762E2,3.4666806E2,5.672455E2,-1.68904E3,1.2784359E3,4.9681802E2,-2.0937134E3,-2.9916135E2,5.373449E2,-1.2577142E3,1.835163E3,1.3749167E3,3.881908E3,-8.4283514E2,1.10105E3],"categories":[],"categories_nodes":[],"categories_segments":[],"categories_sizes":[],"default_left":[0,0,0,0,0,0,0,0,0,0,0,0,0,0,0,0,0,0,0,0,0,0,0,0,0,0,0,0,0,0,0],"id":19,"left_children":[1,3,5,7,9,11,13,15,17,19,21,23,25,27,29,-1,-1,-1,-1,-1,-1,-1,-1,-1,-1,-1,-1,-1,-1,-1,-1],"loss_changes":[2.9825503E10,9.796018E9,2.203257E10,8.2814996E9,1.4421496E10,3.034355E10,1.7658839E9,1.677655E10,1.5159112E9,1.0500788E10,1.0741129E10,1.1634031E10,1.6384414E10,1.300777E9,5.880308E9,0E0,0E0,0E0,0E0,0E0,0E0,0E0,0E0,0E0,0E0,0E0,0E0,0E0,0E0,0E0,0E0],"parents":[2147483647,0,0,1,1,2,2,3,3,4,4,5,5,6,6,7,7,8,8,9,9,10,10,11,11,12,12,13,13,14,14],"right_children":[2,4,6,8,10,12,14,16,18,20,22,24,26,28,30,-1,-1,-1,-1,-1,-1,-1,-1,-1,-1,-1,-1,-1,-1,-1,-1],"split_conditions":[1E0,1E0,3E0,2E0,2E0,2E0,1E0,1E0,3E0,3E0,3E0,3E0,4E0,1E0,2E0,3.67819E2,-3.8958762E2,3.4666806E2,5.672455E2,-1.68904E3,1.2784359E3,4.9681802E2,-2.0937134E3,-2.9916135E2,5.373449E2,-1.2577142E3,1.835163E3,1.3749167E3,3.881908E3,-8.4283514E2,1.10105E3],"split_indices":[0,3,0,1,3,0,1,1,1,1,2,1,1,2,1,0,0,0,0,0,0,0,0,0,0,0,0,0,0,0,0],"split_type":[0,0,0,0,0,0,0,0,0,0,0,0,0,0,0,0,0,0,0,0,0,0,0,0,0,0,0,0,0,0,0],"sum_hessian":[4.567E3,2.794E3,1.773E3,2.531E3,2.63E2,1.646E3,1.27E2,1.234E3,1.297E3,1.02E2,1.61E2,1.209E3,4.37E2,1.9E1,1.08E2,7.6E2,4.74E2,7.58E2,5.39E2,8.9E1,1.3E1,1.44E2,1.7E1,1.011E3,1.98E2,4.2E2,1.7E1,1.7E1,2E0,1.8E1,9E1],"tree_param":{"num_deleted":"0","num_feature":"4","num_nodes":"31","size_leaf_vector":"1"}},{"base_weights":[-1.3008735E1,8.411787E2,-6.7517583E3,-1.1615817E3,2.9761438E3,-1.249986E4,-3.3992474E2,2.6457522E3,-5.825444E3,1.7493259E3,4.890963E3,-1.3202675E4,2.7530441E4,4.0280913E3,-2.1443908E4,3.2163284E2,-4.3824127E2,-3.5071027E2,-8.171026E2,3.0770566E2,-5.367721E1,4.6917E2,1.7020338E3,-1.4496361E3,-3.910757E2,4.369501E3,-1.8563915E3,3.4355347E2,4.23867E3,-2.3715764E3,1.1096719E1],"categories":[],"categories_nodes":[],"categories_segments":[],"categories_sizes":[],"default_left":[0,0,0,0,0,0,0,0,0,0,0,0,0,0,0,0,0,0,0,0,0,0,0,0,0,0,0,0,0,0,0],"id":20,"left_children":[1,3,5,7,9,11,13,15,17,19,21,23,25,27,29,-1,-1,-1,-1,-1,-1,-1,-1,-1,-1,-1,-1,-1,-1,-1,-1],"loss_changes":[2.6299798E10,1.734192E10,1.8939664E10,3.7180563E10,4.602796E9,7.987765E9,2.2578917E10,4.6377436E9,5.0883686E9,3.6379681E9,1.7715159E9,3.1528714E9,4.536627E9,4.468498E9,2.059352E9,0E0,0E0,0E0,0E0,0E0,0E0,0E0,0E0,0E0,0E0,0E0,0E0,0E0,0E0,0E0,0E0],"parents":[2147483647,0,0,1,1,2,2,3,3,4,4,5,5,6,6,7,7,8,8,9,9,10,10,11,11,12,12,13,13,14,14],"right_children":[2,4,6,8,10,12,14,16,18,20,22,24,26,28,30,-1,-1,-1,-1,-1,-1,-1,-1,-1,-1,-1,-1,-1,-1,-1,-1],"split_conditions":[1E0,2E0,2E0,1E0,3E0,4E0,3E0,2E0,1E0,1E0,3E0,3E0,2E0,3E0,3E0,3.2163284E2,-4.3824127E2,-3.5071027E2,-8.171026E2,3.0770566E2,-5.367721E1,4.6917E2,1.7020338E3,-1.4496361E3,-3.910757E2,4.369501E3,-1.8563915E3,3.4355347E2,4.23867E3,-2.3715764E3,1.1096719E1],"split_indices":[2,1,2,1,1,1,3,0,0,0,0,1,0,0,1,0,0,0,0,0,0,0,0,0,0,0,0,0,0,0,0],"split_type":[0,0,0,0,0,0,0,0,0,0,0,0,0,0,0,0,0,0,0,0,0,0,0,0,0,0,0,0,0,0,0],"sum_hessian":[4.567E3,4.054E3,5.13E2,2.092E3,1.962E3,2.7E2,2.43E2,1.152E3,9.4E2,1.197E3,7.65E2,2.66E2,4E0,2.02E2,4.1E1,1.066E3,8.6E1,4.74E2,4.66E2,7.57E2,4.4E2,7.54E2,1.1E1,2.33E2,3.3E1,3E0,1E0,2E2,2E0,3.7E1,4E0],"tree_param":{"num_deleted":"0","num_feature":"4","num_nodes":"31","size_leaf_vector":"1"}},{"base_weights":[-1.0826918E1,7.573394E2,-6.070951E3,-1.046043E3,2.6797654E3,-1.1174366E4,-1.9799156E2,2.3810686E3,-5.2441445E3,2.376175E3,9.359372E3,-1.1805723E4,2.528002E4,3.8463425E3,-1.9355719E4,2.894989E2,-3.9492096E2,-3.1571378E2,-7.355674E2,2.970665E2,-9.47397E2,8.2435803E2,1.5460142E3,-1.2938197E3,-3.5311813E2,4.0417883E3,-1.7635719E3,3.2829416E2,3.9560918E3,-2.1406597E3,1.0209219E1],"categories":[],"categories_nodes":[],"categories_segments":[],"categories_sizes":[],"default_left":[0,0,0,0,0,0,0,0,0,0,0,0,0,0,0,0,0,0,0,0,0,0,0,0,0,0,0,0,0,0,0],"id":21,"left_children":[1,3,5,7,9,11,13,15,17,19,21,23,25,27,29,-1,-1,-1,-1,-1,-1,-1,-1,-1,-1,-1,-1,-1,-1,-1,-1],"loss_changes":[2.1269477E10,1.4060958E10,1.5403475E10,3.0125236E10,3.9584584E9,6.6277663E9,1.866971E10,3.7624417E9,4.1235517E9,1.3265306E10,4.5116416E8,2.4937718E9,3.9610614E9,3.8743299E9,1.6782182E9,0E0,0E0,0E0,0E0,0E0,0E0,0E0,0E0,0E0,0E0,0E0,0E0,0E0,0E0,0E0,0E0],"parents":[2147483647,0,0,1,1,2,2,3,3,4,4,5,5,6,6,7,7,8,8,9,9,10,10,11,11,12,12,13,13,14,14],"right_children":[2,4,6,8,10,12,14,16,18,20,22,24,26,28,30,-1,-1,-1,-1,-1,-1,-1,-1,-1,-1,-1,-1,-1,-1,-1,-1],"split_conditions":[1E0,2E0,2E0,1E0,3E0,4E0,3E0,2E0,1E0,2E0,3E0,3E0,2E0,3E0,3E0,2.894989E2,-3.9492096E2,-3.1571378E2,-7.355674E2,2.970665E2,-9.47397E2,8.2435803E2,1.5460142E3,-1.2938197E3,-3.5311813E2,4.0417883E3,-1.7635719E3,3.2829416E2,3.9560918E3,-2.1406597E3,1.0209219E1],"split_indices":[2,1,3,1,0,1,2,0,0,0,1,1,0,0,1,0,0,0,0,0,0,0,0,0,0,0,0,0,0,0,0],"split_type":[0,0,0,0,0,0,0,0,0,0,0,0,0,0,0,0,0,0,0,0,0,0,0,0,0,0,0,0,0,0,0],"sum_hessian":[4.567E3,4.054E3,5.13E2,2.092E3,1.962E3,2.74E2,2.39E2,1.152E3,9.4E2,1.878E3,8.4E1,2.7E2,4E0,1.98E2,4.1E1,1.066E3,8.6E1,4.74E2,4.66E2,1.789E3,8.9E1,7.3E1,1.1E1,2.37E2,3.3E1,3E0,1E0,1.96E2,2E0,3.7E1,4E0],"tree_param":{"num_deleted":"0","num_feature":"4","num_nodes":"31","size_leaf_vector":"1"}},{"base_weights":[-9.010054E0,6.8174585E2,-5.4584385E3,-1.2827979E2,4.1599478E3,-1.0130231E4,-2.4731367E2,1.2950332E3,-2.3108135E3,3.9973567E3,1.4042961E3,-1.0716596E4,2.3207664E4,3.3173997E3,-1.7470873E4,2.7005234E2,4.2581814E1,-3.1392416E2,6.9473724E2,4.4529443E2,-3.4657285E2,-1.1181493E3,5.732098E2,3.7386548E3,-1.6753934E3,-1.13282936E2,7.735105E2,-1.9322269E3,9.392501E0],"categories":[],"categories_nodes":[],"categories_segments":[],"categories_sizes":[],"default_left":[0,0,0,0,0,0,0,0,0,0,0,0,0,0,0,0,0,0,0,0,0,0,0,0,0,0,0,0,0],"id":22,"left_children":[1,3,5,7,9,11,13,15,17,19,-1,21,23,25,27,-1,-1,-1,-1,-1,-1,-1,-1,-1,-1,-1,-1,-1,-1],"loss_changes":[1.71987E10,1.1425223E10,1.2510979E10,1.0223142E10,1.174742E9,5.5462543E9,1.5038838E10,2.4324227E9,9.984807E9,2.5824983E9,0E0,2.1058232E9,3.4594258E9,3.999702E9,1.3676308E9,0E0,0E0,0E0,0E0,0E0,0E0,0E0,0E0,0E0,0E0,0E0,0E0,0E0,0E0],"parents":[2147483647,0,0,1,1,2,2,3,3,4,4,5,5,6,6,7,7,8,8,9,9,11,11,12,12,13,13,14,14],"right_children":[2,4,6,8,10,12,14,16,18,20,-1,22,24,26,28,-1,-1,-1,-1,-1,-1,-1,-1,-1,-1,-1,-1,-1,-1],"split_conditions":[1E0,3E0,2E0,1E0,3E0,4E0,3E0,1E0,3E0,2E0,1.4042961E3,3E0,2E0,2E0,3E0,2.7005234E2,4.2581814E1,-3.1392416E2,6.9473724E2,4.4529443E2,-3.4657285E2,-1.1181493E3,5.732098E2,3.7386548E3,-1.6753934E3,-1.13282936E2,7.735105E2,-1.9322269E3,9.392501E0],"split_indices":[2,1,2,0,0,1,3,1,0,0,0,0,0,1,1,0,0,0,0,0,0,0,0,0,0,0,0,0,0],"split_type":[0,0,0,0,0,0,0,0,0,0,0,0,0,0,0,0,0,0,0,0,0,0,0,0,0,0,0,0,0],"sum_hessian":[4.567E3,4.054E3,5.13E2,3.289E3,7.65E2,2.7E2,2.43E2,1.991E3,1.298E3,7.54E2,1.1E1,2.66E2,4E0,2.02E2,4.1E1,7.6E2,1.231E3,1.192E3,1.06E2,7.11E2,4.3E1,2.59E2,7E0,3E0,1E0,1.01E2,1.01E2,3.7E1,4E0],"tree_param":{"num_deleted":"0","num_feature":"4","num_nodes":"29","size_leaf_vector":"1"}},{"base_weights":[-7.571285E0,6.7680096E2,-4.857516E3,-9.816909E1,3.8099897E3,-8.440235E3,7.4400513E3,5.169819E2,-4.866579E3,4.7001914E3,1.1778147E3,-9.535504E3,1.7645766E4,1.697492E4,5.622277E3,2.4964339E2,-6.72316E1,-1.0445468E3,1.5190523E2,4.7606442E2,-5.391645E2,1.9710709E2,-1.2775184E3,-8.0636884E2,-1.9602753E3,2.055625E3,-1.5916239E3,1.2581361E3,3.7677966E3,-6.6789557E2,8.128883E2],"categories":[],"categories_nodes":[],"categories_segments":[],"categories_sizes":[],"default_left":[0,0,0,0,0,0,0,0,0,0,0,0,0,0,0,0,0,0,0,0,0,0,0,0,0,0,0,0,0,0,0],"id":23,"left_children":[1,3,5,7,9,11,13,15,17,19,21,23,25,27,29,-1,-1,-1,-1,-1,-1,-1,-1,-1,-1,-1,-1,-1,-1,-1,-1],"loss_changes":[1.5165244E10,9.722596E9,2.4955982E10,9.421315E9,1.8549381E9,1.2682426E10,2.1230884E9,6.699258E9,1.3090141E10,3.8744474E8,2.260978E9,6.0799386E9,2.0854487E9,1.3451607E9,3.415236E9,0E0,0E0,0E0,0E0,0E0,0E0,0E0,0E0,0E0,0E0,0E0,0E0,0E0,0E0,0E0,0E0],"parents":[2147483647,0,0,1,1,2,2,3,3,4,4,5,5,6,6,7,7,8,8,9,9,10,10,11,11,12,12,13,13,14,14],"right_children":[2,4,6,8,10,12,14,16,18,20,22,24,26,28,30,-1,-1,-1,-1,-1,-1,-1,-1,-1,-1,-1,-1,-1,-1,-1,-1],"split_conditions":[2E0,3E0,3E0,1E0,4E0,4E0,1E0,1E0,2E0,3E0,2E0,1E0,1E0,1E0,2E0,2.4964339E2,-6.72316E1,-1.0445468E3,1.5190523E2,4.7606442E2,-5.391645E2,1.9710709E2,-1.2775184E3,-8.0636884E2,-1.9602753E3,2.055625E3,-1.5916239E3,1.2581361E3,3.7677966E3,-6.6789557E2,8.128883E2],"split_indices":[0,1,0,3,1,1,1,1,3,2,2,2,2,2,1,0,0,0,0,0,0,0,0,0,0,0,0,0,0,0,0],"split_type":[0,0,0,0,0,0,0,0,0,0,0,0,0,0,0,0,0,0,0,0,0,0,0,0,0,0,0,0,0,0,0],"sum_hessian":[4.567E3,4.003E3,5.64E2,3.21E3,7.93E2,4.37E2,1.27E2,2.844E3,3.66E2,5.92E2,2.01E2,4.2E2,1.7E1,1.9E1,1.08E2,1.067E3,1.777E3,1.95E2,1.71E2,5.89E2,3E0,1.91E2,1E1,3.68E2,5.2E1,1.6E1,1E0,1.7E1,2E0,1.8E1,9E1],"tree_param":{"num_deleted":"0","num_feature":"4","num_nodes":"31","size_leaf_vector":"1"}},{"base_weights":[-6.590375E0,6.0866E2,-4.366689E3,-8.1461163E2,2.012568E3,-7.60147E3,6.7364424E3,1.7905717E3,-4.8464326E3,2.4347773E3,-1.3422523E3,-8.588525E3,1.5906967E4,1.5528721E4,5.061378E3,1.9697346E2,-1.4843934E3,-3.1125522E2,-8.4526624E2,1.6600307E2,3.6065353E2,-5.9895105E2,3.526434E2,-7.259506E2,-1.7679465E3,1.8621545E3,-1.5120426E3,1.1393118E3,3.5166106E3,-6.04621E2,7.324925E2],"categories":[],"categories_nodes":[],"categories_segments":[],"categories_sizes":[],"default_left":[0,0,0,0,0,0,0,0,0,0,0,0,0,0,0,0,0,0,0,0,0,0,0,0,0,0,0,0,0,0,0],"id":24,"left_children":[1,3,5,7,9,11,13,15,17,19,21,23,25,27,29,-1,-1,-1,-1,-1,-1,-1,-1,-1,-1,-1,-1,-1,-1,-1,-1],"loss_changes":[1.2256557E10,8.002202E9,2.0343861E10,2.0900401E10,2.8588042E9,1.0300029E10,1.8065408E9,3.632405E9,4.8571044E9,1.6199107E9,5.1346063E9,4.9581937E9,1.7976381E9,1.223597E9,2.7848256E9,0E0,0E0,0E0,0E0,0E0,0E0,0E0,0E0,0E0,0E0,0E0,0E0,0E0,0E0,0E0,0E0],"parents":[2147483647,0,0,1,1,2,2,3,3,4,4,5,5,6,6,7,7,8,8,9,9,10,10,11,11,12,12,13,13,14,14],"right_children":[2,4,6,8,10,12,14,16,18,20,22,24,26,28,30,-1,-1,-1,-1,-1,-1,-1,-1,-1,-1,-1,-1,-1,-1,-1,-1],"split_conditions":[2E0,2E0,3E0,1E0,1E0,4E0,1E0,3E0,1E0,3E0,2E0,1E0,1E0,1E0,2E0,1.9697346E2,-1.4843934E3,-3.1125522E2,-8.4526624E2,1.6600307E2,3.6065353E2,-5.9895105E2,3.526434E2,-7.259506E2,-1.7679465E3,1.8621545E3,-1.5120426E3,1.1393118E3,3.5166106E3,-6.04621E2,7.324925E2],"split_indices":[0,1,0,1,3,1,1,3,0,1,2,2,2,2,1,0,0,0,0,0,0,0,0,0,0,0,0,0,0,0,0],"split_type":[0,0,0,0,0,0,0,0,0,0,0,0,0,0,0,0,0,0,0,0,0,0,0,0,0,0,0,0,0,0,0],"sum_hessian":[4.567E3,4.003E3,5.64E2,1.988E3,2.015E3,4.37E2,1.27E2,1.208E3,7.8E2,1.79E3,2.25E2,4.2E2,1.7E1,1.9E1,1.08E2,1.196E3,1.2E1,5.28E2,2.52E2,1.079E3,7.11E2,1.15E2,1.1E2,3.68E2,5.2E1,1.6E1,1E0,1.7E1,2E0,1.8E1,9E1],"tree_param":{"num_deleted":"0","num_feature":"4","num_nodes":"31","size_leaf_vector":"1"}},{"base_weights":[-5.8252134E0,1.1838085E3,-1.880132E3,-4.3663177E1,2.3639346E3,-2.4991958E3,6.1001655E3,1.6872286E3,-2.8018828E3,2.449835E3,-1.8359783E4,-9.235809E2,-6.846216E3,1.4208645E4,4.5564062E3,1.3711444E2,6.2801794E2,-2.6908072E2,-1.2035514E3,2.8354477E2,-1.3984416E2,-2.6616443E3,1.1461758E3,-1.7215654E2,3.1391528E2,-7.735595E2,1.4335719E3,1.03171E3,3.28217E3,-5.473415E2,6.600475E2],"categories":[],"categories_nodes":[],"categories_segments":[],"categories_sizes":[],"default_left":[0,0,0,0,0,0,0,0,0,0,0,0,0,0,0,0,0,0,0,0,0,0,0,0,0,0,0,0,0,0,0],"id":25,"left_children":[1,3,5,7,9,11,13,15,17,19,21,23,25,27,29,-1,-1,-1,-1,-1,-1,-1,-1,-1,-1,-1,-1,-1,-1,-1,-1],"loss_changes":[1.0187672E10,4.0488607E9,8.77936E9,6.550128E9,2.5817242E9,1.1274358E10,1.5375043E9,1.2152223E9,5.101742E8,2.111167E9,1.782429E9,3.9282225E9,8.362277E9,1.1100462E9,2.270806E9,0E0,0E0,0E0,0E0,0E0,0E0,0E0,0E0,0E0,0E0,0E0,0E0,0E0,0E0,0E0,0E0],"parents":[2147483647,0,0,1,1,2,2,3,3,4,4,5,5,6,6,7,7,8,8,9,9,10,10,11,11,12,12,13,13,14,14],"right_children":[2,4,6,8,10,12,14,16,18,20,22,24,26,28,30,-1,-1,-1,-1,-1,-1,-1,-1,-1,-1,-1,-1,-1,-1,-1,-1],"split_conditions":[1E0,2E0,3E0,1E0,3E0,2E0,1E0,2E0,3E0,4E0,3E0,3E0,4E0,1E0,2E0,1.3711444E2,6.2801794E2,-2.6908072E2,-1.2035514E3,2.8354477E2,-1.3984416E2,-2.6616443E3,1.1461758E3,-1.7215654E2,3.1391528E2,-7.735595E2,1.4335719E3,1.03171E3,3.28217E3,-5.473415E2,6.600475E2],"split_indices":[0,1,0,1,3,0,1,3,2,1,1,1,1,2,1,0,0,0,0,0,0,0,0,0,0,0,0,0,0,0,0],"split_type":[0,0,0,0,0,0,0,0,0,0,0,0,0,0,0,0,0,0,0,0,0,0,0,0,0,0,0,0,0,0,0],"sum_hessian":[4.567E3,2.794E3,1.773E3,1.37E3,1.424E3,1.646E3,1.27E2,8.42E2,5.28E2,1.419E3,5E0,1.209E3,4.37E2,1.9E1,1.08E2,7.89E2,5.3E1,5.23E2,5E0,1.29E3,1.29E2,4E0,1E0,1.011E3,1.98E2,4.2E2,1.7E1,1.7E1,2E0,1.8E1,9E1],"tree_param":{"num_deleted":"0","num_feature":"4","num_nodes":"31","size_leaf_vector":"1"}},{"base_weights":[-4.553364E0,5.172762E2,-4.121313E3,-6.1518744E2,1.724474E3,-7.557316E3,-1.6705377E2,1.6865605E3,-3.4348477E3,2.4203425E3,3.6875287E2,-8.0689795E3,2.168632E4,2.843675E3,-1.4428196E4,2.0089615E2,-2.2868684E2,-2.2383728E2,-4.6444638E2,2.6931552E2,-2.0547308E1,-3.7904713E1,5.493443E2,-8.9216583E2,-1.8629053E2,3.4648496E3,-1.5081191E3,3.788116E2,-1.5385073E3,-1.5311259E3,1.0888672E3],"categories":[],"categories_nodes":[],"categories_segments":[],"categories_sizes":[],"default_left":[0,0,0,0,0,0,0,0,0,0,0,0,0,0,0,0,0,0,0,0,0,0,0,0,0,0,0,0,0,0,0],"id":26,"left_children":[1,3,5,7,9,11,13,15,17,19,21,23,25,27,29,-1,-1,-1,-1,-1,-1,-1,-1,-1,-1,-1,-1,-1,-1,-1,-1],"loss_changes":[9.815324E9,5.544682E9,6.9823775E9,1.3589672E10,1.8510085E9,4.289787E9,1.0345772E10,1.48163E9,1.3514906E9,9.296671E8,2.5581883E9,1.4174515E9,2.9054756E9,3.48426E9,1.1056876E9,0E0,0E0,0E0,0E0,0E0,0E0,0E0,0E0,0E0,0E0,0E0,0E0,0E0,0E0,0E0,0E0],"parents":[2147483647,0,0,1,1,2,2,3,3,4,4,5,5,6,6,7,7,8,8,9,9,10,10,11,11,12,12,13,13,14,14],"right_children":[2,4,6,8,10,12,14,16,18,20,22,24,26,28,30,-1,-1,-1,-1,-1,-1,-1,-1,-1,-1,-1,-1,-1,-1,-1,-1],"split_conditions":[1E0,2E0,2E0,1E0,1E0,4E0,3E0,2E0,1E0,4E0,3E0,3E0,2E0,4E0,4E0,2.0089615E2,-2.2868684E2,-2.2383728E2,-4.6444638E2,2.6931552E2,-2.0547308E1,-3.7904713E1,5.493443E2,-8.9216583E2,-1.8629053E2,3.4648496E3,-1.5081191E3,3.788116E2,-1.5385073E3,-1.5311259E3,1.0888672E3],"split_indices":[2,1,3,1,0,1,2,0,0,1,0,1,0,1,1,0,0,0,0,0,0,0,0,0,0,0,0,0,0,0,0],"split_type":[0,0,0,0,0,0,0,0,0,0,0,0,0,0,0,0,0,0,0,0,0,0,0,0,0,0,0,0,0,0,0],"sum_hessian":[4.567E3,4.054E3,5.13E2,2.092E3,1.962E3,2.74E2,2.39E2,1.152E3,9.4E2,1.296E3,6.66E2,2.7E2,4E0,1.98E2,4.1E1,1.066E3,8.6E1,4.74E2,4.66E2,1.174E3,1.22E2,5.82E2,8.4E1,2.37E2,3.3E1,3E0,1E0,1.89E2,9E0,4E1,1E0],"tree_param":{"num_deleted":"0","num_feature":"4","num_nodes":"31","size_leaf_vector":"1"}},{"base_weights":[-4.24484E0,4.6556177E2,-3.71059E3,-5.5400854E2,1.5524161E3,-6.8543037E3,-2.037995E2,1.5178856E3,-3.0920955E3,1.832128E3,-1.3340032E3,-7.3298184E3,1.9909037E4,2.4438474E3,-1.2995907E4,1.8082591E2,-2.0608093E2,-2.0150082E2,-4.181013E2,1.1367305E2,2.8833948E2,-7.254604E2,4.9505615E2,-3.6118332E2,-8.632596E2,3.2049863E3,-1.4327133E3,1.9504778E2,3.4685012E3,-1.3817478E3,1.0344235E3],"categories":[],"categories_nodes":[],"categories_segments":[],"categories_sizes":[],"default_left":[0,0,0,0,0,0,0,0,0,0,0,0,0,0,0,0,0,0,0,0,0,0,0,0,0,0,0,0,0,0,0],"id":27,"left_children":[1,3,5,7,9,11,13,15,17,19,21,23,25,27,29,-1,-1,-1,-1,-1,-1,-1,-1,-1,-1,-1,-1,-1,-1,-1,-1],"loss_changes":[7.955828E9,4.494304E9,5.6651167E9,1.1011042E10,1.5873044E9,3.5947725E9,8.2957926E9,1.2018757E9,1.0952356E9,1.305299E9,6.5101747E9,1.2620902E9,2.5374595E9,3.1614313E9,9.483049E8,0E0,0E0,0E0,0E0,0E0,0E0,0E0,0E0,0E0,0E0,0E0,0E0,0E0,0E0,0E0,0E0],"parents":[2147483647,0,0,1,1,2,2,3,3,4,4,5,5,6,6,7,7,8,8,9,9,10,10,11,11,12,12,13,13,14,14],"right_children":[2,4,6,8,10,12,14,16,18,20,22,24,26,28,30,-1,-1,-1,-1,-1,-1,-1,-1,-1,-1,-1,-1,-1,-1,-1,-1],"split_conditions":[1E0,2E0,2E0,1E0,2E0,4E0,3E0,2E0,1E0,3E0,3E0,1E0,2E0,3E0,4E0,1.8082591E2,-2.0608093E2,-2.0150082E2,-4.181013E2,1.1367305E2,2.8833948E2,-7.254604E2,4.9505615E2,-3.6118332E2,-8.632596E2,3.2049863E3,-1.4327133E3,1.9504778E2,3.4685012E3,-1.3817478E3,1.0344235E3],"split_indices":[2,1,2,1,0,1,3,0,0,1,0,1,0,0,1,0,0,0,0,0,0,0,0,0,0,0,0,0,0,0,0],"split_type":[0,0,0,0,0,0,0,0,0,0,0,0,0,0,0,0,0,0,0,0,0,0,0,0,0,0,0,0,0,0,0],"sum_hessian":[4.567E3,4.054E3,5.13E2,2.092E3,1.962E3,2.7E2,2.43E2,1.152E3,9.4E2,1.789E3,1.73E2,2.66E2,4E0,2.02E2,4.1E1,1.066E3,8.6E1,4.74E2,4.66E2,1.078E3,7.11E2,8.9E1,8.4E1,7E1,1.96E2,3E0,1E0,2E2,2E0,4E1,1E0],"tree_param":{"num_deleted":"0","num_feature":"4","num_nodes":"31","size_leaf_vector":"1"}},{"base_weights":[-3.0792615E0,4.1888754E2,-3.3320137E3,-4.211802E1,2.3983777E3,-6.1237764E3,-1.1923553E2,1.3660729E3,-8.0152026E2,2.2779302E3,9.776665E2,-6.551297E3,1.827259E4,2.326513E3,-1.1704586E4,1.2319738E2,9.753325E2,-2.7835446E2,7.559811E1,2.5954562E2,-2.9119873E2,-7.339067E2,-8.442215E1,2.9646125E3,-1.3610778E3,3.1828195E2,-1.4175966E3,-1.2469431E3,9.8270233E2],"categories":[],"categories_nodes":[],"categories_segments":[],"categories_sizes":[],"default_left":[0,0,0,0,0,0,0,0,0,0,0,0,0,0,0,0,0,0,0,0,0,0,0,0,0,0,0,0,0],"id":28,"left_children":[1,3,5,7,9,11,13,15,17,19,-1,21,23,25,27,-1,-1,-1,-1,-1,-1,-1,-1,-1,-1,-1,-1,-1,-1],"loss_changes":[6.418064E9,3.7005153E9,4.6094976E9,3.5193661E9,6.584704E8,2.987943E9,6.827596E9,1.2847898E9,6.602122E9,1.2517476E9,0E0,1.2121836E9,2.21664E9,2.8572247E9,8.14208E8,0E0,0E0,0E0,0E0,0E0,0E0,0E0,0E0,0E0,0E0,0E0,0E0,0E0,0E0],"parents":[2147483647,0,0,1,1,2,2,3,3,4,4,5,5,6,6,7,7,8,8,9,9,11,11,12,12,13,13,14,14],"right_children":[2,4,6,8,10,12,14,16,18,20,-1,22,24,26,28,-1,-1,-1,-1,-1,-1,-1,-1,-1,-1,-1,-1,-1,-1],"split_conditions":[1E0,3E0,2E0,1E0,3E0,4E0,3E0,3E0,2E0,2E0,9.776665E2,3E0,2E0,4E0,4E0,1.2319738E2,9.753325E2,-2.7835446E2,7.559811E1,2.5954562E2,-2.9119873E2,-7.339067E2,-8.442215E1,2.9646125E3,-1.3610778E3,3.1828195E2,-1.4175966E3,-1.2469431E3,9.8270233E2],"split_indices":[2,1,3,1,0,1,2,0,1,0,0,1,0,1,1,0,0,0,0,0,0,0,0,0,0,0,0,0,0],"split_type":[0,0,0,0,0,0,0,0,0,0,0,0,0,0,0,0,0,0,0,0,0,0,0,0,0,0,0,0,0],"sum_hessian":[4.567E3,4.054E3,5.13E2,3.289E3,7.65E2,2.74E2,2.39E2,1.152E3,2.137E3,7.54E2,1.1E1,2.7E2,4E0,1.98E2,4.1E1,1.135E3,1.7E1,9.4E2,1.197E3,7.11E2,4.3E1,2.37E2,3.3E1,3E0,1E0,1.89E2,9E0,4E1,1E0],"tree_param":{"num_deleted":"0","num_feature":"4","num_nodes":"29","size_leaf_vector":"1"}},{"base_weights":[-2.496299E0,3.7745123E2,-2.9999375E3,7.08801E2,-1.9691517E3,-5.5533716E3,-1.5165619E2,3.0096802E2,2.3362737E3,-3.9019656E3,4.3537505E3,-5.950539E3,1.676604E4,1.99849E3,-1.0540419E4,1.5045128E2,-4.2187008E1,3.1103516E2,1.7779167E1,-4.8318814E2,1.6512206E3,8.8321826E2,3.5125076E2,-2.5321675E2,-7.152335E2,2.7422668E3,-1.2930238E3,-1.8136333E2,5.7910205E2,-1.1892096E3,1.8404109E2],"categories":[],"categories_nodes":[],"categories_segments":[],"categories_sizes":[],"default_left":[0,0,0,0,0,0,0,0,0,0,0,0,0,0,0,0,0,0,0,0,0,0,0,0,0,0,0,0,0,0,0],"id":29,"left_children":[1,3,5,7,9,11,13,15,17,19,21,23,25,27,29,-1,-1,-1,-1,-1,-1,-1,-1,-1,-1,-1,-1,-1,-1,-1,-1],"loss_changes":[5.2034924E9,3.1543465E9,3.7374275E9,2.3582185E9,6.1519263E9,2.502058E9,5.4713805E9,2.4739535E9,1.18908E9,7.388418E9,4.1353574E8,1.0787748E9,1.9368925E9,2.9453942E9,7.2475136E8,0E0,0E0,0E0,0E0,0E0,0E0,0E0,0E0,0E0,0E0,0E0,0E0,0E0,0E0,0E0,0E0],"parents":[2147483647,0,0,1,1,2,2,3,3,4,4,5,5,6,6,7,7,8,8,9,9,10,10,11,11,12,12,13,13,14,14],"right_children":[2,4,6,8,10,12,14,16,18,20,22,24,26,28,30,-1,-1,-1,-1,-1,-1,-1,-1,-1,-1,-1,-1,-1,-1,-1,-1],"split_conditions":[1E0,2E0,2E0,3E0,3E0,4E0,3E0,1E0,4E0,4E0,1E0,1E0,2E0,2E0,3E0,1.5045128E2,-4.2187008E1,3.1103516E2,1.7779167E1,-4.8318814E2,1.6512206E3,8.8321826E2,3.5125076E2,-2.5321675E2,-7.152335E2,2.7422668E3,-1.2930238E3,-1.8136333E2,5.7910205E2,-1.1892096E3,1.8404109E2],"split_indices":[2,0,2,1,0,1,3,1,1,1,1,1,0,1,1,0,0,0,0,0,0,0,0,0,0,0,0,0,0,0,0],"split_type":[0,0,0,0,0,0,0,0,0,0,0,0,0,0,0,0,0,0,0,0,0,0,0,0,0,0,0,0,0,0,0],"sum_hessian":[4.567E3,4.054E3,5.13E2,3.553E3,5.01E2,2.7E2,2.43E2,2.842E3,7.11E2,3.84E2,1.17E2,2.66E2,4E0,2.02E2,4.1E1,1.066E3,1.776E3,5.23E2,1.88E2,3.68E2,1.6E1,1.7E1,1E2,7E1,1.96E2,3E0,1E0,1.01E2,1.01E2,3.7E1,4E0],"tree_param":{"num_deleted":"0","num_feature":"4","num_nodes":"31","size_leaf_vector":"1"}},{"base_weights":[-1.6527123E0,7.9063153E2,-1.2499237E3,-2.9341516E1,1.578977E3,-1.6977147E3,4.521653E3,1.0105312E3,-1.6863989E3,1.6426722E3,-1.3758706E4,-6.216456E2,-4.666541E3,1.2017314E4,3.104819E3,6.851719E1,5.751705E2,-1.4802287E2,-5.066355E2,1.9733415E2,-1.6537636E2,-2.0207906E3,9.2436487E2,1.3251804E2,-1.4674554E2,-5.400631E2,1.2762253E3,7.9980316E2,3.212724E3,-3.9357468E2,4.5407086E2],"categories":[],"categories_nodes":[],"categories_segments":[],"categories_sizes":[],"default_left":[0,0,0,0,0,0,0,0,0,0,0,0,0,0,0,0,0,0,0,0,0,0,0,0,0,0,0,0,0,0,0],"id":30,"left_children":[1,3,5,7,9,11,13,15,17,19,21,23,25,27,29,-1,-1,-1,-1,-1,-1,-1,-1,-1,-1,-1,-1,-1,-1,-1,-1],"loss_changes":[4.5186734E9,1.806796E9,4.5925094E9,2.3641137E9,1.4147348E9,5.258708E9,1.3220618E9,1.2964585E9,3.611323E8,1.5511063E9,1.0768754E9,1.9943844E9,5.672827E9,1.3595953E9,1.1198036E9,0E0,0E0,0E0,0E0,0E0,0E0,0E0,0E0,0E0,0E0,0E0,0E0,0E0,0E0,0E0,0E0],"parents":[2147483647,0,0,1,1,2,2,3,3,4,4,5,5,6,6,7,7,8,8,9,9,10,10,11,11,12,12,13,13,14,14],"right_children":[2,4,6,8,10,12,14,16,18,20,22,24,26,28,30,-1,-1,-1,-1,-1,-1,-1,-1,-1,-1,-1,-1,-1,-1,-1,-1],"split_conditions":[1E0,2E0,3E0,1E0,3E0,2E0,1E0,2E0,2E0,4E0,3E0,1E0,4E0,1E0,2E0,6.851719E1,5.751705E2,-1.4802287E2,-5.066355E2,1.9733415E2,-1.6537636E2,-2.0207906E3,9.2436487E2,1.3251804E2,-1.4674554E2,-5.400631E2,1.2762253E3,7.9980316E2,3.212724E3,-3.9357468E2,4.5407086E2],"split_indices":[0,1,0,1,3,0,1,3,2,1,1,1,1,2,1,0,0,0,0,0,0,0,0,0,0,0,0,0,0,0,0],"split_type":[0,0,0,0,0,0,0,0,0,0,0,0,0,0,0,0,0,0,0,0,0,0,0,0,0,0,0,0,0,0,0],"sum_hessian":[4.567E3,2.794E3,1.773E3,1.37E3,1.424E3,1.646E3,1.27E2,8.42E2,5.28E2,1.419E3,5E0,1.209E3,4.37E2,1.9E1,1.08E2,7.89E2,5.3E1,4.99E2,2.9E1,1.29E3,1.29E2,4E0,1E0,3.66E2,8.43E2,4.2E2,1.7E1,1.7E1,2E0,1.8E1,9E1],"tree_param":{"num_deleted":"0","num_feature":"4","num_nodes":"31","size_leaf_vector":"1"}},{"base_weights":[-6.715415E-1,3.4143018E2,-2.6995466E3,-3.7534564E2,1.1055006E3,-4.955327E3,-1.8308737E2,1.0474022E3,-2.1182285E3,1.355448E3,-1.47215E3,-6.0606357E3,1.9814502E3,1.6986005E3,-9.273553E3,9.483158E1,7.242668E2,-1.3463564E2,-2.8987878E2,8.950012E1,2.0513281E2,-3.101409E2,1.3756971E3,-2.4462724E2,-7.5884357E2,5.848486E2,-2.4710679E3,1.24577515E2,3.1471697E3,-9.928102E2,8.781469E2],"categories":[],"categories_nodes":[],"categories_segments":[],"categories_sizes":[],"default_left":[0,0,0,0,0,0,0,0,0,0,0,0,0,0,0,0,0,0,0,0,0,0,0,0,0,0,0,0,0,0,0],"id":31,"left_children":[1,3,5,7,9,11,13,15,17,19,21,23,25,27,29,-1,-1,-1,-1,-1,-1,-1,-1,-1,-1,-1,-1,-1,-1,-1,-1],"loss_changes":[4.2185098E9,2.2212058E9,2.9168545E9,5.192195E9,1.2667108E9,2.0898427E9,4.189474E9,7.0091994E8,5.630418E8,5.717084E8,4.359985E9,1.2735898E9,4.0668572E9,2.697642E9,5.8353434E8,0E0,0E0,0E0,0E0,0E0,0E0,0E0,0E0,0E0,0E0,0E0,0E0,0E0,0E0,0E0,0E0],"parents":[2147483647,0,0,1,1,2,2,3,3,4,4,5,5,6,6,7,7,8,8,9,9,10,10,11,11,12,12,13,13,14,14],"right_children":[2,4,6,8,10,12,14,16,18,20,22,24,26,28,30,-1,-1,-1,-1,-1,-1,-1,-1,-1,-1,-1,-1,-1,-1,-1,-1],"split_conditions":[1E0,2E0,2E0,1E0,2E0,3E0,3E0,3E0,1E0,3E0,4E0,1E0,2E0,3E0,4E0,9.483158E1,7.242668E2,-1.3463564E2,-2.8987878E2,8.950012E1,2.0513281E2,-3.101409E2,1.3756971E3,-2.4462724E2,-7.5884357E2,5.848486E2,-2.4710679E3,1.24577515E2,3.1471697E3,-9.928102E2,8.781469E2],"split_indices":[2,1,2,1,0,1,3,0,0,1,1,1,0,0,1,0,0,0,0,0,0,0,0,0,0,0,0,0,0,0,0],"split_type":[0,0,0,0,0,0,0,0,0,0,0,0,0,0,0,0,0,0,0,0,0,0,0,0,0,0,0,0,0,0,0],"sum_hessian":[4.567E3,4.054E3,5.13E2,2.092E3,1.962E3,2.7E2,2.43E2,1.152E3,9.4E2,1.789E3,1.73E2,2.33E2,3.7E1,2.02E2,4.1E1,1.135E3,1.7E1,4.74E2,4.66E2,1.078E3,7.11E2,1.57E2,1.6E1,7E1,1.63E2,3.3E1,4E0,2E2,2E0,4E1,1E0],"tree_param":{"num_deleted":"0","num_feature":"4","num_nodes":"31","size_leaf_vector":"1"}},{"base_weights":[-1.6071466E-1,3.0772107E2,-2.4290723E3,8.3188574E2,-5.6242224E2,-4.4428057E3,-1.1154824E2,1.6866939E2,1.4627573E3,-9.19199E2,3.6994768E3,-4.791692E3,1.5355396E4,1.6275546E3,-8.348927E3,1.0302366E2,-1.212007E2,1.6968716E2,-7.85593E1,-1.2249434E2,3.976418E2,3.134764E2,8.426544E2,-5.410298E2,-3.2051678E1,2.50374E3,-1.1686305E3,2.4092986E2,-1.3388339E3,-9.493078E2,2.016411E2],"categories":[],"categories_nodes":[],"categories_segments":[],"categories_sizes":[],"default_left":[0,0,0,0,0,0,0,0,0,0,0,0,0,0,0,0,0,0,0,0,0,0,0,0,0,0,0,0,0,0,0],"id":32,"left_children":[1,3,5,7,9,11,13,15,17,19,21,23,25,27,29,-1,-1,-1,-1,-1,-1,-1,-1,-1,-1,-1,-1,-1,-1,-1,-1],"loss_changes":[3.4167785E9,1.849947E9,2.3982787E9,1.0587346E9,2.3222339E9,1.9730918E9,3.451744E9,1.4703373E9,6.840361E8,2.1123756E9,2.885783E8,7.478241E8,1.6016836E9,2.3682348E9,5.172416E8,0E0,0E0,0E0,0E0,0E0,0E0,0E0,0E0,0E0,0E0,0E0,0E0,0E0,0E0,0E0,0E0],"parents":[2147483647,0,0,1,1,2,2,3,3,4,4,5,5,6,6,7,7,8,8,9,9,10,10,11,11,12,12,13,13,14,14],"right_children":[2,4,6,8,10,12,14,16,18,20,22,24,26,28,30,-1,-1,-1,-1,-1,-1,-1,-1,-1,-1,-1,-1,-1,-1,-1,-1],"split_conditions":[1E0,1E0,2E0,2E0,3E0,4E0,3E0,1E0,4E0,4E0,3E0,3E0,2E0,4E0,3E0,1.0302366E2,-1.212007E2,1.6968716E2,-7.85593E1,-1.2249434E2,3.976418E2,3.134764E2,8.426544E2,-5.410298E2,-3.2051678E1,2.50374E3,-1.1686305E3,2.4092986E2,-1.3388339E3,-9.493078E2,2.016411E2],"split_indices":[2,0,3,1,0,1,2,1,1,1,1,1,0,1,1,0,0,0,0,0,0,0,0,0,0,0,0,0,0,0,0],"split_type":[0,0,0,0,0,0,0,0,0,0,0,0,0,0,0,0,0,0,0,0,0,0,0,0,0,0,0,0,0,0,0],"sum_hessian":[4.567E3,4.054E3,5.13E2,2.53E3,1.524E3,2.74E2,2.39E2,1.234E3,1.296E3,1.407E3,1.17E2,2.7E2,4E0,1.98E2,4.1E1,7.6E2,4.74E2,1.174E3,1.22E2,1.325E3,8.2E1,1.06E2,1.1E1,2.37E2,3.3E1,3E0,1E0,1.89E2,9E0,3.7E1,4E0],"tree_param":{"num_deleted":"0","num_feature":"4","num_nodes":"31","size_leaf_vector":"1"}},{"base_weights":[-5.3391118E-2,2.9326923E2,-2.0787502E3,-4.561674E2,1.0325233E3,-3.8323691E3,3.9381548E3,9.2262067E2,-2.5899685E3,6.09718E2,1.6824708E3,-4.4224907E3,1.0182835E4,1.0212706E4,2.750731E3,1.0119777E2,-7.3760645E2,-1.2265547E2,-5.430506E2,2.8562653E1,6.572583E2,2.2659297E2,-3.8685722E0,-2.86316E2,-1.02071497E3,1.2087942E3,-1.1101989E3,6.262585E2,3.0509197E3,2.1612804E2,1.7683495E3],"categories":[],"categories_nodes":[],"categories_segments":[],"categories_sizes":[],"default_left":[0,0,0,0,0,0,0,0,0,0,0,0,0,0,0,0,0,0,0,0,0,0,0,0,0,0,0,0,0,0,0],"id":33,"left_children":[1,3,5,7,9,11,13,15,17,19,21,23,25,27,29,-1,-1,-1,-1,-1,-1,-1,-1,-1,-1,-1,-1,-1,-1,-1,-1],"loss_changes":[2.785851E9,2.2187832E9,5.97661E9,5.854146E9,5.529736E8,3.6675907E9,9.255781E8,9.0399264E8,3.0180173E9,2.361587E9,7.9744154E8,3.768277E9,8.6409766E8,1.4124055E9,9.21213E8,0E0,0E0,0E0,0E0,0E0,0E0,0E0,0E0,0E0,0E0,0E0,0E0,0E0,0E0,0E0,0E0],"parents":[2147483647,0,0,1,1,2,2,3,3,4,4,5,5,6,6,7,7,8,8,9,9,10,10,11,11,12,12,13,13,14,14],"right_children":[2,4,6,8,10,12,14,16,18,20,22,24,26,28,30,-1,-1,-1,-1,-1,-1,-1,-1,-1,-1,-1,-1,-1,-1,-1,-1],"split_conditions":[2E0,2E0,3E0,1E0,3E0,4E0,1E0,3E0,1E0,2E0,4E0,2E0,1E0,1E0,2E0,1.0119777E2,-7.3760645E2,-1.2265547E2,-5.430506E2,2.8562653E1,6.572583E2,2.2659297E2,-3.8685722E0,-2.86316E2,-1.02071497E3,1.2087942E3,-1.1101989E3,6.262585E2,3.0509197E3,2.1612804E2,1.7683495E3],"split_indices":[0,1,0,1,1,1,1,3,0,2,1,1,2,2,2,0,0,0,0,0,0,0,0,0,0,0,0,0,0,0,0],"split_type":[0,0,0,0,0,0,0,0,0,0,0,0,0,0,0,0,0,0,0,0,0,0,0,0,0,0,0,0,0,0,0],"sum_hessian":[4.567E3,4.003E3,5.64E2,1.988E3,2.015E3,4.37E2,1.27E2,1.208E3,7.8E2,1.222E3,7.93E2,4.2E2,1.7E1,1.9E1,1.08E2,1.196E3,1.2E1,5.28E2,2.52E2,1.16E3,6.2E1,5.92E2,2.01E2,3.32E2,8.8E1,1.6E1,1E0,1.7E1,2E0,1.05E2,3E0],"tree_param":{"num_deleted":"0","num_feature":"4","num_nodes":"31","size_leaf_vector":"1"}},{"base_weights":[8.392725E-1,2.8489087E2,-2.2400752E3,-2.362762E2,8.404272E2,-1.4891746E3,-7.496578E3,8.250156E2,-1.5364177E3,1.0456912E3,-1.2760264E3,-3.5765803E3,6.4215454E2,-1.0691408E4,8.868642E3,1.03329185E2,-1.7388437E2,-9.6866104E1,-2.1106107E2,6.944407E1,1.5765248E2,-5.4785077E2,3.1886716E2,-4.0360458E2,2.3162505E3,1.8002351E2,-5.8824207E2,-8.0212024E2,-1.5586199E3,2.8475251E3,1.3477014E2],"categories":[],"categories_nodes":[],"categories_segments":[],"categories_sizes":[],"default_left":[0,0,0,0,0,0,0,0,0,0,0,0,0,0,0,0,0,0,0,0,0,0,0,0,0,0,0,0,0,0,0],"id":34,"left_children":[1,3,5,7,9,11,13,15,17,19,21,23,25,27,29,-1,-1,-1,-1,-1,-1,-1,-1,-1,-1,-1,-1,-1,-1,-1,-1],"loss_changes":[2.9083315E9,1.1742316E9,2.017652E9,2.889251E9,8.541238E8,2.0087727E9,3.441001E9,6.1748826E8,3.047232E8,3.326606E8,3.2821978E9,2.894622E9,1.7031301E9,5.807652E8,1.5836851E9,0E0,0E0,0E0,0E0,0E0,0E0,0E0,0E0,0E0,0E0,0E0,0E0,0E0,0E0,0E0,0E0],"parents":[2147483647,0,0,1,1,2,2,3,3,4,4,5,5,6,6,7,7,8,8,9,9,10,10,11,11,12,12,13,13,14,14],"right_children":[2,4,6,8,10,12,14,16,18,20,22,24,26,28,30,-1,-1,-1,-1,-1,-1,-1,-1,-1,-1,-1,-1,-1,-1,-1,-1],"split_conditions":[1E0,2E0,2E0,1E0,2E0,2E0,3E0,2E0,1E0,3E0,3E0,4E0,3E0,2E0,1E0,1.03329185E2,-1.7388437E2,-9.6866104E1,-2.1106107E2,6.944407E1,1.5765248E2,-5.4785077E2,3.1886716E2,-4.0360458E2,2.3162505E3,1.8002351E2,-5.8824207E2,-8.0212024E2,-1.5586199E3,2.8475251E3,1.3477014E2],"split_indices":[2,1,0,1,0,2,0,0,0,1,0,1,3,2,1,0,0,0,0,0,0,0,0,0,0,0,0,0,0,0,0],"split_type":[0,0,0,0,0,0,0,0,0,0,0,0,0,0,0,0,0,0,0,0,0,0,0,0,0,0,0,0,0,0,0],"sum_hessian":[4.567E3,4.054E3,5.13E2,2.092E3,1.962E3,4.5E2,6.3E1,1.152E3,9.4E2,1.789E3,1.73E2,2.27E2,2.23E2,5.3E1,1E1,1.066E3,8.6E1,4.74E2,4.66E2,1.078E3,7.11E2,8.9E1,8.4E1,2.24E2,3E0,1.9E2,3.3E1,3.6E1,1.7E1,2E0,8E0],"tree_param":{"num_deleted":"0","num_feature":"4","num_nodes":"31","size_leaf_vector":"1"}},{"base_weights":[1.1382059E0,2.563091E2,-2.0119342E3,1.906084E1,1.2749652E3,-1.3369242E3,-6.7372085E3,4.7893912E2,-6.861713E2,1.1796805E3,7.163707E2,-3.2105352E3,5.761125E2,-9.665985E3,8.2528955E3,1.1017294E1,1.07913345E2,7.780835E1,-1.3198715E2,1.41909E2,-2.7212094E2,-4.6326877E2,5.040355E2,1.6211491E2,-5.3114795E2,-7.240761E2,-1.411417E3,2.6576897E3,1.2279071E2],"categories":[],"categories_nodes":[],"categories_segments":[],"categories_sizes":[],"default_left":[0,0,0,0,0,0,0,0,0,0,0,0,0,0,0,0,0,0,0,0,0,0,0,0,0,0,0,0,0],"id":35,"left_children":[1,3,5,7,9,11,13,15,17,19,-1,21,23,25,27,-1,-1,-1,-1,-1,-1,-1,-1,-1,-1,-1,-1,-1,-1],"loss_changes":[2.3469947E9,9.799653E8,1.6304511E9,1.0673446E9,4.2135654E8,1.6183626E9,2.889543E9,4.4077322E8,1.2063671E9,7.089635E8,0E0,2.6987077E9,1.3868266E9,4.8034662E8,1.383351E9,0E0,0E0,0E0,0E0,0E0,0E0,0E0,0E0,0E0,0E0,0E0,0E0,0E0,0E0],"parents":[2147483647,0,0,1,1,2,2,3,3,4,4,5,5,6,6,7,7,8,8,9,9,11,11,12,12,13,13,14,14],"right_children":[2,4,6,8,10,12,14,16,18,20,-1,22,24,26,28,-1,-1,-1,-1,-1,-1,-1,-1,-1,-1,-1,-1,-1,-1],"split_conditions":[1E0,3E0,2E0,1E0,3E0,2E0,3E0,2E0,1E0,2E0,7.163707E2,3E0,3E0,2E0,1E0,1.1017294E1,1.07913345E2,7.780835E1,-1.3198715E2,1.41909E2,-2.7212094E2,-4.6326877E2,5.040355E2,1.6211491E2,-5.3114795E2,-7.240761E2,-1.411417E3,2.6576897E3,1.2279071E2],"split_indices":[2,1,0,0,0,2,0,1,1,0,0,1,3,2,1,0,0,0,0,0,0,0,0,0,0,0,0,0,0],"split_type":[0,0,0,0,0,0,0,0,0,0,0,0,0,0,0,0,0,0,0,0,0,0,0,0,0,0,0,0,0],"sum_hessian":[4.567E3,4.054E3,5.13E2,3.289E3,7.65E2,4.5E2,6.3E1,1.991E3,1.298E3,7.54E2,1.1E1,2.27E2,2.23E2,5.3E1,1E1,1.234E3,7.57E2,3.92E2,9.06E2,7.11E2,4.3E1,1.94E2,3.3E1,1.9E2,3.3E1,3.6E1,1.7E1,2E0,8E0],"tree_param":{"num_deleted":"0","num_feature":"4","num_nodes":"29","size_leaf_vector":"1"}},{"base_weights":[1.2374809E0,2.308402E2,-1.8101249E3,1.5037637E2,2.9141936E3,-3.4390715E3,-6.2695282E1,3.8719363E2,-2.0361143E3,5.7618524E2,2.3778367E3,-4.2046396E2,-7.3989785E3,-2.837258E3,2.9436035E3,-9.54889E0,8.629185E1,-2.6644385E2,1.1721986E3,1.8008572E2,6.50703E2,-9.2217224E1,2.4805105E3,-1.9075224E2,-1.2228998E3,-3.4401996E2,1.2924318E3,-5.6249325E1,9.9698596E2],"categories":[],"categories_nodes":[],"categories_segments":[],"categories_sizes":[],"default_left":[0,0,0,0,0,0,0,0,0,0,0,0,0,0,0,0,0,0,0,0,0,0,0,0,0,0,0,0,0],"id":36,"left_children":[1,3,5,7,9,11,13,15,17,-1,19,21,23,25,27,-1,-1,-1,-1,-1,-1,-1,-1,-1,-1,-1,-1,-1,-1],"loss_changes":[1.9002203E9,8.750884E8,1.46287E9,2.0398798E9,1.6652806E8,3.1764948E9,2.085302E9,8.161663E8,3.3593823E9,0E0,2.289102E8,1.9465678E9,3.0269143E9,1.279892E9,2.9617764E9,0E0,0E0,0E0,0E0,0E0,0E0,0E0,0E0,0E0,0E0,0E0,0E0,0E0,0E0],"parents":[2147483647,0,0,1,1,2,2,3,3,4,4,5,5,6,6,7,7,8,8,10,10,11,11,12,12,13,13,14,14],"right_children":[2,4,6,8,10,12,14,16,18,-1,20,22,24,26,28,-1,-1,-1,-1,-1,-1,-1,-1,-1,-1,-1,-1,-1,-1],"split_conditions":[1E0,3E0,2E0,2E0,1E0,1E0,2E0,2E0,4E0,5.7618524E2,3E0,3E0,1E0,4E0,1E0,-9.54889E0,8.629185E1,-2.6644385E2,1.1721986E3,1.8008572E2,6.50703E2,-9.2217224E1,2.4805105E3,-1.9075224E2,-1.2228998E3,-3.4401996E2,1.2924318E3,-5.6249325E1,9.9698596E2],"split_indices":[2,0,1,0,1,1,2,1,1,0,1,0,0,1,0,0,0,0,0,0,0,0,0,0,0,0,0,0,0],"split_type":[0,0,0,0,0,0,0,0,0,0,0,0,0,0,0,0,0,0,0,0,0,0,0,0,0,0,0,0,0],"sum_hessian":[4.567E3,4.054E3,5.13E2,3.937E3,1.17E2,2.65E2,2.48E2,3.553E3,3.84E2,1.7E1,1E2,1.51E2,1.14E2,1.29E2,1.19E2,1.764E3,1.789E3,3.68E2,1.6E1,8.9E1,1.1E1,1.49E2,2E0,5.4E1,6E1,1.25E2,4E0,8E1,3.9E1],"tree_param":{"num_deleted":"0","num_feature":"4","num_nodes":"29","size_leaf_vector":"1"}},{"base_weights":[2.2618043E0,5.9420887E1,-6.1587246E3,-3.2227737E1,3.2349026E3,-6.739734E3,8.831328E2,2.3386794E2,-2.483814E3,2.6339163E3,2.7197698E3,-5.603348E3,-1.0157622E3,-2.7654072E1,7.360014E1,-2.9714548E2,8.8699164E2,8.1686224E2,1.564784E2,-6.844338E2,-3.4302673E2],"categories":[],"categories_nodes":[],"categories_segments":[],"categories_sizes":[],"default_left":[0,0,0,0,0,0,0,0,0,0,0,0,0,0,0,0,0,0,0,0,0],"id":37,"left_children":[1,3,5,7,9,11,-1,13,15,17,-1,19,-1,-1,-1,-1,-1,-1,-1,-1,-1],"loss_changes":[1.609016E9,1.3175904E9,4.2531392E8,2.871602E9,1.7573302E9,1.0232896E8,0E0,1.017944E9,2.4126067E9,7.2688454E8,0E0,6.5515584E7,0E0,0E0,0E0,0E0,0E0,0E0,0E0,0E0,0E0],"parents":[2147483647,0,0,1,1,2,2,3,3,4,4,5,5,7,7,8,8,9,9,11,11],"right_children":[2,4,6,8,10,12,-1,14,16,18,-1,20,-1,-1,-1,-1,-1,-1,-1,-1,-1],"split_conditions":[3E0,3E0,4E0,2E0,2E0,2E0,8.831328E2,2E0,4E0,1E0,2.7197698E3,2E0,-1.0157622E3,-2.7654072E1,7.360014E1,-2.9714548E2,8.8699164E2,8.1686224E2,1.564784E2,-6.844338E2,-3.4302673E2],"split_indices":[3,0,1,0,2,0,0,1,1,1,0,1,0,0,0,0,0,0,0,0,0],"split_type":[0,0,0,0,0,0,0,0,0,0,0,0,0,0,0,0,0,0,0,0,0],"sum_hessian":[4.567E3,4.526E3,4.1E1,4.4E3,1.26E2,4E1,1E0,3.97E3,4.3E2,1.24E2,2E0,3.2E1,8E0,1.969E3,2.001E3,4.13E2,1.7E1,1.9E1,1.05E2,1.9E1,1.3E1],"tree_param":{"num_deleted":"0","num_feature":"4","num_nodes":"21","size_leaf_vector":"1"}},{"base_weights":[2.7324278E0,2.0408856E2,-1.5857925E3,1.3870471E2,2.384406E3,-2.9764778E3,-9.3792244E1,3.2517392E2,-1.5829843E3,1.9827535E3,5.767108E2,-2.7262418E2,-6.5243843E3,-2.5989197E3,2.6208774E3,9.370672E1,6.2627583E0,-2.102373E2,9.783927E2,4.4461972E2,1.4680342E2,-7.283962E1,2.2606853E3,-1.6333798E2,-1.082735E3,-3.1444736E2,1.1668815E3,-5.690434E1,9.0149457E2],"categories":[],"categories_nodes":[],"categories_segments":[],"categories_sizes":[],"default_left":[0,0,0,0,0,0,0,0,0,0,0,0,0,0,0,0,0,0,0,0,0,0,0,0,0,0,0,0,0],"id":38,"left_children":[1,3,5,7,9,11,13,15,17,19,-1,21,23,25,27,-1,-1,-1,-1,-1,-1,-1,-1,-1,-1,-1,-1,-1,-1],"loss_changes":[1.4614408E9,5.7774016E8,1.0662207E9,1.264778E9,1.4888838E8,2.5499645E9,1.7001594E9,5.708927E8,2.2935506E9,1.2914694E8,0E0,1.6014964E9,2.402585E9,1.0485879E9,2.4527183E9,0E0,0E0,0E0,0E0,0E0,0E0,0E0,0E0,0E0,0E0,0E0,0E0,0E0,0E0],"parents":[2147483647,0,0,1,1,2,2,3,3,4,4,5,5,6,6,7,7,8,8,9,9,11,11,12,12,13,13,14,14],"right_children":[2,4,6,8,10,12,14,16,18,20,-1,22,24,26,28,-1,-1,-1,-1,-1,-1,-1,-1,-1,-1,-1,-1,-1,-1],"split_conditions":[1E0,3E0,2E0,2E0,3E0,1E0,2E0,1E0,4E0,1E0,5.767108E2,3E0,1E0,4E0,1E0,9.370672E1,6.2627583E0,-2.102373E2,9.783927E2,4.4461972E2,1.4680342E2,-7.283962E1,2.2606853E3,-1.6333798E2,-1.082735E3,-3.1444736E2,1.1668815E3,-5.690434E1,9.0149457E2],"split_indices":[2,0,1,0,1,1,2,1,1,1,0,0,0,1,0,0,0,0,0,0,0,0,0,0,0,0,0,0,0],"split_type":[0,0,0,0,0,0,0,0,0,0,0,0,0,0,0,0,0,0,0,0,0,0,0,0,0,0,0,0,0],"sum_hessian":[4.567E3,4.054E3,5.13E2,3.937E3,1.17E2,2.65E2,2.48E2,3.553E3,3.84E2,1.06E2,1.1E1,1.51E2,1.14E2,1.29E2,1.19E2,1.066E3,2.487E3,3.68E2,1.6E1,1.7E1,8.9E1,1.49E2,2E0,5.4E1,6E1,1.25E2,4E0,8E1,3.9E1],"tree_param":{"num_deleted":"0","num_feature":"4","num_nodes":"29","size_leaf_vector":"1"}},{"base_weights":[3.4817464E0,5.6357853E1,-5.69589E3,-2.0024334E1,2.7028274E3,-6.245459E3,8.418219E2,1.9697461E2,-2.0192883E3,2.1512683E3,2.4783523E3,-5.1962573E3,-9.398593E2,-2.7866364E1,6.649119E1,-2.4108018E2,7.097701E2,6.7886053E2,1.256004E2,-6.001312E2,-3.6750174E2],"categories":[],"categories_nodes":[],"categories_segments":[],"categories_sizes":[],"default_left":[0,0,0,0,0,0,0,0,0,0,0,0,0,0,0,0,0,0,0,0,0],"id":39,"left_children":[1,3,5,7,9,11,-1,13,15,17,-1,19,-1,-1,-1,-1,-1,-1,-1,-1,-1],"loss_changes":[1.3769362E9,9.151561E8,3.783561E8,1.9097194E9,1.4933929E9,8.680166E7,0E0,8.8400614E8,1.5555323E9,5.1042874E8,0E0,1.8359552E7,0E0,0E0,0E0,0E0,0E0,0E0,0E0,0E0,0E0],"parents":[2147483647,0,0,1,1,2,2,3,3,4,4,5,5,7,7,8,8,9,9,11,11],"right_children":[2,4,6,8,10,12,-1,14,16,18,-1,20,-1,-1,-1,-1,-1,-1,-1,-1,-1],"split_conditions":[3E0,3E0,4E0,2E0,2E0,2E0,8.418219E2,2E0,4E0,1E0,2.4783523E3,2E0,-9.398593E2,-2.7866364E1,6.649119E1,-2.4108018E2,7.097701E2,6.7886053E2,1.256004E2,-6.001312E2,-3.6750174E2],"split_indices":[3,0,1,0,2,0,0,1,1,1,0,1,0,0,0,0,0,0,0,0,0],"split_type":[0,0,0,0,0,0,0,0,0,0,0,0,0,0,0,0,0,0,0,0,0],"sum_hessian":[4.567E3,4.526E3,4.1E1,4.4E3,1.26E2,4E1,1E0,3.97E3,4.3E2,1.24E2,2E0,3.2E1,8E0,1.969E3,2.001E3,4.13E2,1.7E1,1.9E1,1.05E2,1.9E1,1.3E1],"tree_param":{"num_deleted":"0","num_feature":"4","num_nodes":"21","size_leaf_vector":"1"}},{"base_weights":[3.73065E0,5.1559956E1,-5.151674E3,3.7815515E2,-4.6691605E2,-5.667437E3,7.9973047E2,4.9759308E2,-2.0585315E3,-6.9539386E2,2.4583982E3,-4.705953E3,-8.563162E2,2.513715E1,1.6504909E2,-1.23170204E2,-1.4513721E3,-8.8895874E1,2.6530444E2,1.9425818E2,2.3131282E3,-5.431186E2,-3.3337674E2],"categories":[],"categories_nodes":[],"categories_segments":[],"categories_sizes":[],"default_left":[0,0,0,0,0,0,0,0,0,0,0,0,0,0,0,0,0,0,0,0,0,0,0],"id":40,"left_children":[1,3,5,7,9,11,-1,13,15,17,19,21,-1,-1,-1,-1,-1,-1,-1,-1,-1,-1,-1],"loss_changes":[1.1266404E9,7.667415E8,3.3015795E8,8.095136E8,1.1713559E9,7.385408E7,0E0,7.5155226E8,1.320905E9,1.0549378E9,1.3093189E9,1.4733888E7,0E0,0E0,0E0,0E0,0E0,0E0,0E0,0E0,0E0,0E0,0E0],"parents":[2147483647,0,0,1,1,2,2,3,3,4,4,5,5,7,7,8,8,9,9,10,10,11,11],"right_children":[2,4,6,8,10,12,-1,14,16,18,20,22,-1,-1,-1,-1,-1,-1,-1,-1,-1,-1,-1],"split_conditions":[3E0,1E0,4E0,4E0,3E0,2E0,7.9973047E2,3E0,1E0,4E0,2E0,2E0,-8.563162E2,2.513715E1,1.6504909E2,-1.23170204E2,-1.4513721E3,-8.8895874E1,2.6530444E2,1.9425818E2,2.3131282E3,-5.431186E2,-3.3337674E2],"split_indices":[3,0,1,1,0,0,0,1,2,1,2,1,0,0,0,0,0,0,0,0,0,0,0],"split_type":[0,0,0,0,0,0,0,0,0,0,0,0,0,0,0,0,0,0,0,0,0,0,0],"sum_hessian":[4.567E3,4.526E3,4.1E1,2.777E3,1.749E3,4E1,1E0,2.648E3,1.29E2,1.623E3,1.26E2,3.2E1,8E0,2.183E3,4.65E2,1.22E2,7E0,1.535E3,8.8E1,1.24E2,2E0,1.9E1,1.3E1],"tree_param":{"num_deleted":"0","num_feature":"4","num_nodes":"23","size_leaf_vector":"1"}},{"base_weights":[3.4364457E0,1.7228316E2,-1.3374312E3,7.117207E2,-4.206563E1,-2.5152502E3,3.0030599E0,8.7477844E2,-1.2981345E3,-1.0536714E3,4.4315567E2,-2.7457246E3,1.0341229E4,9.868701E2,-4.658724E3,6.583665E1,1.4066446E2,-2.4366785E2,3.2016553E2,-1.5446178E2,3.570878E1,6.2081856E1,-1.3880937E2,-3.1600778E2,1.9894232E1,1.8898778E3,-1.1944485E3,1.662642E2,-1.1951487E3,-5.1429584E2,7.597438E2],"categories":[],"categories_nodes":[],"categories_segments":[],"categories_sizes":[],"default_left":[0,0,0,0,0,0,0,0,0,0,0,0,0,0,0,0,0,0,0,0,0,0,0,0,0,0,0,0,0,0,0],"id":41,"left_children":[1,3,5,7,9,11,13,15,17,19,21,23,25,27,29,-1,-1,-1,-1,-1,-1,-1,-1,-1,-1,-1,-1,-1,-1,-1,-1],"loss_changes":[1.0344306E9,4.6924752E8,8.0676883E8,3.793273E8,1.4263939E9,8.343543E8,1.1053623E9,1.2200307E8,4.5352058E8,6.529874E8,6.398394E8,3.2762394E8,1.1792915E9,1.7598035E9,2.8833715E8,0E0,0E0,0E0,0E0,0E0,0E0,0E0,0E0,0E0,0E0,0E0,0E0,0E0,0E0,0E0,0E0],"parents":[2147483647,0,0,1,1,2,2,3,3,4,4,5,5,6,6,7,7,8,8,9,9,10,10,11,11,12,12,13,13,14,14],"right_children":[2,4,6,8,10,12,14,16,18,20,22,24,26,28,30,-1,-1,-1,-1,-1,-1,-1,-1,-1,-1,-1,-1,-1,-1,-1,-1],"split_conditions":[1E0,1E0,2E0,2E0,2E0,4E0,3E0,1E0,3E0,2E0,2E0,3E0,2E0,4E0,4E0,6.583665E1,1.4066446E2,-2.4366785E2,3.2016553E2,-1.5446178E2,3.570878E1,6.2081856E1,-1.3880937E2,-3.1600778E2,1.9894232E1,1.8898778E3,-1.1944485E3,1.662642E2,-1.1951487E3,-5.1429584E2,7.597438E2],"split_indices":[3,1,3,0,1,1,2,0,0,0,0,1,0,1,1,0,0,0,0,0,0,0,0,0,0,0,0,0,0,0,0],"split_type":[0,0,0,0,0,0,0,0,0,0,0,0,0,0,0,0,0,0,0,0,0,0,0,0,0,0,0,0,0,0,0],"sum_hessian":[4.567E3,4.057E3,5.1E2,1.153E3,2.904E3,2.71E2,2.39E2,1.067E3,8.6E1,9.41E2,1.963E3,2.67E2,4E0,1.98E2,4.1E1,7.6E2,3.07E2,6.9E1,1.7E1,6.98E2,2.43E2,1.79E3,1.73E2,2.34E2,3.3E1,3E0,1E0,1.89E2,9E0,4E1,1E0],"tree_param":{"num_deleted":"0","num_feature":"4","num_nodes":"31","size_leaf_vector":"1"}},{"base_weights":[3.027438E0,1.5507593E2,-1.20444E3,3.9412872E2,-2.4141179E2,-2.2622568E3,-5.622396E-1,3.801492E2,1.7888157E3,-4.126562E2,1.8068594E3,-2.4722568E3,9.446192E3,-2.0974485E3,2.1491914E3,4.5919617E1,-1.171105E2,6.268053E1,-7.912484E1,1.4237323E2,5.072504E2,-7.560128E1,-3.0869638E2,1.7481371E3,-1.1347262E3,2.0684984E2,-1.0689352E3,-9.890715E1,8.371987E2],"categories":[],"categories_nodes":[],"categories_segments":[],"categories_sizes":[],"default_left":[0,0,0,0,0,0,0,0,0,0,0,0,0,0,0,0,0,0,0,0,0,0,0,0,0,0,0,0,0],"id":42,"left_children":[1,3,5,7,9,11,13,15,-1,17,19,21,23,25,27,-1,-1,-1,-1,-1,-1,-1,-1,-1,-1,-1,-1,-1,-1],"loss_changes":[8.388423E8,3.8471846E8,6.507481E8,6.124213E8,5.363484E8,6.921399E8,1.0863771E9,3.1089382E8,0E0,5.5537606E8,1.404146E8,2.804028E8,1.0337612E9,4.3889075E9,2.332204E9,0E0,0E0,0E0,0E0,0E0,0E0,0E0,0E0,0E0,0E0,0E0,0E0,0E0,0E0],"parents":[2147483647,0,0,1,1,2,2,3,3,4,4,5,5,6,6,7,7,9,9,10,10,11,11,12,12,13,13,14,14],"right_children":[2,4,6,8,10,12,14,16,-1,18,20,22,24,26,28,-1,-1,-1,-1,-1,-1,-1,-1,-1,-1,-1,-1,-1,-1],"split_conditions":[1E0,1E0,2E0,1E0,3E0,4E0,2E0,4E0,1.7888157E3,1E0,3E0,1E0,2E0,1E0,1E0,4.5919617E1,-1.171105E2,6.268053E1,-7.912484E1,1.4237323E2,5.072504E2,-7.560128E1,-3.0869638E2,1.7481371E3,-1.1347262E3,2.0684984E2,-1.0689352E3,-9.890715E1,8.371987E2],"split_indices":[3,0,3,2,0,1,1,1,0,1,1,1,0,0,0,0,0,0,0,0,0,0,0,0,0,0,0,0,0],"split_type":[0,0,0,0,0,0,0,0,0,0,0,0,0,0,0,0,0,0,0,0,0,0,0,0,0,0,0,0,0],"sum_hessian":[4.567E3,4.057E3,5.1E2,2.531E3,1.526E3,2.71E2,2.39E2,2.53E3,1E0,1.409E3,1.17E2,2.67E2,4E0,1.21E2,1.18E2,2.408E3,1.22E2,3.76E2,1.033E3,1.06E2,1.1E1,7.1E1,1.96E2,3E0,1E0,8.2E1,3.9E1,7.9E1,3.9E1],"tree_param":{"num_deleted":"0","num_feature":"4","num_nodes":"29","size_leaf_vector":"1"}},{"base_weights":[3.260738E0,4.238178E1,-4.213506E3,-1.7839907E1,2.1289429E3,-4.670763E3,7.267016E2,1.5199141E2,-1.5825321E3,1.6609207E3,2.092022E3,-3.8280206E2,-7.2418457E3,-2.3831923E1,5.3598736E1,-1.2924794E2,-1.2539773E3,5.605131E2,9.010609E1,-3.7254538E2,-9.309868E2],"categories":[],"categories_nodes":[],"categories_segments":[],"categories_sizes":[],"default_left":[0,0,0,0,0,0,0,0,0,0,0,0,0,0,0,0,0,0,0,0,0],"id":43,"left_children":[1,3,5,7,9,11,-1,13,15,17,-1,-1,19,-1,-1,-1,-1,-1,-1,-1,-1],"loss_changes":[7.537355E8,5.688837E8,2.5442349E8,1.1697345E9,1.0821844E9,6.1115264E7,0E0,5.95292E8,1.353587E9,3.695803E8,0E0,0E0,3.076432E7,0E0,0E0,0E0,0E0,0E0,0E0,0E0,0E0],"parents":[2147483647,0,0,1,1,2,2,3,3,4,4,5,5,7,7,8,8,9,9,12,12],"right_children":[2,4,6,8,10,12,-1,14,16,18,-1,-1,20,-1,-1,-1,-1,-1,-1,-1,-1],"split_conditions":[3E0,3E0,4E0,2E0,2E0,2E0,7.267016E2,2E0,2E0,1E0,2.092022E3,-3.8280206E2,2E0,-2.3831923E1,5.3598736E1,-1.2924794E2,-1.2539773E3,5.605131E2,9.010609E1,-3.7254538E2,-9.309868E2],"split_indices":[3,0,1,0,2,0,0,1,2,1,0,0,1,0,0,0,0,0,0,0,0],"split_type":[0,0,0,0,0,0,0,0,0,0,0,0,0,0,0,0,0,0,0,0,0],"sum_hessian":[4.567E3,4.526E3,4.1E1,4.4E3,1.26E2,4E1,1E0,3.97E3,4.3E2,1.24E2,2E0,3.2E1,8E0,1.969E3,2.001E3,4.2E2,1E1,1.9E1,1.05E2,4E0,4E0],"tree_param":{"num_deleted":"0","num_feature":"4","num_nodes":"21","size_leaf_vector":"1"}},{"base_weights":[3.0285828E0,1.3529274E2,-1.0404231E3,6.13237E2,-5.458154E1,-6.257858E2,-3.946064E3,7.6474774E2,-1.2519951E3,-8.5486865E2,3.2907855E2,-1.8679891E3,6.4139343E2,-5.689279E3,4.9702686E3,5.705445E1,1.24365295E2,-2.130876E2,2.2354297E2,-1.3723677E2,6.372577E1,4.85191E1,-1.278797E2,-2.9894614E2,4.6189243E2,1.12190506E2,-8.765048E2,-3.764057E2,-9.3306085E2,2.0405032E3,-7.269045E1],"categories":[],"categories_nodes":[],"categories_segments":[],"categories_sizes":[],"default_left":[0,0,0,0,0,0,0,0,0,0,0,0,0,0,0,0,0,0,0,0,0,0,0,0,0,0,0,0,0,0,0],"id":44,"left_children":[1,3,5,7,9,11,13,15,17,19,21,23,25,27,29,-1,-1,-1,-1,-1,-1,-1,-1,-1,-1,-1,-1,-1,-1,-1,-1],"loss_changes":[6.305762E8,3.6802195E8,6.167912E8,3.267984E8,8.916133E8,7.111146E8,1.02303456E9,9.852672E7,2.7142112E8,7.274902E8,4.933518E8,1.6724838E9,1.02229203E9,3.4343872E8,9.821121E8,0E0,0E0,0E0,0E0,0E0,0E0,0E0,0E0,0E0,0E0,0E0,0E0,0E0,0E0,0E0,0E0],"parents":[2147483647,0,0,1,1,2,2,3,3,4,4,5,5,6,6,7,7,8,8,9,9,10,10,11,11,12,12,13,13,14,14],"right_children":[2,4,6,8,10,12,14,16,18,20,22,24,26,28,30,-1,-1,-1,-1,-1,-1,-1,-1,-1,-1,-1,-1,-1,-1,-1,-1],"split_conditions":[1E0,1E0,2E0,2E0,2E0,2E0,3E0,1E0,3E0,2E0,2E0,3E0,4E0,2E0,1E0,5.705445E1,1.24365295E2,-2.130876E2,2.2354297E2,-1.3723677E2,6.372577E1,4.85191E1,-1.278797E2,-2.9894614E2,4.6189243E2,1.12190506E2,-8.765048E2,-3.764057E2,-9.3306085E2,2.0405032E3,-7.269045E1],"split_indices":[2,1,0,0,1,2,0,0,0,0,0,1,1,2,1,0,0,0,0,0,0,0,0,0,0,0,0,0,0,0,0],"split_type":[0,0,0,0,0,0,0,0,0,0,0,0,0,0,0,0,0,0,0,0,0,0,0,0,0,0,0,0,0,0,0],"sum_hessian":[4.567E3,4.054E3,5.13E2,1.152E3,2.902E3,4.5E2,6.3E1,1.066E3,8.6E1,9.4E2,1.962E3,2.27E2,2.23E2,5.3E1,1E1,7.6E2,3.06E2,6.9E1,1.7E1,6.98E2,2.42E2,1.789E3,1.73E2,1.94E2,3.3E1,2.13E2,1E1,3.6E1,1.7E1,2E0,8E0],"tree_param":{"num_deleted":"0","num_feature":"4","num_nodes":"31","size_leaf_vector":"1"}},{"base_weights":[2.7493048E0,3.7309128E1,-3.7223716E3,5.648986E2,-1.7289091E2,-4.171303E3,7.341914E2,4.997228E2,4.6785767E3,-1.1791544E3,3.071476E2,-3.8421714E3,-8.668289E2,6.91062E1,-2.5607138E2,2.0243022E2,1.9044697E3,-9.417924E1,-8.0086176E2,1.6286346E1,3.263376E2,-2.7214774E2,-4.3409497E2],"categories":[],"categories_nodes":[],"categories_segments":[],"categories_sizes":[],"default_left":[0,0,0,0,0,0,0,0,0,0,0,0,0,0,0,0,0,0,0,0,0,0,0],"id":45,"left_children":[1,3,5,7,9,11,-1,13,15,17,19,21,-1,-1,-1,-1,-1,-1,-1,-1,-1,-1,-1],"loss_changes":[5.882209E8,5.02139E8,2.3924397E8,3.4352688E8,1.5644627E9,2.7379072E7,0E0,7.4604365E8,7.240803E8,1.6880808E9,9.348638E8,1.0545344E7,0E0,0E0,0E0,0E0,0E0,0E0,0E0,0E0,0E0,0E0,0E0],"parents":[2147483647,0,0,1,1,2,2,3,3,4,4,5,5,7,7,8,8,9,9,10,10,11,11],"right_children":[2,4,6,8,10,12,-1,14,16,18,20,22,-1,-1,-1,-1,-1,-1,-1,-1,-1,-1,-1],"split_conditions":[3E0,1E0,4E0,3E0,2E0,3E0,7.341914E2,2E0,1E0,2E0,2E0,1E0,-8.668289E2,6.91062E1,-2.5607138E2,2.0243022E2,1.9044697E3,-9.417924E1,-8.0086176E2,1.6286346E1,3.263376E2,-2.7214774E2,-4.3409497E2],"split_indices":[3,1,1,0,1,0,0,0,2,2,2,1,0,0,0,0,0,0,0,0,0,0,0],"split_type":[0,0,0,0,0,0,0,0,0,0,0,0,0,0,0,0,0,0,0,0,0,0,0],"sum_hessian":[4.567E3,4.526E3,4.1E1,1.289E3,3.237E3,4E1,1E0,1.27E3,1.9E1,1.045E3,2.192E3,3.9E1,1E0,1.196E3,7.4E1,1.7E1,2E0,1.011E3,3.4E1,2.091E3,1.01E2,1.4E1,2.5E1],"tree_param":{"num_deleted":"0","num_feature":"4","num_nodes":"23","size_leaf_vector":"1"}},{"base_weights":[2.590733E0,1.2090225E2,-9.369606E2,-1.4696313E0,6.468157E2,-1.8547943E3,1.0715496E2,4.967589E2,-2.7013986E2,7.902228E2,-1.2214142E3,-2.0392515E3,8.403067E3,5.0886523E2,-8.301983E3,6.1521847E1,-9.631441E1,1.3969516E1,-8.263694E1,1.2861978E2,-5.8904236E1,-5.374097E2,8.377177E2,-5.4806026E1,-2.5739038E2,1.5771442E3,-1.0535215E3,-1.5018486E2,2.7547205E2,-1.0527146E3,6.9748206E2],"categories":[],"categories_nodes":[],"categories_segments":[],"categories_sizes":[],"default_left":[0,0,0,0,0,0,0,0,0,0,0,0,0,0,0,0,0,0,0,0,0,0,0,0,0,0,0,0,0,0,0],"id":46,"left_children":[1,3,5,7,9,11,13,15,17,19,21,23,25,27,29,-1,-1,-1,-1,-1,-1,-1,-1,-1,-1,-1,-1,-1,-1,-1,-1],"loss_changes":[5.07891E8,2.6116173E8,4.899025E8,4.4093248E8,2.0618992E8,5.317968E8,8.149535E8,2.0016467E8,4.8795488E8,4.8782323E8,2.2373143E9,2.1225754E8,8.6387725E8,1.04276486E9,4.47352E8,0E0,0E0,0E0,0E0,0E0,0E0,0E0,0E0,0E0,0E0,0E0,0E0,0E0,0E0,0E0,0E0],"parents":[2147483647,0,0,1,1,2,2,3,3,4,4,5,5,6,6,7,7,8,8,9,9,10,10,11,11,12,12,13,13,14,14],"right_children":[2,4,6,8,10,12,14,16,18,20,22,24,26,28,30,-1,-1,-1,-1,-1,-1,-1,-1,-1,-1,-1,-1,-1,-1,-1,-1],"split_conditions":[1E0,3E0,2E0,1E0,2E0,4E0,4E0,2E0,1E0,4E0,4E0,1E0,2E0,2E0,3E0,6.1521847E1,-9.631441E1,1.3969516E1,-8.263694E1,1.2861978E2,-5.8904236E1,-5.374097E2,8.377177E2,-5.4806026E1,-2.5739038E2,1.5771442E3,-1.0535215E3,-1.5018486E2,2.7547205E2,-1.0527146E3,6.9748206E2],"split_indices":[3,1,3,1,0,1,1,0,0,1,1,1,0,1,2,0,0,0,0,0,0,0,0,0,0,0,0,0,0,0,0],"split_type":[0,0,0,0,0,0,0,0,0,0,0,0,0,0,0,0,0,0,0,0,0,0,0,0,0,0,0,0,0,0,0],"sum_hessian":[4.567E3,4.057E3,5.1E2,3.292E3,7.65E2,2.71E2,2.39E2,1.153E3,2.139E3,7.11E2,5.4E1,2.67E2,4E0,2.29E2,1E1,1.067E3,8.6E1,1.232E3,9.07E2,5.23E2,1.88E2,3.8E1,1.6E1,7.1E1,1.96E2,3E0,1E0,1.21E2,1.08E2,9E0,1E0],"tree_param":{"num_deleted":"0","num_feature":"4","num_nodes":"31","size_leaf_vector":"1"}},{"base_weights":[2.38788E0,3.4101746E1,-3.4159707E3,-2.321662E1,2.0201178E3,-3.8225105E3,6.6260785E2,9.907068E1,-1.1498516E3,1.5922926E3,1.9172792E3,-2.3273008E3,-4.511608E3,5.7810207E1,-1.0759585E1,-1.7031082E1,-4.2675122E2,4.4034048E2,1.0468725E2,3.72183E2,-8.0855194E2,-7.8817035E2,-2.388688E2],"categories":[],"categories_nodes":[],"categories_segments":[],"categories_sizes":[],"default_left":[0,0,0,0,0,0,0,0,0,0,0,0,0,0,0,0,0,0,0,0,0,0,0],"id":47,"left_children":[1,3,5,7,9,11,-1,13,15,17,-1,19,21,-1,-1,-1,-1,-1,-1,-1,-1,-1,-1],"loss_changes":[4.953305E8,5.153788E8,1.967929E8,6.0645357E8,9.01441E8,3.1744256E7,0E0,3.931902E8,1.3154935E9,1.8704486E8,0E0,5.525762E8,1.743431E8,0E0,0E0,0E0,0E0,0E0,0E0,0E0,0E0,0E0,0E0],"parents":[2147483647,0,0,1,1,2,2,3,3,4,4,5,5,7,7,8,8,9,9,11,11,12,12],"right_children":[2,4,6,8,10,12,-1,14,16,18,-1,20,22,-1,-1,-1,-1,-1,-1,-1,-1,-1,-1],"split_conditions":[3E0,3E0,4E0,2E0,2E0,1E0,6.6260785E2,1E0,2E0,1E0,1.9172792E3,1E0,1E0,5.7810207E1,-1.0759585E1,-1.7031082E1,-4.2675122E2,4.4034048E2,1.0468725E2,3.72183E2,-8.0855194E2,-7.8817035E2,-2.388688E2],"split_indices":[3,0,1,0,2,1,0,1,1,1,0,0,0,0,0,0,0,0,0,0,0,0,0],"split_type":[0,0,0,0,0,0,0,0,0,0,0,0,0,0,0,0,0,0,0,0,0,0,0],"sum_hessian":[4.567E3,4.526E3,4.1E1,4.4E3,1.26E2,4E1,1E0,3.97E3,4.3E2,1.24E2,2E0,1.4E1,2.6E1,1.196E3,2.774E3,3.28E2,1.02E2,1.9E1,1.05E2,7E0,7E0,9E0,1.7E1],"tree_param":{"num_deleted":"0","num_feature":"4","num_nodes":"23","size_leaf_vector":"1"}},{"base_weights":[2.4269264E0,3.1148823E1,-3.093441E3,-2.0984083E1,1.8374935E3,-3.475953E3,6.2947736E2,8.9176605E1,-1.0358962E3,1.4374229E3,1.7894603E3,-3.1501929E3,-8.2531757E2,-2.337071E1,4.0685482E1,-1.5333133E1,-3.8449057E2,1.0472924E2,5.0238776E2,-2.1236629E2,-3.6212607E2],"categories":[],"categories_nodes":[],"categories_segments":[],"categories_sizes":[],"default_left":[0,0,0,0,0,0,0,0,0,0,0,0,0,0,0,0,0,0,0,0,0],"id":48,"left_children":[1,3,5,7,9,11,-1,13,15,17,-1,19,-1,-1,-1,-1,-1,-1,-1,-1,-1],"loss_changes":[4.0627923E8,4.2634614E8,1.7270672E8,4.9213923E8,7.901231E8,3.780624E7,0E0,4.0741293E8,1.0679167E9,1.6963672E8,0E0,1.1652256E7,0E0,0E0,0E0,0E0,0E0,0E0,0E0,0E0,0E0],"parents":[2147483647,0,0,1,1,2,2,3,3,4,4,5,5,7,7,8,8,9,9,11,11],"right_children":[2,4,6,8,10,12,-1,14,16,18,-1,20,-1,-1,-1,-1,-1,-1,-1,-1,-1],"split_conditions":[3E0,3E0,4E0,2E0,2E0,3E0,6.2947736E2,2E0,2E0,3E0,1.7894603E3,1E0,-8.2531757E2,-2.337071E1,4.0685482E1,-1.5333133E1,-3.8449057E2,1.0472924E2,5.0238776E2,-2.1236629E2,-3.6212607E2],"split_indices":[3,0,1,0,2,0,0,1,1,1,0,1,0,0,0,0,0,0,0,0,0],"split_type":[0,0,0,0,0,0,0,0,0,0,0,0,0,0,0,0,0,0,0,0,0],"sum_hessian":[4.567E3,4.526E3,4.1E1,4.4E3,1.26E2,4E1,1E0,3.97E3,4.3E2,1.24E2,2E0,3.9E1,1E0,1.969E3,2.001E3,3.28E2,1.02E2,1.13E2,1.1E1,1.4E1,2.5E1],"tree_param":{"num_deleted":"0","num_feature":"4","num_nodes":"21","size_leaf_vector":"1"}},{"base_weights":[2.4560454E0,1.04126175E2,-8.049409E2,-9.3133955E0,5.916619E2,-1.655728E3,1.6263841E2,4.0912277E2,-2.3495172E2,5.277521E2,4.563353E2,-1.8261826E3,7.8117827E3,5.35389E2,-7.646023E3,5.1935516E1,-9.487777E1,1.2046156E1,-7.173192E1,6.8141525E1,-1.9707922E2,-2.1330057E2,3.482174E1,1.4566145E3,-9.602832E2,-1.2447327E2,2.522907E2,-9.606631E2,5.980031E2],"categories":[],"categories_nodes":[],"categories_segments":[],"categories_sizes":[],"default_left":[0,0,0,0,0,0,0,0,0,0,0,0,0,0,0,0,0,0,0,0,0,0,0,0,0,0,0,0,0],"id":49,"left_children":[1,3,5,7,9,11,13,15,17,19,-1,21,23,25,27,-1,-1,-1,-1,-1,-1,-1,-1,-1,-1,-1,-1,-1,-1],"loss_changes":[3.750625E8,2.2443662E8,4.2092653E8,3.110055E8,1.9202568E8,4.5321395E8,7.026575E8,1.7322883E8,3.6696755E8,2.912133E8,0E0,1.795406E8,7.279992E8,8.168858E8,3.5131693E8,0E0,0E0,0E0,0E0,0E0,0E0,0E0,0E0,0E0,0E0,0E0,0E0,0E0,0E0],"parents":[2147483647,0,0,1,1,2,2,3,3,4,4,5,5,6,6,7,7,8,8,9,9,11,11,12,12,13,13,14,14],"right_children":[2,4,6,8,10,12,14,16,18,20,-1,22,24,26,28,-1,-1,-1,-1,-1,-1,-1,-1,-1,-1,-1,-1,-1,-1],"split_conditions":[1E0,3E0,2E0,1E0,3E0,4E0,4E0,2E0,1E0,2E0,4.563353E2,3E0,2E0,2E0,3E0,5.1935516E1,-9.487777E1,1.2046156E1,-7.173192E1,6.8141525E1,-1.9707922E2,-2.1330057E2,3.482174E1,1.4566145E3,-9.602832E2,-1.2447327E2,2.522907E2,-9.606631E2,5.980031E2],"split_indices":[3,1,3,1,0,1,1,0,0,0,0,1,0,1,2,0,0,0,0,0,0,0,0,0,0,0,0,0,0],"split_type":[0,0,0,0,0,0,0,0,0,0,0,0,0,0,0,0,0,0,0,0,0,0,0,0,0,0,0,0,0],"sum_hessian":[4.567E3,4.057E3,5.1E2,3.292E3,7.65E2,2.71E2,2.39E2,1.153E3,2.139E3,7.54E2,1.1E1,2.67E2,4E0,2.29E2,1E1,1.067E3,8.6E1,1.232E3,9.07E2,7.11E2,4.3E1,2.34E2,3.3E1,3E0,1E0,1.21E2,1.08E2,9E0,1E0],"tree_param":{"num_deleted":"0","num_feature":"4","num_nodes":"29","size_leaf_vector":"1"}},{"base_weights":[2.2774668E0,2.8745289E1,-2.85063E3,-1.9599592E1,1.7038405E3,-3.197281E3,5.6810315E2,6.882727E1,-8.342712E2,1.3342993E3,1.6533438E3,-2.87888E3,-7.96666E2,5.1570778E1,-1.2396004E1,-1.17504105E2,7.0497845E2,3.987554E2,8.2109764E1,-1.809279E2,-3.3852316E2],"categories":[],"categories_nodes":[],"categories_segments":[],"categories_sizes":[],"default_left":[0,0,0,0,0,0,0,0,0,0,0,0,0,0,0,0,0,0,0,0,0],"id":50,"left_children":[1,3,5,7,9,11,-1,13,15,17,-1,19,-1,-1,-1,-1,-1,-1,-1,-1,-1],"loss_changes":[3.4501274E8,3.666402E8,1.4237926E8,3.171004E8,6.739178E8,3.932653E7,0E0,3.42177E8,1.1662294E9,1.669327E8,0E0,1.5538944E7,0E0,0E0,0E0,0E0,0E0,0E0,0E0,0E0,0E0],"parents":[2147483647,0,0,1,1,2,2,3,3,4,4,5,5,7,7,8,8,9,9,11,11],"right_children":[2,4,6,8,10,12,-1,14,16,18,-1,20,-1,-1,-1,-1,-1,-1,-1,-1,-1],"split_conditions":[3E0,3E0,4E0,2E0,2E0,3E0,5.6810315E2,1E0,4E0,1E0,1.6533438E3,1E0,-7.96666E2,5.1570778E1,-1.2396004E1,-1.17504105E2,7.0497845E2,3.987554E2,8.2109764E1,-1.809279E2,-3.3852316E2],"split_indices":[3,0,1,0,2,0,0,1,1,1,0,1,0,0,0,0,0,0,0,0,0],"split_type":[0,0,0,0,0,0,0,0,0,0,0,0,0,0,0,0,0,0,0,0,0],"sum_hessian":[4.567E3,4.526E3,4.1E1,4.4E3,1.26E2,4E1,1E0,3.97E3,4.3E2,1.24E2,2E0,3.9E1,1E0,1.196E3,2.774E3,4.13E2,1.7E1,1.9E1,1.05E2,1.4E1,2.5E1],"tree_param":{"num_deleted":"0","num_feature":"4","num_nodes":"21","size_leaf_vector":"1"}},{"base_weights":[2.4876733E0,9.201745E1,-7.084992E2,-1.0510867E1,5.32662E2,-1.4860322E3,1.7565692E2,3.2163348E2,-1.8961559E2,4.757373E2,4.0697852E2,-1.63874E3,6.9963125E3,5.1596765E2,-6.9559004E3,4.159365E1,-8.39714E1,1.2080803E1,-6.1094013E1,6.2574352E1,-1.9624489E2,-3.825023E1,-2.0895543E2,1.3482981E3,-9.47518E2,-1.0925903E2,2.3116385E2,-8.7308856E2,5.396977E2],"categories":[],"categories_nodes":[],"categories_segments":[],"categories_sizes":[],"default_left":[0,0,0,0,0,0,0,0,0,0,0,0,0,0,0,0,0,0,0,0,0,0,0,0,0,0,0,0,0],"id":51,"left_children":[1,3,5,7,9,11,13,15,17,19,-1,21,23,25,27,-1,-1,-1,-1,-1,-1,-1,-1,-1,-1,-1,-1,-1,-1],"loss_changes":[2.9083894E8,1.8334011E8,3.515534E8,1.9595702E8,1.5229768E8,3.6379226E8,5.86056E8,1.2673365E8,2.7996243E8,2.773641E8,0E0,1.5097709E8,6.619792E8,6.66867E8,2.8830826E8,0E0,0E0,0E0,0E0,0E0,0E0,0E0,0E0,0E0,0E0,0E0,0E0,0E0,0E0],"parents":[2147483647,0,0,1,1,2,2,3,3,4,4,5,5,6,6,7,7,8,8,9,9,11,11,12,12,13,13,14,14],"right_children":[2,4,6,8,10,12,14,16,18,20,-1,22,24,26,28,-1,-1,-1,-1,-1,-1,-1,-1,-1,-1,-1,-1,-1,-1],"split_conditions":[1E0,3E0,2E0,1E0,3E0,4E0,4E0,2E0,1E0,2E0,4.0697852E2,1E0,2E0,2E0,3E0,4.159365E1,-8.39714E1,1.2080803E1,-6.1094013E1,6.2574352E1,-1.9624489E2,-3.825023E1,-2.0895543E2,1.3482981E3,-9.47518E2,-1.0925903E2,2.3116385E2,-8.7308856E2,5.396977E2],"split_indices":[3,1,3,1,0,1,1,0,0,0,0,1,0,1,2,0,0,0,0,0,0,0,0,0,0,0,0,0,0],"split_type":[0,0,0,0,0,0,0,0,0,0,0,0,0,0,0,0,0,0,0,0,0,0,0,0,0,0,0,0,0],"sum_hessian":[4.567E3,4.057E3,5.1E2,3.292E3,7.65E2,2.71E2,2.39E2,1.153E3,2.139E3,7.54E2,1.1E1,2.67E2,4E0,2.29E2,1E1,1.067E3,8.6E1,1.232E3,9.07E2,7.11E2,4.3E1,7.1E1,1.96E2,3E0,1E0,1.21E2,1.08E2,9E0,1E0],"tree_param":{"num_deleted":"0","num_feature":"4","num_nodes":"29","size_leaf_vector":"1"}},{"base_weights":[2.266191E0,2.6686619E1,-2.629961E3,-1.7977716E1,1.5742539E3,-2.94421E3,5.127125E2,1.4587973E2,-2.9825977E2,1.2327915E3,1.5277104E3,-2.6336196E3,-7.6839105E2,2.392183E1,-1.7571951E2,-4.388792E1,2.1319621E2,3.68394E2,7.586806E1,-1.5384373E2,-3.1641626E2],"categories":[],"categories_nodes":[],"categories_segments":[],"categories_sizes":[],"default_left":[0,0,0,0,0,0,0,0,0,0,0,0,0,0,0,0,0,0,0,0,0],"id":52,"left_children":[1,3,5,7,9,11,-1,13,15,17,-1,19,-1,-1,-1,-1,-1,-1,-1,-1,-1],"loss_changes":[2.9370176E8,3.1293936E8,1.174769E8,2.0216515E8,5.754006E8,4.011981E7,0E0,4.938772E8,5.559158E8,1.4246962E8,0E0,1.8373792E7,0E0,0E0,0E0,0E0,0E0,0E0,0E0,0E0,0E0],"parents":[2147483647,0,0,1,1,2,2,3,3,4,4,5,5,7,7,8,8,9,9,11,11],"right_children":[2,4,6,8,10,12,-1,14,16,18,-1,20,-1,-1,-1,-1,-1,-1,-1,-1,-1],"split_conditions":[3E0,3E0,4E0,1E0,2E0,3E0,5.127125E2,4E0,4E0,1E0,1.5277104E3,1E0,-7.6839105E2,2.392183E1,-1.7571951E2,-4.388792E1,2.1319621E2,3.68394E2,7.586806E1,-1.5384373E2,-3.1641626E2],"split_indices":[3,0,1,0,2,0,0,1,1,1,0,1,0,0,0,0,0,0,0,0,0],"split_type":[0,0,0,0,0,0,0,0,0,0,0,0,0,0,0,0,0,0,0,0,0],"sum_hessian":[4.567E3,4.526E3,4.1E1,4.4E3,1.26E2,4E1,1E0,2.777E3,1.623E3,1.24E2,2E0,3.9E1,1E0,2.648E3,1.29E2,1.535E3,8.8E1,1.9E1,1.05E2,1.4E1,2.5E1],"tree_param":{"num_deleted":"0","num_feature":"4","num_nodes":"21","size_leaf_vector":"1"}},{"base_weights":[2.316755E0,2.4458012E1,-2.3842495E3,-1.617525E1,1.4323519E3,-2.6800002E3,4.8707657E2,4.995547E1,-6.2543024E2,1.1130623E3,1.4258636E3,-2.3820146E3,-7.299715E2,-2.517349E1,3.4679867E1,-9.297945E1,6.4096924E2,3.3339688E2,6.835227E1,-1.3948497E2,-2.8599167E2],"categories":[],"categories_nodes":[],"categories_segments":[],"categories_sizes":[],"default_left":[0,0,0,0,0,0,0,0,0,0,0,0,0,0,0,0,0,0,0,0,0],"id":53,"left_children":[1,3,5,7,9,11,-1,13,15,17,-1,19,-1,-1,-1,-1,-1,-1,-1,-1,-1],"loss_changes":[2.4143866E8,2.5900069E8,1.0317203E8,1.7734962E8,5.0423226E8,3.905296E7,0E0,3.557092E8,9.288339E8,1.1696704E8,0E0,1.4881568E7,0E0,0E0,0E0,0E0,0E0,0E0,0E0,0E0,0E0],"parents":[2147483647,0,0,1,1,2,2,3,3,4,4,5,5,7,7,8,8,9,9,11,11],"right_children":[2,4,6,8,10,12,-1,14,16,18,-1,20,-1,-1,-1,-1,-1,-1,-1,-1,-1],"split_conditions":[3E0,3E0,4E0,2E0,2E0,3E0,4.8707657E2,2E0,4E0,1E0,1.4258636E3,1E0,-7.299715E2,-2.517349E1,3.4679867E1,-9.297945E1,6.4096924E2,3.3339688E2,6.835227E1,-1.3948497E2,-2.8599167E2],"split_indices":[3,0,1,0,2,0,0,1,1,1,0,1,0,0,0,0,0,0,0,0,0],"split_type":[0,0,0,0,0,0,0,0,0,0,0,0,0,0,0,0,0,0,0,0,0],"sum_hessian":[4.567E3,4.526E3,4.1E1,4.4E3,1.26E2,4E1,1E0,3.97E3,4.3E2,1.24E2,2E0,3.9E1,1E0,1.969E3,2.001E3,4.13E2,1.7E1,1.9E1,1.05E2,1.4E1,2.5E1],"tree_param":{"num_deleted":"0","num_feature":"4","num_nodes":"21","size_leaf_vector":"1"}},{"base_weights":[2.4573314E0,3.5029184E2,-1.3646416E2,3.085102E2,3.0172476E3,-8.299297E2,1.9449133E2,4.3655222E2,-1.7059227E3,5.3879425E1,1.6882219E3,-6.0447626E2,-5.9964966E3,3.0401016E2,-9.329804E2,3.0229893E1,2.4340086E2,-9.959752E1,-1.1729972E3,-1.1419801E2,8.9957756E1,-2.6446265E2,-1.2300471E3,4.1913326E1,-7.318928E1,-3.3322128E2,1.8719823E2],"categories":[],"categories_nodes":[],"categories_segments":[],"categories_sizes":[],"default_left":[0,0,0,0,0,0,0,0,0,0,0,0,0,0,0,0,0,0,0,0,0,0,0,0,0,0,0],"id":54,"left_children":[1,3,5,7,9,11,13,15,17,-1,-1,19,21,23,25,-1,-1,-1,-1,-1,-1,-1,-1,-1,-1,-1,-1],"loss_changes":[2.2078126E8,1.443736E8,7.494992E8,3.3218742E8,6.7817766E8,1.2252607E9,2.7329658E8,3.234758E8,5.3629152E8,0E0,0E0,8.1916326E8,8.971941E8,2.4072754E8,1.3252703E9,0E0,0E0,0E0,0E0,0E0,0E0,0E0,0E0,0E0,0E0,0E0,0E0],"parents":[2147483647,0,0,1,1,2,2,3,3,4,4,5,5,6,6,7,7,8,8,11,11,12,12,13,13,14,14],"right_children":[2,4,6,8,10,12,14,16,18,-1,-1,20,22,24,26,-1,-1,-1,-1,-1,-1,-1,-1,-1,-1,-1,-1],"split_conditions":[1E0,3E0,2E0,2E0,1E0,2E0,2E0,2E0,2E0,5.3879425E1,1.6882219E3,2E0,1E0,4E0,3E0,3.0229893E1,2.4340086E2,-9.959752E1,-1.1729972E3,-1.1419801E2,8.9957756E1,-2.6446265E2,-1.2300471E3,4.1913326E1,-7.318928E1,-3.3322128E2,1.8719823E2],"split_indices":[1,0,1,0,2,2,0,3,2,0,0,0,0,1,0,0,0,0,0,0,0,0,0,0,0,0,0],"split_type":[0,0,0,0,0,0,0,0,0,0,0,0,0,0,0,0,0,0,0,0,0,0,0,0,0,0,0],"sum_hessian":[4.567E3,1.303E3,3.264E3,1.284E3,1.9E1,1.054E3,2.21E3,1.208E3,7.6E1,1.7E1,2E0,1.011E3,4.3E1,2.015E3,1.95E2,1.133E3,7.5E1,7.2E1,4E0,7.45E2,2.66E2,2.9E1,1.4E1,1.814E3,2.01E2,1.05E2,9E1],"tree_param":{"num_deleted":"0","num_feature":"4","num_nodes":"27","size_leaf_vector":"1"}},{"base_weights":[2.0031092E0,7.744612E1,-5.971158E2,-7.0287886E0,4.404989E2,-1.3377802E3,2.4479185E2,2.8368076E2,-1.637913E2,3.929899E2,3.3928986E2,-1.7556298E3,1.2814945E3,5.553186E2,-6.270294E3,3.6491737E1,-7.1682945E1,9.132708E0,-5.100437E1,5.200268E1,-1.6716301E2,-3.779796E2,-4.958311E1,1.4287905E3,-6.053355E2,-8.029067E1,2.0704395E2,-7.830087E2,4.6638205E2],"categories":[],"categories_nodes":[],"categories_segments":[],"categories_sizes":[],"default_left":[0,0,0,0,0,0,0,0,0,0,0,0,0,0,0,0,0,0,0,0,0,0,0,0,0,0,0,0,0],"id":55,"left_children":[1,3,5,7,9,11,13,15,17,19,-1,21,23,25,27,-1,-1,-1,-1,-1,-1,-1,-1,-1,-1,-1,-1,-1,-1],"loss_changes":[2.0651678E8,1.2445728E8,3.1897222E8,1.5011624E8,1.0611005E8,2.9994378E8,4.89028E8,9.405647E7,1.8908422E8,1.9889293E8,0E0,5.9738566E8,3.7116923E9,4.7497376E8,2.2412275E8,0E0,0E0,0E0,0E0,0E0,0E0,0E0,0E0,0E0,0E0,0E0,0E0,0E0,0E0],"parents":[2147483647,0,0,1,1,2,2,3,3,4,4,5,5,6,6,7,7,8,8,9,9,11,11,12,12,13,13,14,14],"right_children":[2,4,6,8,10,12,14,16,18,20,-1,22,24,26,28,-1,-1,-1,-1,-1,-1,-1,-1,-1,-1,-1,-1,-1,-1],"split_conditions":[1E0,3E0,2E0,1E0,3E0,3E0,4E0,2E0,1E0,2E0,3.3928986E2,1E0,1E0,2E0,3E0,3.6491737E1,-7.1682945E1,9.132708E0,-5.100437E1,5.200268E1,-1.6716301E2,-3.779796E2,-4.958311E1,1.4287905E3,-6.053355E2,-8.029067E1,2.0704395E2,-7.830087E2,4.6638205E2],"split_indices":[3,1,3,1,0,1,1,0,0,0,0,0,0,1,2,0,0,0,0,0,0,0,0,0,0,0,0,0,0],"split_type":[0,0,0,0,0,0,0,0,0,0,0,0,0,0,0,0,0,0,0,0,0,0,0,0,0,0,0,0,0],"sum_hessian":[4.567E3,4.057E3,5.1E2,3.292E3,7.65E2,2.71E2,2.39E2,1.153E3,2.139E3,7.54E2,1.1E1,2.34E2,3.7E1,2.29E2,1E1,1.067E3,8.6E1,1.232E3,9.07E2,7.11E2,4.3E1,8.9E1,1.45E2,1.3E1,2.4E1,1.21E2,1.08E2,9E0,1E0],"tree_param":{"num_deleted":"0","num_feature":"4","num_nodes":"29","size_leaf_vector":"1"}},{"base_weights":[1.883895E0,2.1102211E1,